~o
<STREAMINFO> 1 26
<VECSIZE> 26<NULLD><MFCC_E_D><DIAGC>
~h "models/average.mmf"
<BEGINHMM>
<NUMSTATES> 5
<STATE> 2
<MEAN> 26
 -4.237263e+00 5.066810e+00 4.711037e+00 1.282559e+00 -4.464320e+00 6.749777e-01 9.986508e-01 3.650174e-01 4.327603e+00 -1.171231e+00 5.371373e-01 -2.306503e+00 -9.991356e+04 6.706091e-04 1.088024e-02 5.854339e-03 2.299289e-02 3.829151e-02 6.197801e-02 5.095100e-02 5.408705e-02 3.808686e-02 2.968568e-02 2.060863e-02 1.863025e-02 7.994406e+04
<VARIANCE> 26
 4.743602e+01 3.305145e+01 4.352004e+01 6.236023e+01 7.122768e+01 5.285014e+01 3.614927e+01 2.999474e+01 2.636641e+01 3.486041e+01 2.348126e+01 3.086453e+01 9.992905e+14 1.161179e+00 1.055636e+00 1.109861e+00 1.692493e+00 2.123865e+00 1.757718e+00 1.692690e+00 1.514251e+00 1.454634e+00 1.578030e+00 1.287067e+00 1.358742e+00 2.198397e+14
<GCONST> 1.637240e+02
<STATE> 3
<MEAN> 26
 -4.237263e+00 5.066810e+00 4.711037e+00 1.282559e+00 -4.464320e+00 6.749777e-01 9.986508e-01 3.650174e-01 4.327603e+00 -1.171231e+00 5.371373e-01 -2.306503e+00 -9.991356e+04 6.706091e-04 1.088024e-02 5.854339e-03 2.299289e-02 3.829151e-02 6.197801e-02 5.095100e-02 5.408705e-02 3.808686e-02 2.968568e-02 2.060863e-02 1.863025e-02 7.994406e+04
<VARIANCE> 26
 4.743602e+01 3.305145e+01 4.352004e+01 6.236023e+01 7.122768e+01 5.285014e+01 3.614927e+01 2.999474e+01 2.636641e+01 3.486041e+01 2.348126e+01 3.086453e+01 9.992905e+14 1.161179e+00 1.055636e+00 1.109861e+00 1.692493e+00 2.123865e+00 1.757718e+00 1.692690e+00 1.514251e+00 1.454634e+00 1.578030e+00 1.287067e+00 1.358742e+00 2.198397e+14
<GCONST> 1.637240e+02
<STATE> 4
<MEAN> 26
 -4.237263e+00 5.066810e+00 4.711037e+00 1.282559e+00 -4.464320e+00 6.749777e-01 9.986508e-01 3.650174e-01 4.327603e+00 -1.171231e+00 5.371373e-01 -2.306503e+00 -9.991356e+04 6.706091e-04 1.088024e-02 5.854339e-03 2.299289e-02 3.829151e-02 6.197801e-02 5.095100e-02 5.408705e-02 3.808686e-02 2.968568e-02 2.060863e-02 1.863025e-02 7.994406e+04
<VARIANCE> 26
 4.743602e+01 3.305145e+01 4.352004e+01 6.236023e+01 7.122768e+01 5.285014e+01 3.614927e+01 2.999474e+01 2.636641e+01 3.486041e+01 2.348126e+01 3.086453e+01 9.992905e+14 1.161179e+00 1.055636e+00 1.109861e+00 1.692493e+00 2.123865e+00 1.757718e+00 1.692690e+00 1.514251e+00 1.454634e+00 1.578030e+00 1.287067e+00 1.358742e+00 2.198397e+14
<GCONST> 1.637240e+02
<TRANSP> 5
 0.000000e+00 1.000000e+00 0.000000e+00 0.000000e+00 0.000000e+00
 0.000000e+00 6.000000e-01 4.000000e-01 0.000000e+00 0.000000e+00
 0.000000e+00 0.000000e+00 6.000000e-01 4.000000e-01 0.000000e+00
 0.000000e+00 0.000000e+00 0.000000e+00 6.000000e-01 4.000000e-01
 0.000000e+00 0.000000e+00 0.000000e+00 0.000000e+00 0.000000e+00
<ENDHMM>
