~o
<STREAMINFO> 1 26
<VECSIZE> 26<NULLD><MFCC_E_D><DIAGC>
~v "varFloor1"
<VARIANCE> 26
 4.743602e-01 3.305145e-01 4.352004e-01 6.236023e-01 7.122768e-01 5.285013e-01 3.614927e-01 2.999474e-01 2.636641e-01 3.486041e-01 2.348126e-01 3.086453e-01 9.992905e+12 1.161179e-02 1.055636e-02 1.109861e-02 1.692493e-02 2.123865e-02 1.757718e-02 1.692691e-02 1.514251e-02 1.454634e-02 1.578030e-02 1.287067e-02 1.358742e-02 2.198397e+12
~h "_"
<BEGINHMM>
<NUMSTATES> 5
<STATE> 2
<MEAN> 26
 -2.870043e+00 3.967567e+00 4.244034e+00 -8.968692e-01 -7.877950e+00 -1.286836e+00 -4.402921e-01 -2.219073e+00 1.851626e+00 -1.601186e+00 -3.191293e+00 -4.618322e+00 1.721637e+01 -4.602253e-01 1.485303e+00 6.619973e-01 1.982888e+00 2.651106e+00 1.315783e+00 4.088341e-01 1.090223e+00 -2.913542e-01 9.991201e-01 1.677211e+00 8.964317e-01 -4.604608e-01
<VARIANCE> 26
 3.189973e+01 2.126899e+01 3.463137e+01 5.497017e+01 4.909880e+01 3.112642e+01 1.861638e+01 2.123675e+01 2.696013e+01 2.333968e+01 1.742011e+01 3.501414e+01 9.992905e+12 1.051342e+00 9.632167e-01 2.827191e+00 3.517851e+00 2.300403e+00 2.896579e+00 1.594137e+00 1.302067e+00 1.656400e+00 1.907946e+00 1.684404e+00 2.981212e+00 2.198397e+12
<GCONST> 1.540784e+02
<STATE> 3
<MEAN> 26
 -5.333772e+00 7.976460e+00 6.271356e+00 4.983962e+00 -9.364930e-01 8.282893e-01 1.000426e+00 -4.471242e-01 1.639493e+00 2.224350e-01 1.373891e+00 -9.566669e-01 1.609180e+01 -5.588708e-01 1.955806e-01 -3.465843e-01 6.796480e-01 1.532881e+00 1.400011e+00 8.170812e-01 5.850590e-01 2.612634e-01 6.536632e-01 6.428517e-01 4.401603e-01 -2.572162e-01
<VARIANCE> 26
 1.460362e+01 4.187687e+00 1.791639e+01 2.341333e+01 2.878884e+01 2.922481e+01 1.356597e+01 1.737432e+01 1.504818e+01 1.674503e+01 1.661959e+01 1.364947e+01 9.992905e+12 2.450222e+00 8.926754e-01 1.026758e+00 2.783999e+00 4.070437e+00 3.353422e+00 2.819708e+00 2.484321e+00 2.455949e+00 2.856590e+00 2.255812e+00 1.801351e+00 2.198397e+12
<GCONST> 1.491836e+02
<STATE> 4
<MEAN> 26
 -8.279844e+00 7.624846e+00 5.879817e+00 6.535226e+00 3.627257e+00 6.390086e+00 4.457541e+00 3.717585e+00 2.963716e+00 2.327149e+00 2.754551e+00 9.625819e-01 1.459963e+01 3.155922e-01 -1.640176e-02 -1.888960e-01 -2.759921e-01 -3.335902e-01 -1.380837e-01 4.608096e-02 -1.543065e-02 -1.921043e-01 -2.655742e-01 -2.089864e-01 8.823739e-02 -2.125907e-02
<VARIANCE> 26
 1.258001e+01 3.698265e+00 5.360201e+00 9.243424e+00 1.741504e+01 1.595727e+01 1.329098e+01 1.159262e+01 1.065678e+01 1.646960e+01 9.760483e+00 9.736992e+00 9.992905e+12 2.095140e+00 6.002036e-01 7.809794e-01 2.224624e+00 2.404345e+00 1.604977e+00 1.561476e+00 1.913988e+00 1.331208e+00 2.691312e+00 1.168763e+00 1.290082e+00 2.198397e+12
<GCONST> 1.391795e+02
<TRANSP> 5
 0.000000e+00 1.000000e+00 0.000000e+00 0.000000e+00 0.000000e+00
 0.000000e+00 4.127738e-01 5.872262e-01 0.000000e+00 0.000000e+00
 0.000000e+00 0.000000e+00 5.935964e-01 4.064036e-01 0.000000e+00
 0.000000e+00 0.000000e+00 0.000000e+00 7.574105e-01 2.425895e-01
 0.000000e+00 0.000000e+00 0.000000e+00 0.000000e+00 0.000000e+00
<ENDHMM>
~h "a"
<BEGINHMM>
<NUMSTATES> 5
<STATE> 2
<MEAN> 26
 -4.433508e-01 -3.448646e-01 1.135451e+00 -3.456828e+00 -1.060395e+01 -1.042739e+00 -3.227764e+00 -1.811806e+00 6.986521e+00 -2.602465e-01 -2.051552e+00 -5.932155e+00 1.812481e+01 1.557636e+00 -2.262233e+00 -1.875203e+00 -2.026387e+00 -1.925302e+00 3.659872e-01 -4.824618e-01 -4.650689e-01 1.085591e+00 1.187085e-01 -1.070376e+00 -1.731439e+00 5.989559e-01
<VARIANCE> 26
 2.811018e+01 3.617693e+01 3.291452e+01 3.830535e+01 4.542171e+01 2.642861e+01 2.679418e+01 1.736009e+01 2.542585e+01 2.639892e+01 2.278705e+01 2.712783e+01 9.992905e+12 2.844833e+00 1.562199e+00 1.655769e+00 2.728553e+00 3.586983e+00 2.354625e+00 3.821130e+00 2.358474e+00 1.779624e+00 1.958580e+00 1.777221e+00 1.824231e+00 2.198397e+12
<GCONST> 1.561258e+02
<STATE> 3
<MEAN> 26
 2.003149e+00 -6.574014e+00 -9.014956e+00 -9.816615e+00 -1.020445e+01 4.557245e+00 6.147141e+00 -5.902802e+00 8.494302e+00 -1.436069e+00 -9.744627e+00 -1.123917e+01 1.950634e+01 -7.751581e-03 -7.672939e-03 -7.844131e-02 -8.129234e-02 5.120255e-02 1.033749e-01 2.006938e-01 -4.598986e-02 -1.157614e-01 -7.570982e-02 -6.771454e-02 -2.985069e-02 -4.579307e-03
<VARIANCE> 26
 1.218163e+00 4.921736e+00 9.231023e+00 1.018848e+01 1.114675e+01 1.173404e+01 3.305977e+01 1.565766e+01 1.195969e+01 9.291095e+00 1.504596e+01 9.987693e+00 9.992905e+12 1.175181e-01 3.213190e-01 5.696691e-01 4.783194e-01 8.771577e-01 7.283856e-01 1.597329e+00 8.702955e-01 6.854082e-01 7.464933e-01 1.255664e+00 7.523950e-01 2.198397e+12
<GCONST> 1.278951e+02
<STATE> 4
<MEAN> 26
 1.870528e+00 -3.055447e+00 -2.154787e+00 -6.784420e+00 -1.283919e+01 1.041483e+00 -1.730052e+00 -1.912634e+00 7.593729e+00 4.672247e-01 -2.858147e+00 -9.318199e+00 1.880134e+01 -6.552522e-01 2.006932e+00 1.620287e+00 1.528062e+00 1.160761e+00 -5.700850e-01 -4.011685e-01 3.678381e-01 -6.143779e-01 5.009415e-01 1.190089e+00 1.186062e+00 -3.869120e-01
<VARIANCE> 26
 8.255269e+00 3.161842e+01 2.342346e+01 2.926578e+01 2.689926e+01 1.552591e+01 2.387452e+01 1.429412e+01 2.407430e+01 2.531023e+01 2.764874e+01 2.281173e+01 9.992905e+12 1.459973e+00 2.383111e+00 1.583643e+00 2.370660e+00 3.652500e+00 1.551408e+00 2.960007e+00 1.647117e+00 1.565282e+00 2.048656e+00 1.866835e+00 2.347306e+00 2.198397e+12
<GCONST> 1.514890e+02
<TRANSP> 5
 0.000000e+00 1.000000e+00 0.000000e+00 0.000000e+00 0.000000e+00
 0.000000e+00 7.677644e-01 2.322356e-01 0.000000e+00 0.000000e+00
 0.000000e+00 0.000000e+00 9.078047e-01 9.219533e-02 0.000000e+00
 0.000000e+00 0.000000e+00 0.000000e+00 6.949179e-01 3.050821e-01
 0.000000e+00 0.000000e+00 0.000000e+00 0.000000e+00 0.000000e+00
<ENDHMM>
~h "b"
<BEGINHMM>
<NUMSTATES> 5
<STATE> 2
<MEAN> 26
 -1.810845e-01 7.448901e+00 4.690046e+00 2.330357e+00 -4.938941e+00 -3.212617e+00 6.787089e-01 -1.610679e+00 -7.587196e-03 -2.285603e+00 2.258414e+00 -4.271588e+00 1.667532e+01 -3.364063e-01 1.183961e+00 8.015804e-01 1.422889e+00 1.400910e+00 -2.293704e-01 6.064453e-01 -5.190931e-02 -8.964516e-01 6.400361e-02 5.798770e-01 6.403273e-01 -2.505209e-01
<VARIANCE> 26
 9.547186e+00 1.608069e+01 2.448188e+01 4.175542e+01 2.569685e+01 3.222815e+01 2.547862e+01 1.717575e+01 2.412674e+01 2.070079e+01 1.580456e+01 2.071031e+01 9.992905e+12 6.966214e-01 1.476719e+00 1.511711e+00 2.254446e+00 1.832437e+00 1.768424e+00 1.795800e+00 1.202003e+00 1.929505e+00 1.668017e+00 1.529854e+00 1.705449e+00 2.198397e+12
<GCONST> 1.482326e+02
<STATE> 3
<MEAN> 26
 -3.401359e+00 1.107738e+01 7.901879e+00 8.252273e+00 3.119905e+00 -7.800843e-02 4.228631e+00 8.256603e-01 1.867213e-02 -1.673004e+00 2.894787e+00 -3.163037e-01 1.541261e+01 4.955176e-02 -6.528548e-02 -2.260618e-02 4.877501e-02 -1.252718e-02 -5.194812e-02 -5.879099e-02 -6.127702e-02 5.325399e-03 -1.385781e-01 -1.249936e-01 6.783009e-03 2.950598e-02
<VARIANCE> 26
 3.402762e+00 4.224253e+00 4.306449e+00 4.934268e+00 9.934882e+00 2.271100e+01 1.223838e+01 1.685806e+01 1.465723e+01 1.563503e+01 1.043078e+01 1.078190e+01 9.992905e+12 2.920404e-01 3.796696e-01 4.108972e-01 6.286108e-01 1.221943e+00 1.745882e+00 1.324004e+00 1.682330e+00 1.447821e+00 1.549090e+00 1.144287e+00 1.086684e+00 2.198397e+12
<GCONST> 1.317948e+02
<STATE> 4
<MEAN> 26
 -1.223601e+00 6.648150e+00 4.923564e+00 3.586641e+00 -4.425734e+00 -2.944632e+00 1.855056e-01 -2.097123e+00 1.662978e+00 -1.715289e+00 1.904580e+00 -2.613829e+00 1.657181e+01 5.784210e-01 -1.414131e+00 -1.094667e+00 -1.866282e+00 -2.221381e+00 -3.525037e-01 -7.717975e-01 -6.141356e-01 7.477637e-01 3.038457e-01 -1.822508e-01 -8.984868e-01 3.935345e-01
<VARIANCE> 26
 6.461577e+00 1.516948e+01 2.671546e+01 3.381710e+01 2.916145e+01 2.275852e+01 1.609083e+01 1.308650e+01 1.697685e+01 1.916880e+01 1.178944e+01 1.370432e+01 9.992905e+12 8.782566e-01 1.252076e+00 2.314875e+00 3.078321e+00 2.220202e+00 2.601587e+00 1.946270e+00 1.631661e+00 1.663570e+00 2.248564e+00 1.443929e+00 1.939692e+00 2.198397e+12
<GCONST> 1.475626e+02
<TRANSP> 5
 0.000000e+00 1.000000e+00 0.000000e+00 0.000000e+00 0.000000e+00
 0.000000e+00 7.600675e-01 2.399325e-01 0.000000e+00 0.000000e+00
 0.000000e+00 0.000000e+00 9.056464e-01 9.435359e-02 0.000000e+00
 0.000000e+00 0.000000e+00 0.000000e+00 6.836241e-01 3.163758e-01
 0.000000e+00 0.000000e+00 0.000000e+00 0.000000e+00 0.000000e+00
<ENDHMM>
~h "d"
<BEGINHMM>
<NUMSTATES> 5
<STATE> 2
<MEAN> 26
 -2.067091e+00 6.290676e+00 6.806358e+00 1.542193e+00 -7.456156e+00 -4.103689e+00 -1.975178e+00 -1.753262e+00 1.548347e+00 -4.292055e+00 7.035263e-01 -2.428757e+00 1.695250e+01 -4.283465e-01 6.724622e-01 8.666266e-01 1.563915e+00 8.790056e-01 -6.840604e-01 6.801855e-01 -1.680105e-01 -4.694317e-01 1.269603e-01 3.788911e-01 4.725569e-01 -1.624402e-01
<VARIANCE> 26
 2.692916e+01 1.073145e+01 3.605046e+01 5.982719e+01 3.886421e+01 5.092871e+01 3.358654e+01 2.313008e+01 2.101521e+01 4.361483e+01 1.541913e+01 2.297727e+01 9.992905e+12 8.980250e-01 1.265327e+00 1.446548e+00 2.064868e+00 1.645285e+00 1.393516e+00 1.646645e+00 1.474009e+00 1.743382e+00 2.347916e+00 1.256266e+00 1.486154e+00 2.198397e+12
<GCONST> 1.513879e+02
<STATE> 3
<MEAN> 26
 -3.393359e+00 1.077984e+01 9.069998e+00 8.249493e+00 6.612217e-01 -2.030540e+00 2.928755e+00 -8.747750e-01 -6.051982e-01 -2.736011e+00 2.699691e+00 -4.205130e-01 1.576256e+01 8.362798e-02 -1.798542e-02 9.888008e-02 2.863828e-02 -1.941912e-01 -1.902467e-01 -1.247227e-01 -1.633734e-01 -5.338584e-02 -1.168264e-01 -1.206916e-01 -7.462794e-02 4.721453e-02
<VARIANCE> 26
 5.841437e+00 4.440955e+00 5.361284e+00 4.886739e+00 2.014924e+01 3.234156e+01 1.272933e+01 1.781116e+01 1.548829e+01 1.733961e+01 1.068685e+01 1.074805e+01 9.992905e+12 5.374125e-01 5.140606e-01 5.568440e-01 6.344159e-01 1.741282e+00 2.332111e+00 1.288841e+00 1.592406e+00 1.625910e+00 1.693741e+00 1.083615e+00 1.080736e+00 2.198397e+12
<GCONST> 1.358625e+02
<STATE> 4
<MEAN> 26
 -4.742595e+00 5.738942e+00 8.524704e+00 4.456402e+00 -6.753479e+00 -4.646954e+00 -3.662653e-01 -2.226947e+00 3.097555e+00 -9.966171e-01 7.409204e-01 -1.835971e+00 1.660059e+01 -1.670600e-01 -1.008131e+00 -5.415403e-01 -1.302997e+00 -1.282842e+00 -1.924821e-02 -4.436780e-01 -2.897976e-01 8.594050e-01 4.451011e-01 -2.337857e-01 -4.818234e-01 2.424081e-01
<VARIANCE> 26
 1.300682e+01 8.733321e+00 2.705606e+01 2.543173e+01 2.074640e+01 2.850395e+01 1.327331e+01 1.534122e+01 1.809895e+01 2.392804e+01 1.268793e+01 1.538113e+01 9.992905e+12 2.051190e+00 1.011473e+00 2.405696e+00 2.380461e+00 2.290662e+00 2.429138e+00 2.081616e+00 1.798992e+00 1.804920e+00 1.646680e+00 1.493547e+00 1.808881e+00 2.198397e+12
<GCONST> 1.480412e+02
<TRANSP> 5
 0.000000e+00 1.000000e+00 0.000000e+00 0.000000e+00 0.000000e+00
 0.000000e+00 6.994812e-01 3.005188e-01 0.000000e+00 0.000000e+00
 0.000000e+00 0.000000e+00 8.984619e-01 1.015381e-01 0.000000e+00
 0.000000e+00 0.000000e+00 0.000000e+00 6.863453e-01 3.136547e-01
 0.000000e+00 0.000000e+00 0.000000e+00 0.000000e+00 0.000000e+00
<ENDHMM>
~h "e"
<BEGINHMM>
<NUMSTATES> 5
<STATE> 2
<MEAN> 26
 -6.466706e+00 4.822156e+00 1.215852e+01 4.213331e+00 -1.003389e+01 -6.106543e+00 -1.607013e-01 -2.642096e+00 3.700531e+00 -3.162869e+00 2.497915e-01 -3.428916e-01 1.697420e+01 6.526665e-01 -7.693208e-01 9.738563e-01 -1.683718e-01 -2.224422e+00 -1.624802e+00 -6.618478e-01 -7.595739e-01 8.130860e-02 -9.329388e-01 -9.828004e-02 2.357187e-02 3.356656e-01
<VARIANCE> 26
 2.132021e+01 2.266215e+01 2.562419e+01 1.799072e+01 4.697230e+01 3.747883e+01 2.771832e+01 1.728138e+01 2.044188e+01 1.959690e+01 1.741011e+01 1.524935e+01 9.992905e+12 1.613775e+00 1.347126e+00 1.402202e+00 1.198095e+00 2.286957e+00 2.096802e+00 1.739768e+00 1.583205e+00 1.596148e+00 1.505221e+00 1.479630e+00 1.400501e+00 2.198397e+12
<GCONST> 1.491511e+02
<STATE> 3
<MEAN> 26
 -5.024031e+00 1.831795e+00 1.501237e+01 2.793807e+00 -1.898056e+01 -1.061144e+01 -7.397597e-01 -3.851149e+00 5.125023e+00 -7.332652e+00 2.642382e+00 2.864576e+00 1.790784e+01 4.130950e-02 8.156127e-03 -1.354252e-02 -3.822923e-02 -1.038203e-01 -3.243060e-02 -4.553950e-03 4.816610e-02 5.808546e-02 -6.105632e-02 7.859613e-02 5.683715e-02 8.737121e-03
<VARIANCE> 26
 1.349571e+01 7.701663e+00 9.519528e+00 5.140773e+00 1.203206e+01 7.703918e+00 2.028340e+01 9.058781e+00 1.328062e+01 9.180014e+00 1.002827e+01 8.247477e+00 9.992905e+12 3.615583e-01 3.921874e-01 4.975037e-01 5.396029e-01 7.823413e-01 7.584597e-01 9.821991e-01 7.426723e-01 7.725399e-01 9.288213e-01 7.719424e-01 7.238738e-01 2.198397e+12
<GCONST> 1.286126e+02
<STATE> 4
<MEAN> 26
 -4.828382e+00 5.506505e+00 1.347097e+01 5.260900e+00 -1.241200e+01 -9.803868e+00 -9.973899e-01 -3.466386e+00 3.224452e+00 -4.686958e+00 2.036061e+00 1.289038e-01 1.736574e+01 5.172057e-02 6.915208e-01 -6.900827e-01 5.149694e-01 1.806785e+00 8.768179e-01 3.371330e-01 3.518169e-01 -4.188462e-01 6.949237e-01 -1.506782e-01 -3.253320e-01 -1.913852e-01
<VARIANCE> 26
 1.142907e+01 8.622149e+00 1.408401e+01 9.569119e+00 2.696469e+01 1.586956e+01 2.331110e+01 1.156322e+01 1.450983e+01 1.437150e+01 1.613200e+01 1.192675e+01 9.992905e+12 1.115703e+00 5.541087e-01 1.138759e+00 8.672163e-01 2.028459e+00 2.132064e+00 1.919820e+00 1.296823e+00 1.401567e+00 1.591770e+00 1.144121e+00 1.165821e+00 2.198397e+12
<GCONST> 1.408595e+02
<TRANSP> 5
 0.000000e+00 1.000000e+00 0.000000e+00 0.000000e+00 0.000000e+00
 0.000000e+00 7.465174e-01 2.534827e-01 0.000000e+00 0.000000e+00
 0.000000e+00 0.000000e+00 9.115613e-01 8.843864e-02 0.000000e+00
 0.000000e+00 0.000000e+00 0.000000e+00 7.233698e-01 2.766302e-01
 0.000000e+00 0.000000e+00 0.000000e+00 0.000000e+00 0.000000e+00
<ENDHMM>
~h "f"
<BEGINHMM>
<NUMSTATES> 5
<STATE> 2
<MEAN> 26
 -8.956098e+00 6.217333e+00 5.791484e+00 7.736580e-01 -3.374085e+00 1.024764e+00 1.517916e+00 5.839837e-01 4.870522e+00 2.029266e+00 9.646854e-01 -1.882766e+00 1.631017e+01 -2.923008e+00 6.296631e-01 1.961197e-01 5.833957e-01 1.903857e+00 7.535325e-01 6.583381e-01 1.009008e+00 1.039001e-01 8.086822e-01 2.815841e-01 7.291420e-01 -3.669538e-01
<VARIANCE> 26
 4.529079e+01 7.917744e+00 3.055877e+01 2.757941e+01 4.328445e+01 3.303975e+01 1.657469e+01 1.993132e+01 2.119566e+01 2.244694e+01 1.488266e+01 2.038320e+01 9.992905e+12 3.788248e+00 1.300910e+00 2.068277e+00 2.314323e+00 3.647021e+00 1.953375e+00 2.193527e+00 1.965906e+00 2.408203e+00 2.538804e+00 1.776545e+00 1.696336e+00 2.198397e+12
<GCONST> 1.532004e+02
<STATE> 3
<MEAN> 26
 -1.972586e+01 7.958775e+00 3.770830e+00 1.452543e+00 1.795667e+00 1.915182e+00 4.640544e+00 4.211998e+00 6.002409e+00 3.569866e+00 2.086722e+00 8.913662e-01 1.529844e+01 -1.354298e-01 1.611829e-02 -4.564076e-02 -8.111442e-02 -3.890654e-02 -8.255475e-02 7.818672e-02 2.990204e-02 1.828562e-02 3.601816e-02 2.106499e-02 1.925238e-02 6.900704e-03
<VARIANCE> 26
 8.510830e+00 2.168049e+00 1.096420e+01 5.344542e+00 8.195426e+00 1.067375e+01 1.009215e+01 1.004537e+01 1.051865e+01 1.243130e+01 1.099331e+01 1.101373e+01 9.992905e+12 8.947269e-01 1.967615e-01 5.274990e-01 6.687648e-01 8.935086e-01 1.041729e+00 1.042683e+00 1.063802e+00 1.297388e+00 1.251428e+00 1.268880e+00 1.152872e+00 2.198397e+12
<GCONST> 1.300004e+02
<STATE> 4
<MEAN> 26
 -1.512259e+01 7.439894e+00 6.204229e+00 4.128757e-01 -1.652583e+00 6.272841e-01 3.442052e+00 1.983045e+00 4.462189e+00 3.212130e+00 1.619640e+00 -1.673008e-02 1.574775e+01 3.530987e+00 -5.566972e-01 3.135920e-01 -6.308087e-01 -2.354573e+00 -1.140543e+00 -1.615898e+00 -1.584441e+00 -3.121314e-01 -7.327645e-01 -5.441613e-01 -9.757165e-01 4.587610e-01
<VARIANCE> 26
 2.070025e+01 3.126289e+00 1.726095e+01 9.109698e+00 1.499465e+01 1.448584e+01 1.271261e+01 1.289842e+01 1.483127e+01 1.535700e+01 1.040662e+01 1.303605e+01 9.992905e+12 4.069502e+00 6.866910e-01 1.725093e+00 1.997543e+00 2.037408e+00 1.459304e+00 1.236093e+00 1.237260e+00 1.719347e+00 1.833117e+00 1.446044e+00 1.890690e+00 2.198397e+12
<GCONST> 1.421163e+02
<TRANSP> 5
 0.000000e+00 1.000000e+00 0.000000e+00 0.000000e+00 0.000000e+00
 0.000000e+00 7.579897e-01 2.420103e-01 0.000000e+00 0.000000e+00
 0.000000e+00 0.000000e+00 9.394185e-01 6.058150e-02 0.000000e+00
 0.000000e+00 0.000000e+00 0.000000e+00 6.263148e-01 3.736852e-01
 0.000000e+00 0.000000e+00 0.000000e+00 0.000000e+00 0.000000e+00
<ENDHMM>
~h "g"
<BEGINHMM>
<NUMSTATES> 5
<STATE> 2
<MEAN> 26
 -2.607998e+00 7.399010e+00 5.272737e+00 2.457376e+00 -3.054089e+00 1.309721e-01 1.550575e+00 1.373453e+00 1.720320e+00 -3.013567e+00 1.373517e+00 -2.364594e+00 1.616570e+01 1.665604e-01 7.029204e-01 6.827163e-01 1.043221e+00 5.375639e-01 -1.032236e+00 -1.465852e-02 -7.290207e-01 -8.319036e-01 -3.179699e-01 1.674352e-01 -6.523940e-02 1.137037e-02
<VARIANCE> 26
 2.228943e+01 1.528097e+01 2.175697e+01 6.810303e+01 5.743517e+01 4.114630e+01 3.060312e+01 2.514366e+01 2.053174e+01 4.634444e+01 1.453490e+01 2.205432e+01 9.992905e+12 1.144124e+00 1.153180e+00 1.045767e+00 1.965201e+00 1.806799e+00 1.692919e+00 1.578082e+00 1.504531e+00 1.552860e+00 2.456723e+00 1.030494e+00 1.319139e+00 2.198397e+12
<GCONST> 1.509359e+02
<STATE> 3
<MEAN> 26
 -1.869050e+00 1.220296e+01 9.913870e+00 8.529433e+00 -4.105726e-01 -5.203501e+00 2.294031e+00 -2.993681e+00 -2.709858e+00 -4.135857e+00 3.108186e+00 -2.408092e+00 1.608802e+01 -5.138681e-02 -5.071196e-02 4.123992e-02 9.038884e-03 -8.843751e-02 5.676218e-02 7.510655e-02 3.496768e-02 1.221392e-01 3.813296e-02 -5.399597e-02 7.904202e-02 -4.502830e-03
<VARIANCE> 26
 1.709814e+00 4.997475e+00 4.414290e+00 5.331103e+00 1.401607e+01 1.439857e+01 9.200728e+00 9.926572e+00 1.082006e+01 1.072332e+01 8.977665e+00 9.959496e+00 9.992905e+12 2.657218e-01 6.193776e-01 4.723681e-01 5.390031e-01 1.692303e+00 1.644095e+00 1.115730e+00 1.300006e+00 1.282198e+00 1.255889e+00 9.256096e-01 1.036540e+00 2.198397e+12
<GCONST> 1.291669e+02
<STATE> 4
<MEAN> 26
 -3.735616e+00 6.192063e+00 7.946061e+00 4.504626e+00 -4.964588e+00 -2.754513e+00 2.192721e+00 -7.198969e-01 2.163784e+00 -1.583055e+00 1.310531e+00 -1.092959e+00 1.643280e+01 3.407228e-02 -8.071907e-01 -2.183574e-01 -8.074095e-01 -1.081191e+00 -3.789856e-02 -2.188534e-01 4.279289e-02 5.826710e-01 1.012145e-01 -3.013741e-01 -2.043900e-01 1.646438e-01
<VARIANCE> 26
 1.640309e+01 2.202523e+01 3.023221e+01 2.477902e+01 5.252264e+01 3.306903e+01 2.010215e+01 1.795100e+01 1.852862e+01 1.606934e+01 1.734774e+01 1.708014e+01 9.992905e+12 1.367028e+00 1.367756e+00 1.820201e+00 1.470063e+00 1.836159e+00 2.017498e+00 1.883519e+00 1.595258e+00 1.714821e+00 1.694700e+00 1.312890e+00 1.661253e+00 2.198397e+12
<GCONST> 1.492473e+02
<TRANSP> 5
 0.000000e+00 1.000000e+00 0.000000e+00 0.000000e+00 0.000000e+00
 0.000000e+00 7.820985e-01 2.179015e-01 0.000000e+00 0.000000e+00
 0.000000e+00 0.000000e+00 8.993936e-01 1.006064e-01 0.000000e+00
 0.000000e+00 0.000000e+00 0.000000e+00 8.419199e-01 1.580801e-01
 0.000000e+00 0.000000e+00 0.000000e+00 0.000000e+00 0.000000e+00
<ENDHMM>
~h "h"
<BEGINHMM>
<NUMSTATES> 5
<STATE> 2
<MEAN> 26
 1.982103e-02 1.266395e+00 5.199100e+00 1.869658e+00 -1.126181e+01 -6.702214e+00 -6.312376e+00 -2.110473e+00 7.459264e+00 -4.576817e+00 -4.387679e-01 -2.456231e+00 1.799007e+01 2.294769e-01 4.064906e-01 8.074340e-01 1.134070e+00 1.747230e-01 -1.101006e+00 -1.011460e+00 -4.110062e-01 -6.921355e-02 -5.643574e-01 -1.713062e-01 4.174812e-01 2.103580e-02
<VARIANCE> 26
 4.389394e+01 2.409464e+01 2.489445e+01 2.764058e+01 4.831793e+01 3.485365e+01 4.318549e+01 1.577667e+01 3.097789e+01 2.180276e+01 1.895456e+01 2.029607e+01 9.992905e+12 8.820871e-01 1.397148e+00 1.047924e+00 1.383511e+00 2.860017e+00 1.449544e+00 2.458926e+00 1.274998e+00 1.599400e+00 1.917692e+00 1.458225e+00 1.475081e+00 2.198397e+12
<GCONST> 1.510867e+02
<STATE> 3
<MEAN> 26
 4.621544e-01 6.206520e+00 1.113707e+01 8.644660e+00 -7.256301e+00 -1.250939e+01 -1.140368e+01 -5.107155e+00 4.753372e+00 -1.096126e+01 -8.427306e-01 -1.662407e+00 1.807329e+01 5.506877e-02 2.228978e-02 -4.264617e-02 9.011140e-02 1.863335e-01 -1.092427e-01 -2.609204e-01 -1.432845e-01 7.062882e-03 -7.185087e-02 2.077091e-03 -3.304746e-02 1.495428e-02
<VARIANCE> 26
 1.357827e+01 4.223474e+00 1.432776e+01 6.839515e+00 1.632267e+01 8.425372e+00 8.080868e+01 7.182904e+00 2.477505e+01 1.670334e+01 1.733105e+01 9.146713e+00 9.992905e+12 2.269080e-01 2.971484e-01 8.045639e-01 5.681660e-01 8.985737e-01 8.405285e-01 1.381539e+00 6.847583e-01 8.377520e-01 1.136995e+00 7.146547e-01 6.456313e-01 2.198397e+12
<GCONST> 1.325116e+02
<STATE> 4
<MEAN> 26
 2.884247e+00 1.998612e+00 3.831983e+00 3.971897e+00 -7.843740e+00 -9.005000e+00 -1.167626e+01 -5.062474e+00 5.768163e+00 -5.109117e+00 -1.547191e+00 -4.242450e+00 1.824180e+01 -3.371504e-04 -9.983512e-01 -8.978652e-01 -1.630547e+00 -1.255195e+00 1.276457e+00 1.694976e+00 4.054525e-01 -1.990767e-01 1.319779e+00 1.020297e-01 -6.622553e-01 -2.165517e-03
<VARIANCE> 26
 9.954432e+00 1.148487e+01 3.412212e+01 2.733295e+01 2.131560e+01 2.792164e+01 6.193048e+01 1.300859e+01 1.742239e+01 2.872229e+01 1.378279e+01 2.022295e+01 9.992905e+12 2.418412e-01 1.014347e+00 1.082182e+00 1.191614e+00 1.466220e+00 1.672926e+00 2.492895e+00 1.087970e+00 1.053153e+00 1.687104e+00 1.119562e+00 1.510238e+00 2.198397e+12
<GCONST> 1.444838e+02
<TRANSP> 5
 0.000000e+00 1.000000e+00 0.000000e+00 0.000000e+00 0.000000e+00
 0.000000e+00 8.494653e-01 1.505347e-01 0.000000e+00 0.000000e+00
 0.000000e+00 0.000000e+00 9.235079e-01 7.649213e-02 0.000000e+00
 0.000000e+00 0.000000e+00 0.000000e+00 7.194941e-01 2.805059e-01
 0.000000e+00 0.000000e+00 0.000000e+00 0.000000e+00 0.000000e+00
<ENDHMM>
~h "i"
<BEGINHMM>
<NUMSTATES> 5
<STATE> 2
<MEAN> 26
 -8.073476e+00 8.400629e+00 1.073331e+01 7.094478e+00 -3.487511e+00 -2.810806e+00 2.963408e+00 -1.447663e+00 1.429778e+00 -2.093260e+00 2.452346e+00 -3.594340e-03 1.585264e+01 7.714544e-01 -1.083259e-02 1.216120e+00 2.714770e-01 -1.341850e+00 -1.929589e+00 -3.064434e-01 -1.267930e+00 -7.058625e-01 -8.434802e-01 -7.436194e-02 -3.317020e-01 2.969881e-01
<VARIANCE> 26
 2.109228e+01 5.777915e+00 1.826467e+01 8.906574e+00 3.542852e+01 4.930017e+01 1.910833e+01 2.478097e+01 1.719347e+01 2.082230e+01 1.101835e+01 1.265387e+01 9.992905e+12 1.931857e+00 5.312911e-01 9.775016e-01 7.278138e-01 1.537156e+00 2.155329e+00 1.611476e+00 1.586709e+00 1.574618e+00 1.662582e+00 1.254901e+00 1.475806e+00 2.198397e+12
<GCONST> 1.438758e+02
<STATE> 3
<MEAN> 26
 -9.727105e+00 7.002403e+00 1.761922e+01 5.606495e+00 -9.887479e+00 -1.094328e+01 3.193697e+00 -6.055496e+00 -6.193739e-01 -3.956724e+00 4.317659e+00 -6.777484e-01 1.702179e+01 8.913205e-03 -1.735375e-02 6.657265e-02 -6.835071e-05 -1.080419e-01 -1.130696e-01 -5.014197e-03 -1.718947e-02 -3.933614e-02 -4.076623e-02 1.118885e-01 -3.555883e-03 1.440628e-02
<VARIANCE> 26
 7.904031e+00 2.805882e+00 5.133054e+00 1.102940e+01 8.329519e+00 8.597376e+00 1.676180e+01 9.759275e+00 1.024153e+01 1.179005e+01 1.162620e+01 1.056067e+01 9.992905e+12 4.238200e-01 2.805802e-01 4.955363e-01 6.844828e-01 7.588300e-01 8.877391e-01 1.279934e+00 9.699509e-01 9.658419e-01 9.479311e-01 8.839013e-01 9.162234e-01 2.198397e+12
<GCONST> 1.285561e+02
<STATE> 4
<MEAN> 26
 -4.786923e+00 9.143562e+00 1.301727e+01 8.613414e+00 -6.474001e+00 -8.822070e+00 2.927732e+00 -5.976782e+00 -2.660448e+00 -4.364380e+00 4.363755e+00 -2.311874e+00 1.654086e+01 4.086079e-02 5.212889e-02 -3.152677e-01 2.790960e-02 5.433854e-01 5.774400e-01 7.054950e-02 3.337854e-01 1.578693e-01 1.815664e-01 -9.765140e-02 8.731741e-02 -5.344110e-02
<VARIANCE> 26
 6.009548e+00 6.286987e+00 8.497876e+00 7.175836e+00 1.983342e+01 1.619420e+01 1.095453e+01 1.446023e+01 1.478880e+01 1.082298e+01 1.166602e+01 1.099953e+01 9.992905e+12 5.428583e-01 3.836738e-01 7.009685e-01 5.309702e-01 1.482213e+00 1.839973e+00 1.037049e+00 1.404296e+00 1.188091e+00 1.286063e+00 9.579520e-01 9.359965e-01 2.198397e+12
<GCONST> 1.337829e+02
<TRANSP> 5
 0.000000e+00 1.000000e+00 0.000000e+00 0.000000e+00 0.000000e+00
 0.000000e+00 7.277178e-01 2.722822e-01 0.000000e+00 0.000000e+00
 0.000000e+00 0.000000e+00 9.020273e-01 9.797265e-02 0.000000e+00
 0.000000e+00 0.000000e+00 0.000000e+00 8.531649e-01 1.468351e-01
 0.000000e+00 0.000000e+00 0.000000e+00 0.000000e+00 0.000000e+00
<ENDHMM>
~h "j"
<BEGINHMM>
<NUMSTATES> 5
<STATE> 2
<MEAN> 26
 -3.295666e+00 2.870565e+00 8.993950e+00 4.095905e+00 -9.851038e+00 -5.819849e+00 -2.728677e+00 -1.535661e+00 5.827357e+00 -4.350205e+00 1.049552e-01 -8.684049e-01 1.733230e+01 -3.255288e-01 5.349104e-01 1.128109e+00 5.006427e-01 -1.898817e-01 -8.894976e-01 -1.509792e-01 -5.450975e-01 -3.742495e-01 -3.892831e-01 3.471297e-01 3.819198e-01 1.367375e-02
<VARIANCE> 26
 4.255071e+01 3.266556e+01 2.644757e+01 2.055997e+01 8.107320e+01 4.598379e+01 4.056537e+01 1.512825e+01 2.924638e+01 2.403784e+01 1.715069e+01 1.628003e+01 9.992905e+12 1.220162e+00 1.371174e+00 1.156503e+00 1.201015e+00 1.823878e+00 1.560999e+00 1.954590e+00 1.113277e+00 1.717154e+00 1.243550e+00 1.328371e+00 1.317808e+00 2.198397e+12
<GCONST> 1.504880e+02
<STATE> 3
<MEAN> 26
 -6.760649e+00 7.717956e+00 1.654946e+01 6.903656e+00 -1.000229e+01 -1.056653e+01 6.433337e-01 -5.669446e+00 1.431570e-02 -6.231864e+00 3.813573e+00 2.595866e-01 1.708601e+01 -5.785199e-02 -4.926891e-02 1.544001e-01 -5.452455e-02 -1.210596e-01 -8.202004e-02 -1.079249e-01 -1.216348e-02 1.175404e-02 -1.105521e-01 5.180068e-02 7.282395e-02 2.135683e-02
<VARIANCE> 26
 9.321426e+00 5.212691e+00 1.058238e+01 1.151791e+01 1.616971e+01 1.193104e+01 2.043589e+01 9.104334e+00 1.350694e+01 1.552257e+01 9.943737e+00 1.019266e+01 9.992905e+12 4.812064e-01 3.998806e-01 6.023110e-01 7.938210e-01 1.093347e+00 9.749444e-01 1.392063e+00 9.646466e-01 9.820334e-01 1.041682e+00 9.659910e-01 8.483636e-01 2.198397e+12
<GCONST> 1.330718e+02
<STATE> 4
<MEAN> 26
 -2.049470e+00 1.905188e+00 9.241982e+00 2.999823e+00 -1.210662e+01 -8.180713e+00 -5.865346e+00 -3.025569e+00 6.511241e+00 -5.683881e+00 -3.253477e-01 -5.779538e-01 1.791293e+01 1.192339e+00 -1.082657e+00 -1.624233e+00 -9.764736e-01 -6.165913e-01 5.515174e-01 -3.698543e-01 2.236931e-01 6.579929e-01 5.427261e-01 -6.644412e-01 -8.710647e-01 1.731512e-01
<VARIANCE> 26
 2.756666e+01 2.249305e+01 3.822371e+01 2.547037e+01 4.567561e+01 2.793282e+01 3.546698e+01 1.525451e+01 2.315234e+01 3.363896e+01 1.679817e+01 1.724457e+01 9.992905e+12 1.803231e+00 1.237616e+00 1.500914e+00 1.755572e+00 2.686164e+00 1.737337e+00 3.124444e+00 1.609832e+00 1.670677e+00 2.146267e+00 1.618151e+00 1.217511e+00 2.198397e+12
<GCONST> 1.521012e+02
<TRANSP> 5
 0.000000e+00 1.000000e+00 0.000000e+00 0.000000e+00 0.000000e+00
 0.000000e+00 7.919094e-01 2.080906e-01 0.000000e+00 0.000000e+00
 0.000000e+00 0.000000e+00 8.974759e-01 1.025241e-01 0.000000e+00
 0.000000e+00 0.000000e+00 0.000000e+00 7.773568e-01 2.226432e-01
 0.000000e+00 0.000000e+00 0.000000e+00 0.000000e+00 0.000000e+00
<ENDHMM>
~h "k"
<BEGINHMM>
<NUMSTATES> 5
<STATE> 2
<MEAN> 26
 -3.554595e+00 8.487233e+00 7.669549e+00 4.557848e+00 -2.399659e+00 -2.478976e-01 1.239611e+00 5.038062e-01 1.770625e+00 -1.034957e+00 1.284976e+00 -8.847383e-01 1.609924e+01 -9.534853e-01 4.987827e-01 8.432350e-02 1.004491e+00 2.176925e+00 1.719732e+00 9.861463e-01 1.060812e+00 1.114983e-01 7.124955e-01 2.492632e-01 8.128386e-01 -3.615844e-01
<VARIANCE> 26
 1.483632e+01 7.026692e+00 1.021408e+01 2.904922e+01 3.575352e+01 3.030687e+01 1.740141e+01 1.673276e+01 1.516604e+01 1.736698e+01 9.854520e+00 1.495794e+01 9.992905e+12 1.125226e+00 1.085815e+00 1.531883e+00 2.206172e+00 2.005988e+00 2.539672e+00 1.470293e+00 1.794720e+00 1.887399e+00 2.035081e+00 1.187835e+00 1.497190e+00 2.198397e+12
<GCONST> 1.456427e+02
<STATE> 3
<MEAN> 26
 -7.922646e+00 8.468964e+00 5.933182e+00 6.909317e+00 4.717064e+00 7.925505e+00 5.111582e+00 5.100454e+00 4.323689e+00 2.315619e+00 2.525888e+00 2.068977e+00 1.426861e+01 -2.726410e-01 -7.527170e-02 -5.413322e-02 -1.400614e-01 -1.172607e-01 2.093557e-02 -1.104406e-01 -8.964652e-02 7.030538e-02 5.320952e-02 -4.862966e-02 1.679973e-02 -2.657679e-02
<VARIANCE> 26
 5.240467e+00 3.150569e+00 3.962854e+00 4.698634e+00 7.419199e+00 9.803524e+00 9.627286e+00 1.163335e+01 9.894467e+00 1.051271e+01 9.305456e+00 8.118566e+00 9.992905e+12 5.860810e-01 3.318086e-01 4.690650e-01 6.115642e-01 1.031604e+00 1.402190e+00 1.086668e+00 1.392599e+00 1.215508e+00 1.321519e+00 1.171525e+00 1.050747e+00 2.198397e+12
<GCONST> 1.284182e+02
<STATE> 4
<MEAN> 26
 -8.785455e+00 7.200243e+00 5.933354e+00 1.918068e+00 -2.068696e+00 2.260879e+00 1.698990e+00 1.028082e+00 3.394018e+00 1.029498e+00 9.118816e-01 -4.622258e-01 1.552860e+01 7.515588e-01 -5.263706e-01 -2.779866e-01 -1.041956e+00 -1.513967e+00 -9.778088e-01 -4.939853e-01 -5.460240e-01 1.673508e-01 -6.286251e-02 -2.637697e-01 -6.930882e-01 3.244042e-01
<VARIANCE> 26
 4.927042e+01 7.156769e+00 1.024654e+01 1.706603e+01 2.165758e+01 1.473863e+01 1.565355e+01 1.406152e+01 1.337729e+01 1.588831e+01 1.292190e+01 1.367301e+01 9.992905e+12 2.029564e+00 7.655395e-01 1.539449e+00 2.085153e+00 2.257429e+00 1.628621e+00 1.830969e+00 1.681605e+00 1.610967e+00 1.509208e+00 1.517810e+00 1.372451e+00 2.198397e+12
<GCONST> 1.445151e+02
<TRANSP> 5
 0.000000e+00 1.000000e+00 0.000000e+00 0.000000e+00 0.000000e+00
 0.000000e+00 7.165464e-01 2.834536e-01 0.000000e+00 0.000000e+00
 0.000000e+00 0.000000e+00 8.772008e-01 1.227992e-01 0.000000e+00
 0.000000e+00 0.000000e+00 0.000000e+00 8.141886e-01 1.858114e-01
 0.000000e+00 0.000000e+00 0.000000e+00 0.000000e+00 0.000000e+00
<ENDHMM>
~h "l"
<BEGINHMM>
<NUMSTATES> 5
<STATE> 2
<MEAN> 26
 -6.657068e-01 3.587469e+00 5.094832e+00 2.656200e+00 -6.921244e+00 -3.951081e+00 -3.336498e+00 -1.583591e+00 4.501196e+00 -3.022258e+00 -9.094583e-01 -2.994381e+00 1.729292e+01 3.639183e-01 4.183500e-01 5.070222e-01 1.063116e+00 2.374938e-01 -1.494327e+00 -1.470473e+00 -6.737716e-01 1.315176e-02 -6.983443e-01 -1.900763e-01 9.724392e-02 1.031519e-01
<VARIANCE> 26
 1.906697e+01 2.480784e+01 3.497248e+01 4.021730e+01 4.653755e+01 4.161124e+01 4.610448e+01 1.613510e+01 2.521321e+01 2.322218e+01 1.972726e+01 2.283545e+01 9.992905e+12 1.076416e+00 2.143756e+00 1.091978e+00 2.187397e+00 3.407916e+00 2.005921e+00 2.647964e+00 1.309166e+00 1.862587e+00 2.024738e+00 1.418107e+00 1.527229e+00 2.198397e+12
<GCONST> 1.531802e+02
<STATE> 3
<MEAN> 26
 1.624805e+00 5.566480e+00 8.770366e+00 8.852156e+00 -5.822599e+00 -1.204123e+01 -1.404985e+01 -4.912699e+00 7.467962e+00 -9.936343e+00 -2.379960e+00 -2.213343e+00 1.821404e+01 5.832411e-02 -2.576777e-02 -1.108720e-02 5.117177e-02 1.917035e-02 -6.614454e-02 -1.310528e-01 -6.063643e-02 4.726463e-02 -7.095620e-02 -5.334281e-03 5.750649e-03 9.972758e-03
<VARIANCE> 26
 7.596868e+00 4.056470e+00 1.993021e+01 8.911786e+00 1.813728e+01 1.067773e+01 3.077522e+01 9.580400e+00 1.265067e+01 1.594740e+01 1.001921e+01 1.246561e+01 9.992905e+12 2.695428e-01 4.026242e-01 6.004663e-01 7.224147e-01 9.672876e-01 9.598870e-01 1.655618e+00 9.321388e-01 1.019746e+00 1.277493e+00 1.025464e+00 7.378601e-01 2.198397e+12
<GCONST> 1.331205e+02
<STATE> 4
<MEAN> 26
 -9.748031e-01 3.442325e+00 6.174615e+00 3.950994e+00 -7.209519e+00 -6.440040e+00 -4.767947e+00 -2.975976e+00 4.658018e+00 -3.576257e+00 -2.837941e-01 -2.669033e+00 1.746067e+01 -1.600855e-01 -4.892209e-01 -5.727754e-01 -1.036885e+00 -2.412800e-01 1.082381e+00 9.923578e-01 3.714725e-01 3.804043e-02 6.714073e-01 5.880561e-02 -2.280699e-01 -1.445393e-02
<VARIANCE> 26
 2.022115e+01 1.856898e+01 4.202300e+01 2.594943e+01 2.966087e+01 3.385501e+01 5.044713e+01 1.473171e+01 2.446962e+01 2.515420e+01 1.752218e+01 1.936902e+01 9.992905e+12 8.941935e-01 1.667529e+00 1.513380e+00 2.112804e+00 2.231635e+00 2.295965e+00 3.148693e+00 1.211731e+00 1.888799e+00 1.856570e+00 1.560428e+00 1.400620e+00 2.198397e+12
<GCONST> 1.514028e+02
<TRANSP> 5
 0.000000e+00 1.000000e+00 0.000000e+00 0.000000e+00 0.000000e+00
 0.000000e+00 7.472059e-01 2.527941e-01 0.000000e+00 0.000000e+00
 0.000000e+00 0.000000e+00 8.469360e-01 1.530640e-01 0.000000e+00
 0.000000e+00 0.000000e+00 0.000000e+00 6.894186e-01 3.105815e-01
 0.000000e+00 0.000000e+00 0.000000e+00 0.000000e+00 0.000000e+00
<ENDHMM>
~h "m"
<BEGINHMM>
<NUMSTATES> 5
<STATE> 2
<MEAN> 26
 -1.278402e+00 6.028840e+00 5.136714e+00 3.166602e+00 -4.705253e+00 -3.428176e+00 -6.347889e-01 -4.093654e-01 2.607286e+00 -3.584111e+00 3.428983e-01 -3.239904e+00 1.679603e+01 1.170227e-01 8.417120e-01 5.292147e-01 9.704211e-01 6.439873e-01 -7.763827e-01 2.950450e-01 -4.320907e-01 -9.911674e-01 -3.366326e-01 3.937420e-01 1.423768e-01 -6.354309e-02
<VARIANCE> 26
 1.737328e+01 1.563160e+01 2.743071e+01 4.817296e+01 3.546555e+01 4.613550e+01 4.762974e+01 2.305516e+01 2.149765e+01 2.825485e+01 1.825821e+01 2.003377e+01 9.992905e+12 1.133720e+00 1.287963e+00 1.395949e+00 1.829437e+00 2.025810e+00 2.085306e+00 2.523067e+00 1.744617e+00 1.934624e+00 1.794339e+00 1.438663e+00 1.620150e+00 2.198397e+12
<GCONST> 1.519697e+02
<STATE> 3
<MEAN> 26
 -8.881957e-01 1.078507e+01 9.450507e+00 7.831708e+00 -2.771960e+00 -7.492755e+00 1.067110e+00 -4.212004e+00 -3.382846e+00 -4.765939e+00 3.062371e+00 -3.424660e+00 1.650875e+01 2.994144e-02 -6.842826e-02 -4.392809e-03 -3.052456e-02 -1.233744e-01 -1.253781e-01 -3.492283e-02 -1.072269e-01 -7.289767e-02 -2.901000e-02 5.879873e-02 -5.170077e-02 3.009995e-03
<VARIANCE> 26
 1.842833e+00 8.344208e+00 7.385252e+00 6.643268e+00 1.136624e+01 1.259688e+01 1.105288e+01 1.003654e+01 1.215735e+01 1.032565e+01 1.027716e+01 9.792233e+00 9.992905e+12 1.704640e-01 4.968028e-01 4.728565e-01 6.025404e-01 1.007221e+00 1.109870e+00 1.102679e+00 9.003575e-01 1.221275e+00 1.069670e+00 1.003034e+00 9.383796e-01 2.198397e+12
<GCONST> 1.284660e+02
<STATE> 4
<MEAN> 26
 4.182719e-01 5.984232e+00 4.087066e+00 2.532623e+00 -6.180188e+00 -5.128365e+00 -2.686695e-01 -2.078120e+00 -3.053583e-03 -3.320564e+00 2.178930e+00 -4.234002e+00 1.688936e+01 2.908280e-01 -9.251551e-01 -9.008555e-01 -1.165125e+00 -8.204500e-01 5.108546e-01 -4.841594e-01 1.948999e-01 8.863375e-01 1.642570e-02 -2.615025e-01 -8.553439e-02 1.465531e-01
<VARIANCE> 26
 6.060180e+00 1.255009e+01 2.275027e+01 3.056232e+01 1.381326e+01 2.090397e+01 2.417329e+01 1.304367e+01 2.290326e+01 1.835535e+01 1.540745e+01 1.509360e+01 9.992905e+12 5.891538e-01 1.462158e+00 1.722268e+00 2.173653e+00 1.622279e+00 1.562742e+00 1.622853e+00 1.129952e+00 2.012346e+00 1.519706e+00 1.184018e+00 1.281164e+00 2.198397e+12
<GCONST> 1.441637e+02
<TRANSP> 5
 0.000000e+00 1.000000e+00 0.000000e+00 0.000000e+00 0.000000e+00
 0.000000e+00 8.082232e-01 1.917768e-01 0.000000e+00 0.000000e+00
 0.000000e+00 0.000000e+00 8.517014e-01 1.482986e-01 0.000000e+00
 0.000000e+00 0.000000e+00 0.000000e+00 6.877456e-01 3.122545e-01
 0.000000e+00 0.000000e+00 0.000000e+00 0.000000e+00 0.000000e+00
<ENDHMM>
~h "n"
<BEGINHMM>
<NUMSTATES> 5
<STATE> 2
<MEAN> 26
 -2.131379e+00 5.483860e+00 6.302309e+00 3.442824e+00 -6.456917e+00 -4.033385e+00 -1.642832e+00 -1.011792e+00 3.533356e+00 -3.659453e+00 1.590747e-01 -2.834494e+00 1.687848e+01 -3.072146e-01 8.755404e-01 1.336604e+00 1.466415e+00 2.641117e-01 -1.525456e+00 3.160053e-02 -4.800083e-01 -9.397268e-01 -8.458671e-01 2.718734e-01 4.449098e-01 -4.443803e-02
<VARIANCE> 26
 1.705230e+01 1.828071e+01 2.629116e+01 4.170290e+01 4.488635e+01 4.297862e+01 4.262197e+01 1.889641e+01 2.199877e+01 3.527460e+01 1.587971e+01 2.004292e+01 9.992905e+12 1.581641e+00 1.499793e+00 1.361618e+00 2.280474e+00 2.682945e+00 2.065809e+00 2.113624e+00 1.813954e+00 1.883538e+00 1.993006e+00 1.363963e+00 1.692463e+00 2.198397e+12
<GCONST> 1.527642e+02
<STATE> 3
<MEAN> 26
 -3.183749e+00 7.891199e+00 1.340846e+01 8.451799e+00 -7.591971e+00 -1.020570e+01 -1.466152e+00 -5.436799e+00 -1.984796e-01 -7.415173e+00 2.230734e+00 -1.051099e+00 1.710349e+01 -7.040520e-04 -7.589827e-02 1.102186e-01 2.797894e-02 -8.065126e-02 -9.336760e-02 -1.484127e-01 -7.001729e-02 1.165402e-01 -1.345231e-01 5.078041e-03 9.388582e-02 2.140082e-02
<VARIANCE> 26
 3.293584e+00 6.683782e+00 9.078915e+00 5.476734e+00 1.097971e+01 9.025846e+00 2.989075e+01 9.164687e+00 1.746300e+01 1.591825e+01 1.244735e+01 1.113524e+01 9.992905e+12 1.958091e-01 3.438916e-01 5.946622e-01 5.562901e-01 8.625441e-01 8.664460e-01 1.329785e+00 9.597486e-01 1.118432e+00 1.030228e+00 1.012576e+00 8.239417e-01 2.198397e+12
<GCONST> 1.300118e+02
<STATE> 4
<MEAN> 26
 -1.920355e+00 4.488931e+00 9.044575e+00 5.409655e+00 -7.972261e+00 -8.451388e+00 -5.031078e+00 -2.554546e+00 5.356541e+00 -5.615097e+00 -2.228606e-02 -1.901124e+00 1.741376e+01 2.917764e-01 -5.307457e-01 -1.027414e+00 -8.540791e-01 9.187943e-02 9.081420e-01 -1.611989e-01 2.297400e-01 4.350909e-01 6.828085e-01 -2.626711e-01 -2.139543e-01 2.183425e-02
<VARIANCE> 26
 8.928537e+00 1.151320e+01 2.561470e+01 1.929803e+01 2.188954e+01 2.582219e+01 4.029986e+01 1.408946e+01 1.955969e+01 3.178832e+01 1.322883e+01 1.471853e+01 9.992905e+12 1.062575e+00 1.668022e+00 1.578091e+00 2.371190e+00 2.249428e+00 2.215640e+00 3.264022e+00 1.406584e+00 1.985732e+00 1.664728e+00 1.586994e+00 1.312179e+00 2.198397e+12
<GCONST> 1.483069e+02
<TRANSP> 5
 0.000000e+00 1.000000e+00 0.000000e+00 0.000000e+00 0.000000e+00
 0.000000e+00 7.682071e-01 2.317929e-01 0.000000e+00 0.000000e+00
 0.000000e+00 0.000000e+00 9.155155e-01 8.448447e-02 0.000000e+00
 0.000000e+00 0.000000e+00 0.000000e+00 7.191707e-01 2.808292e-01
 0.000000e+00 0.000000e+00 0.000000e+00 0.000000e+00 0.000000e+00
<ENDHMM>
~h "o"
<BEGINHMM>
<NUMSTATES> 5
<STATE> 2
<MEAN> 26
 4.234239e-01 5.330860e+00 9.464758e-01 -3.783986e+00 -6.344459e+00 9.818743e-01 1.025692e+00 3.700294e-01 2.155931e+00 -1.279842e+00 9.526346e-01 -4.242714e+00 1.688952e+01 1.269729e+00 -1.126219e+00 -1.487836e+00 -2.227508e+00 -1.806785e+00 1.874644e-01 -3.963326e-01 -6.089740e-01 -7.167540e-02 -1.513456e-01 -2.286256e-01 -1.360103e+00 4.502605e-01
<VARIANCE> 26
 1.309026e+01 1.778947e+01 1.770596e+01 4.704115e+01 3.514025e+01 1.890207e+01 3.153923e+01 1.997954e+01 1.841752e+01 2.282274e+01 1.392682e+01 1.993427e+01 9.992905e+12 1.415024e+00 8.747560e-01 1.002132e+00 2.360659e+00 2.250922e+00 2.549312e+00 2.058855e+00 1.589230e+00 1.553025e+00 2.279660e+00 1.456059e+00 1.221561e+00 2.198397e+12
<GCONST> 1.487708e+02
<STATE> 3
<MEAN> 26
 4.881016e+00 -5.136477e-01 -4.694436e+00 -1.165806e+01 -1.292086e+01 4.161338e+00 -1.957662e+00 -2.350747e+00 3.265881e+00 -3.585272e-03 7.507090e-01 -1.051963e+01 1.888036e+01 6.766697e-03 5.234301e-02 2.584482e-02 2.818283e-02 1.894607e-02 1.535091e-02 9.579249e-02 3.959032e-02 -6.844664e-02 -3.402536e-02 -7.964773e-03 -9.219188e-02 -1.713957e-02
<VARIANCE> 26
 1.217471e+00 4.875056e+00 3.111547e+00 9.396490e+00 6.793821e+00 6.773198e+00 1.465880e+01 1.097387e+01 1.379308e+01 1.542894e+01 6.957999e+00 9.203973e+00 9.992905e+12 1.116665e-01 4.470666e-01 3.263455e-01 5.775898e-01 5.985544e-01 5.801569e-01 1.014007e+00 6.760800e-01 7.984129e-01 1.037307e+00 7.068125e-01 6.883116e-01 2.198397e+12
<GCONST> 1.227121e+02
<STATE> 4
<MEAN> 26
 2.042291e+00 5.900957e+00 2.048178e-02 -5.441713e+00 -7.555639e+00 4.416351e-01 4.034108e+00 9.299647e-01 -3.416883e-01 -2.890071e+00 1.409442e+00 -6.833190e+00 1.703765e+01 -5.841207e-01 5.669452e-01 7.787654e-01 1.212629e+00 9.250383e-01 -1.915664e-01 6.290238e-02 1.373030e-01 5.497528e-02 1.086222e-01 1.017963e-01 8.045064e-01 -1.725385e-01
<VARIANCE> 26
 6.252609e+00 1.020783e+01 1.311265e+01 4.155885e+01 2.038020e+01 1.265084e+01 1.727398e+01 1.431230e+01 1.797246e+01 1.639800e+01 1.451701e+01 1.900748e+01 9.992905e+12 7.444862e-01 7.683337e-01 1.126435e+00 2.856855e+00 1.836545e+00 1.405913e+00 1.232555e+00 1.217995e+00 1.185828e+00 1.406869e+00 1.057881e+00 1.672078e+00 2.198397e+12
<GCONST> 1.420093e+02
<TRANSP> 5
 0.000000e+00 1.000000e+00 0.000000e+00 0.000000e+00 0.000000e+00
 0.000000e+00 7.829282e-01 2.170718e-01 0.000000e+00 0.000000e+00
 0.000000e+00 0.000000e+00 9.268408e-01 7.315916e-02 0.000000e+00
 0.000000e+00 0.000000e+00 0.000000e+00 8.385082e-01 1.614918e-01
 0.000000e+00 0.000000e+00 0.000000e+00 0.000000e+00 0.000000e+00
<ENDHMM>
~h "p"
<BEGINHMM>
<NUMSTATES> 5
<STATE> 2
<MEAN> 26
 -2.079571e+00 7.840314e+00 6.376241e+00 4.349612e+00 -2.230065e+00 1.962928e-01 5.017521e-01 -1.063970e+00 1.315703e+00 -6.980221e-01 1.261172e+00 -2.036888e+00 1.632600e+01 -1.101272e+00 1.162000e+00 7.418175e-01 1.865746e+00 2.920367e+00 1.823851e+00 1.329592e+00 1.169539e+00 -2.476574e-01 4.205614e-01 3.932858e-01 1.213580e+00 -5.203320e-01
<VARIANCE> 26
 1.166682e+01 1.325404e+01 1.816514e+01 3.796122e+01 4.290874e+01 3.096281e+01 1.697964e+01 1.840246e+01 1.515843e+01 1.717709e+01 1.102079e+01 1.723763e+01 9.992905e+12 1.306085e+00 1.983358e+00 2.230020e+00 3.446600e+00 2.480099e+00 3.220966e+00 1.718760e+00 2.036350e+00 2.082317e+00 1.989847e+00 1.376562e+00 1.581250e+00 2.198397e+12
<GCONST> 1.499802e+02
<STATE> 3
<MEAN> 26
 -7.933628e+00 8.449709e+00 6.169993e+00 7.300312e+00 4.922718e+00 7.982008e+00 5.451927e+00 5.279773e+00 4.142767e+00 2.365874e+00 2.737934e+00 1.840189e+00 1.418629e+01 -2.765598e-01 -1.233283e-01 -2.986331e-02 -1.691253e-01 -1.953419e-01 -2.052886e-02 -1.282613e-01 -3.401901e-02 1.283791e-01 8.648265e-02 -2.630995e-02 4.861459e-02 -2.051685e-02
<VARIANCE> 26
 3.137360e+00 3.008509e+00 3.670607e+00 4.748744e+00 6.159838e+00 8.507448e+00 8.551734e+00 1.058407e+01 1.073245e+01 1.073887e+01 1.005771e+01 8.892822e+00 9.992905e+12 8.123419e-01 3.482377e-01 4.797284e-01 6.407244e-01 1.009086e+00 1.767451e+00 1.345885e+00 1.570692e+00 1.361972e+00 1.423409e+00 1.288082e+00 1.065152e+00 2.198397e+12
<GCONST> 1.288078e+02
<STATE> 4
<MEAN> 26
 -4.723502e+00 6.401947e+00 6.056249e+00 2.829017e+00 -2.871770e+00 1.724093e+00 1.205676e-01 -4.244548e-01 3.281201e+00 6.531751e-01 6.495470e-01 -1.427526e+00 1.601067e+01 1.543506e+00 -9.781334e-01 -8.262939e-01 -1.994099e+00 -2.715029e+00 -1.424133e+00 -1.396718e+00 -1.362586e+00 5.993374e-02 -3.416303e-01 -4.081567e-01 -1.343397e+00 6.012142e-01
<VARIANCE> 26
 2.363786e+01 1.621913e+01 1.840368e+01 2.634291e+01 3.257562e+01 1.609716e+01 1.484017e+01 1.623151e+01 1.755988e+01 1.610596e+01 1.242649e+01 2.084162e+01 9.992905e+12 2.018507e+00 1.263115e+00 2.459096e+00 2.744478e+00 2.265917e+00 2.116998e+00 1.891563e+00 1.863475e+00 1.872131e+00 1.889210e+00 1.149068e+00 1.644409e+00 2.198397e+12
<GCONST> 1.487900e+02
<TRANSP> 5
 0.000000e+00 1.000000e+00 0.000000e+00 0.000000e+00 0.000000e+00
 0.000000e+00 7.011663e-01 2.988337e-01 0.000000e+00 0.000000e+00
 0.000000e+00 0.000000e+00 8.673462e-01 1.326538e-01 0.000000e+00
 0.000000e+00 0.000000e+00 0.000000e+00 6.733218e-01 3.266782e-01
 0.000000e+00 0.000000e+00 0.000000e+00 0.000000e+00 0.000000e+00
<ENDHMM>
~h "q"
<BEGINHMM>
<NUMSTATES> 5
<STATE> 2
<MEAN> 26
 -4.936424e+00 3.565772e+00 4.149786e+00 5.793031e-02 -6.492237e+00 -1.704302e+00 -1.203044e+00 -5.824801e-01 6.017652e+00 1.373181e+00 8.824309e-02 -3.741227e+00 1.684282e+01 5.367012e-01 -5.071505e-01 -6.899461e-01 -7.234977e-01 -6.079355e-01 4.692664e-01 1.608441e-02 1.157121e-02 4.634714e-01 6.298305e-01 -4.046718e-03 -6.661947e-01 1.010397e-01
<VARIANCE> 26
 3.491463e+01 1.377205e+01 2.268868e+01 2.335659e+01 2.718217e+01 2.995658e+01 2.026201e+01 1.681301e+01 1.589308e+01 2.547577e+01 1.591595e+01 1.512662e+01 9.992905e+12 1.626913e+00 1.056916e+00 1.037068e+00 1.356805e+00 1.911209e+00 2.028752e+00 2.555332e+00 1.342885e+00 1.642068e+00 1.771629e+00 1.717623e+00 1.170956e+00 2.198397e+12
<GCONST> 1.478437e+02
<STATE> 3
<MEAN> 26
 -3.849238e+00 4.158799e+00 3.347903e+00 -5.430973e-01 -6.192834e+00 -1.578558e-01 -1.219952e+00 -9.923220e-01 6.332343e+00 4.095496e+00 1.465681e+00 -4.692982e+00 1.671398e+01 -5.181707e-01 1.129197e+00 1.061107e+00 1.351137e+00 1.499290e+00 3.001782e-01 3.446402e-01 2.245560e-01 -9.287171e-01 9.605531e-02 5.543162e-01 9.670495e-01 -2.847259e-01
<VARIANCE> 26
 2.420274e+01 8.463470e+00 1.331594e+01 1.680961e+01 1.956265e+01 1.403150e+01 1.324966e+01 1.470544e+01 1.803009e+01 1.907837e+01 1.832316e+01 1.409556e+01 9.992905e+12 1.240402e+00 9.971485e-01 1.127374e+00 1.488696e+00 2.083173e+00 1.808849e+00 1.449747e+00 1.482404e+00 1.671721e+00 2.106911e+00 1.586487e+00 1.480674e+00 2.198397e+12
<GCONST> 1.440864e+02
<STATE> 4
<MEAN> 26
 -7.793582e+00 7.786363e+00 6.915424e+00 5.650723e+00 2.268886e+00 4.828859e+00 2.366037e+00 2.014976e+00 3.023437e+00 2.060807e+00 1.976924e+00 8.480976e-01 1.520519e+01 -4.405244e-01 4.079921e-01 1.753667e-01 1.001249e+00 1.475215e+00 1.376156e+00 8.645271e-01 7.762786e-01 -1.725462e-01 -1.609354e-01 3.196910e-02 7.626730e-01 -2.653968e-01
<VARIANCE> 26
 1.783621e+01 2.910795e+00 4.302473e+00 1.142033e+01 1.629666e+01 1.912338e+01 1.415282e+01 1.427280e+01 1.235905e+01 1.128521e+01 1.100610e+01 1.158826e+01 9.992905e+12 1.330541e+00 4.724091e-01 6.953980e-01 1.087204e+00 1.920352e+00 1.425390e+00 1.453766e+00 1.502160e+00 1.698676e+00 1.443694e+00 1.359371e+00 1.491619e+00 2.198397e+12
<GCONST> 1.374651e+02
<TRANSP> 5
 0.000000e+00 1.000000e+00 0.000000e+00 0.000000e+00 0.000000e+00
 0.000000e+00 6.998667e-01 3.001333e-01 0.000000e+00 0.000000e+00
 0.000000e+00 0.000000e+00 6.703902e-01 3.296098e-01 0.000000e+00
 0.000000e+00 0.000000e+00 0.000000e+00 6.864386e-01 3.135614e-01
 0.000000e+00 0.000000e+00 0.000000e+00 0.000000e+00 0.000000e+00
<ENDHMM>
~h "r"
<BEGINHMM>
<NUMSTATES> 5
<STATE> 2
<MEAN> 26
 3.039645e-01 1.710314e+00 1.108160e+00 -6.295168e+00 -1.119767e+01 1.064801e+00 -2.004177e+00 -2.290048e+00 5.484253e+00 -1.134167e-01 -1.032247e+00 -6.090314e+00 1.802943e+01 -7.438188e-01 7.689879e-01 5.132939e-01 5.280399e-01 8.015912e-01 1.063456e-01 1.993167e-01 3.580368e-01 -2.935483e-02 5.987808e-01 2.977677e-01 2.331326e-01 -2.269153e-01
<VARIANCE> 26
 2.152358e+01 2.914970e+01 3.686513e+01 4.702087e+01 3.266310e+01 2.701196e+01 1.903124e+01 1.974899e+01 2.162240e+01 3.546116e+01 2.190109e+01 2.861572e+01 9.992905e+12 2.528763e+00 2.186701e+00 2.488267e+00 3.540983e+00 3.265688e+00 1.747835e+00 1.861514e+00 1.946998e+00 1.678824e+00 2.334802e+00 1.820742e+00 2.258466e+00 2.198397e+12
<GCONST> 1.555258e+02
<STATE> 3
<MEAN> 26
 -1.117537e+01 5.422625e+00 5.487751e+00 7.961996e-02 -1.464956e+00 3.473567e+00 1.118006e+00 2.158713e+00 5.861103e+00 3.614885e+00 9.079375e-01 -1.549590e+00 1.557681e+01 -2.717195e-01 1.244932e-01 1.470715e-01 2.237033e-01 3.064908e-01 3.474830e-02 1.033674e-01 9.516291e-02 -1.307242e-01 -1.109389e-01 3.896452e-02 1.895645e-01 -7.112975e-02
<VARIANCE> 26
 3.352080e+01 5.148472e+00 8.703362e+00 1.586708e+01 1.864599e+01 1.167598e+01 1.281376e+01 1.391697e+01 1.343425e+01 1.650213e+01 1.143430e+01 1.643029e+01 9.992905e+12 2.670981e+00 4.646324e-01 6.101609e-01 1.149711e+00 1.972972e+00 1.242968e+00 1.353345e+00 1.682616e+00 1.398000e+00 1.555027e+00 1.231439e+00 1.602985e+00 2.198397e+12
<GCONST> 1.404571e+02
<STATE> 4
<MEAN> 26
 -1.084140e+00 5.285768e+00 2.253086e+00 -5.559042e+00 -7.378844e+00 1.470882e+00 2.157555e+00 3.912682e-01 3.042325e+00 -1.703258e+00 2.140640e-01 -4.148830e+00 1.699346e+01 5.241633e-01 -2.844339e-01 -3.008679e-01 -2.583416e-01 -5.064323e-01 -5.295370e-02 -1.737693e-01 -2.188567e-01 2.421870e-02 -2.076134e-01 -6.453177e-02 -1.951290e-01 1.301069e-01
<VARIANCE> 26
 2.773380e+01 1.302451e+01 3.561930e+01 5.151913e+01 2.956307e+01 2.432200e+01 3.257635e+01 2.497025e+01 1.577382e+01 3.021692e+01 1.368827e+01 2.081875e+01 9.992905e+12 1.941753e+00 1.184998e+00 1.417560e+00 2.590370e+00 3.105429e+00 1.326907e+00 1.872049e+00 1.781974e+00 1.280766e+00 1.658672e+00 1.288290e+00 1.809935e+00 2.198397e+12
<GCONST> 1.509940e+02
<TRANSP> 5
 0.000000e+00 1.000000e+00 0.000000e+00 0.000000e+00 0.000000e+00
 0.000000e+00 7.254989e-01 2.745011e-01 0.000000e+00 0.000000e+00
 0.000000e+00 0.000000e+00 8.366221e-01 1.633779e-01 0.000000e+00
 0.000000e+00 0.000000e+00 0.000000e+00 7.443175e-01 2.556826e-01
 0.000000e+00 0.000000e+00 0.000000e+00 0.000000e+00 0.000000e+00
<ENDHMM>
~h "s"
<BEGINHMM>
<NUMSTATES> 5
<STATE> 2
<MEAN> 26
 -1.263293e+01 7.969780e+00 6.541200e+00 1.917968e+00 -1.331148e+00 1.352027e+00 2.142297e+00 2.048049e+00 4.399937e+00 1.769388e+00 1.570520e+00 -1.993897e-01 1.573035e+01 -3.070189e+00 4.105818e-01 -5.472495e-01 2.896419e-01 1.626404e+00 8.567374e-01 5.854984e-01 9.329060e-01 4.700812e-01 8.741110e-01 2.089697e-01 4.441865e-01 -3.046896e-01
<VARIANCE> 26
 4.632629e+01 4.930906e+00 1.905538e+01 2.126947e+01 2.774372e+01 3.087680e+01 1.915031e+01 1.589350e+01 1.629558e+01 2.665735e+01 1.405352e+01 1.509746e+01 9.992905e+12 3.091950e+00 1.050473e+00 1.755992e+00 2.561599e+00 3.235716e+00 2.195970e+00 2.036488e+00 1.830248e+00 1.993221e+00 2.641045e+00 1.554501e+00 1.860637e+00 2.198397e+12
<GCONST> 1.501562e+02
<STATE> 3
<MEAN> 26
 -2.553723e+01 8.888750e+00 1.756983e+00 2.968648e+00 3.953331e+00 2.903026e+00 4.334280e+00 6.046925e+00 7.750510e+00 4.105978e+00 2.745470e+00 9.864722e-01 1.562321e+01 -2.011020e-01 -3.360413e-02 -8.553419e-02 -1.124648e-02 1.456835e-02 -1.876171e-02 7.550666e-02 9.422123e-02 8.876263e-02 3.948221e-02 5.006529e-02 4.539541e-02 1.372939e-02
<VARIANCE> 26
 6.266849e+00 2.883930e+00 6.553627e+00 5.186431e+00 7.509157e+00 1.018712e+01 1.225910e+01 1.054446e+01 1.046101e+01 1.009027e+01 9.833914e+00 9.509276e+00 9.992905e+12 7.412702e-01 2.087718e-01 4.950454e-01 5.413626e-01 7.281609e-01 8.425772e-01 1.045853e+00 1.159725e+00 1.163147e+00 1.154352e+00 1.162240e+00 1.028432e+00 2.198397e+12
<GCONST> 1.279483e+02
<STATE> 4
<MEAN> 26
 -1.969607e+01 7.557017e+00 4.878998e+00 1.265321e+00 7.655768e-01 2.791269e+00 3.519303e+00 4.180421e+00 6.007897e+00 3.620146e+00 2.128201e+00 6.439506e-01 1.518608e+01 2.550143e+00 -2.293854e-01 5.833374e-01 -3.269299e-01 -1.146172e+00 -6.723634e-01 -5.962773e-01 -9.838247e-01 -6.913629e-01 -4.392222e-01 -4.368157e-01 -5.402882e-01 1.373603e-01
<VARIANCE> 26
 1.810938e+01 2.806700e+00 7.771325e+00 7.088807e+00 9.100059e+00 1.298525e+01 1.171811e+01 1.224529e+01 1.241042e+01 1.508556e+01 1.161978e+01 9.988632e+00 9.992905e+12 3.077436e+00 4.227432e-01 9.523611e-01 1.234946e+00 1.783349e+00 1.535732e+00 1.820274e+00 1.902809e+00 1.287179e+00 1.697181e+00 1.256812e+00 1.666132e+00 2.198397e+12
<GCONST> 1.379943e+02
<TRANSP> 5
 0.000000e+00 1.000000e+00 0.000000e+00 0.000000e+00 0.000000e+00
 0.000000e+00 7.919191e-01 2.080809e-01 0.000000e+00 0.000000e+00
 0.000000e+00 0.000000e+00 9.219974e-01 7.800259e-02 0.000000e+00
 0.000000e+00 0.000000e+00 0.000000e+00 7.128055e-01 2.871945e-01
 0.000000e+00 0.000000e+00 0.000000e+00 0.000000e+00 0.000000e+00
<ENDHMM>
~h "t"
<BEGINHMM>
<NUMSTATES> 5
<STATE> 2
<MEAN> 26
 -4.432407e+00 7.838986e+00 7.075281e+00 4.504700e+00 -2.054370e+00 1.158460e+00 6.268038e-01 -2.516927e-01 2.543011e+00 -1.753260e-02 1.026624e+00 -1.069885e+00 1.607326e+01 -1.509419e+00 7.841827e-01 4.319674e-01 1.569908e+00 2.777561e+00 1.855063e+00 1.386371e+00 1.208551e+00 -7.404470e-02 7.137558e-01 2.513731e-01 9.867135e-01 -5.287181e-01
<VARIANCE> 26
 2.626935e+01 9.571141e+00 1.349273e+01 2.963818e+01 4.191815e+01 2.807823e+01 1.792643e+01 1.829082e+01 1.696343e+01 1.919034e+01 1.095576e+01 1.806867e+01 9.992905e+12 1.909161e+00 1.620530e+00 2.279995e+00 2.907643e+00 2.285751e+00 3.023245e+00 1.635298e+00 1.951569e+00 1.980412e+00 2.100358e+00 1.407369e+00 1.888807e+00 2.198397e+12
<GCONST> 1.501092e+02
<STATE> 3
<MEAN> 26
 -8.443657e+00 8.375299e+00 5.934300e+00 7.056294e+00 4.923665e+00 8.059969e+00 5.096539e+00 5.329078e+00 4.444636e+00 2.896737e+00 2.614962e+00 1.858888e+00 1.405703e+01 -3.431972e-01 -7.740608e-02 -7.873650e-02 -1.479557e-01 -7.423962e-02 6.441572e-02 -9.003957e-02 -1.615176e-02 6.056034e-02 4.910053e-02 1.053945e-02 6.798102e-02 -4.383840e-02
<VARIANCE> 26
 5.098290e+00 3.287713e+00 4.178051e+00 5.477608e+00 7.016893e+00 8.857437e+00 9.089234e+00 1.129511e+01 1.022977e+01 1.047369e+01 1.081968e+01 9.420757e+00 9.992905e+12 6.843491e-01 4.018439e-01 5.474427e-01 7.505260e-01 9.127609e-01 1.266595e+00 1.307004e+00 1.553468e+00 1.327707e+00 1.312744e+00 1.345817e+00 1.185833e+00 2.198397e+12
<GCONST> 1.298414e+02
<STATE> 4
<MEAN> 26
 -1.291201e+01 6.912953e+00 6.372137e+00 2.433367e+00 -3.285299e-01 3.520952e+00 1.895503e+00 2.249592e+00 4.663053e+00 2.013616e+00 1.160865e+00 4.000024e-01 1.509540e+01 2.943889e-01 -4.091645e-01 -8.280498e-02 -7.499647e-01 -1.022466e+00 -8.294736e-01 -3.972137e-01 -3.336049e-01 1.796385e-01 -6.424959e-03 -2.248002e-01 -5.261762e-01 2.379105e-01
<VARIANCE> 26
 2.136410e+01 6.955470e+00 6.212332e+00 1.168864e+01 1.754397e+01 1.578703e+01 1.295806e+01 1.407759e+01 1.454384e+01 1.316514e+01 1.358436e+01 1.455858e+01 9.992905e+12 2.433828e+00 6.504243e-01 9.672233e-01 1.696994e+00 1.970940e+00 1.937294e+00 1.669739e+00 1.737310e+00 1.634105e+00 1.424384e+00 1.416957e+00 1.718968e+00 2.198397e+12
<GCONST> 1.418896e+02
<TRANSP> 5
 0.000000e+00 1.000000e+00 0.000000e+00 0.000000e+00 0.000000e+00
 0.000000e+00 6.623123e-01 3.376878e-01 0.000000e+00 0.000000e+00
 0.000000e+00 0.000000e+00 8.958150e-01 1.041850e-01 0.000000e+00
 0.000000e+00 0.000000e+00 0.000000e+00 8.229931e-01 1.770069e-01
 0.000000e+00 0.000000e+00 0.000000e+00 0.000000e+00 0.000000e+00
<ENDHMM>
~h "u"
<BEGINHMM>
<NUMSTATES> 5
<STATE> 2
<MEAN> 26
 -1.761799e+00 7.225754e+00 4.765400e+00 3.118979e+00 -2.836572e+00 -1.511945e+00 1.288206e+00 -3.313933e-01 1.171963e+00 -1.519516e+00 1.790115e+00 -2.119102e+00 1.616464e+01 1.060102e+00 -3.459282e-01 -7.414193e-01 -9.408616e-01 -9.919776e-01 -3.388855e-01 -1.426929e-01 -4.313596e-01 -5.534574e-01 -3.865621e-01 2.906604e-02 -6.901383e-01 2.122063e-01
<VARIANCE> 26
 1.439269e+01 7.624603e+00 1.641455e+01 2.565638e+01 2.788520e+01 2.891060e+01 2.652411e+01 1.927143e+01 1.867816e+01 2.245852e+01 1.411413e+01 1.576801e+01 9.992905e+12 2.261825e+00 5.498273e-01 9.308453e-01 1.979764e+00 2.059792e+00 1.695444e+00 1.796034e+00 1.722006e+00 1.885322e+00 1.970098e+00 1.408425e+00 1.491394e+00 2.198397e+12
<GCONST> 1.465140e+02
<STATE> 3
<MEAN> 26
 2.303185e+00 6.122996e+00 -1.448287e-01 -5.336979e+00 -7.391450e+00 -2.937141e-01 4.389459e+00 1.152888e+00 -1.009315e+00 -3.884900e+00 1.908346e+00 -6.024765e+00 1.683706e+01 -2.533422e-02 -1.657681e-02 3.845357e-02 1.412690e-01 5.038616e-02 -1.061318e-01 3.889163e-02 1.024591e-02 -1.736970e-02 1.493066e-02 7.338626e-02 -1.190614e-02 -2.433511e-03
<VARIANCE> 26
 2.420438e+00 5.150234e+00 5.166001e+00 2.136123e+01 8.750638e+00 1.261852e+01 1.239512e+01 1.438565e+01 1.595778e+01 1.246059e+01 1.640299e+01 1.443401e+01 9.992905e+12 1.891937e-01 2.730162e-01 4.872088e-01 1.174034e+00 7.969222e-01 7.273041e-01 1.060094e+00 8.895367e-01 1.065893e+00 1.221248e+00 1.054656e+00 1.049672e+00 2.198397e+12
<GCONST> 1.302499e+02
<STATE> 4
<MEAN> 26
 -1.370276e+00 8.608278e+00 6.583664e+00 5.937018e+00 -1.772630e+00 -4.690624e+00 1.988766e+00 -1.944112e+00 -1.156044e+00 -2.572169e+00 2.976859e+00 -2.543678e+00 1.631246e+01 -4.601322e-01 1.705157e-01 3.786965e-01 4.990371e-01 5.704234e-01 3.587464e-01 1.100113e-01 1.694895e-01 2.504925e-01 1.738094e-01 -1.017600e-01 3.364504e-01 -9.129231e-02
<VARIANCE> 26
 4.142824e+00 8.171796e+00 1.059983e+01 1.252295e+01 1.543905e+01 2.172580e+01 1.262499e+01 1.244274e+01 1.330002e+01 1.364972e+01 9.608690e+00 1.238383e+01 9.992905e+12 5.189087e-01 5.088716e-01 6.533903e-01 1.040501e+00 1.385772e+00 2.077280e+00 1.332309e+00 1.413304e+00 1.429748e+00 1.458984e+00 1.049964e+00 1.133188e+00 2.198397e+12
<GCONST> 1.362814e+02
<TRANSP> 5
 0.000000e+00 1.000000e+00 0.000000e+00 0.000000e+00 0.000000e+00
 0.000000e+00 7.880638e-01 2.119362e-01 0.000000e+00 0.000000e+00
 0.000000e+00 0.000000e+00 9.148395e-01 8.516046e-02 0.000000e+00
 0.000000e+00 0.000000e+00 0.000000e+00 8.828900e-01 1.171100e-01
 0.000000e+00 0.000000e+00 0.000000e+00 0.000000e+00 0.000000e+00
<ENDHMM>
~h "v"
<BEGINHMM>
<NUMSTATES> 5
<STATE> 2
<MEAN> 26
 6.140403e-01 3.285412e+00 1.494667e-01 -3.798279e+00 -1.045160e+01 -1.528690e+00 -7.090653e-01 -3.057391e+00 4.519276e+00 -7.311934e-01 1.208393e+00 -7.279332e+00 1.785218e+01 -5.450892e-01 7.767695e-01 7.069284e-01 8.820143e-01 6.148581e-01 -3.376216e-01 1.878592e-01 2.168263e-02 -2.562610e-01 3.499568e-01 2.636607e-01 4.152651e-01 -1.756753e-01
<VARIANCE> 26
 1.276868e+01 2.444346e+01 3.459137e+01 3.428441e+01 3.075487e+01 2.034817e+01 2.871330e+01 2.755639e+01 3.975341e+01 3.374877e+01 1.933107e+01 2.855421e+01 9.992905e+12 8.718296e-01 1.199821e+00 1.351554e+00 1.596415e+00 1.504665e+00 9.856750e-01 1.485760e+00 1.534288e+00 1.392849e+00 1.453606e+00 1.201261e+00 1.521938e+00 2.198397e+12
<GCONST> 1.489268e+02
<STATE> 3
<MEAN> 26
 -5.856492e+00 7.467313e+00 8.519728e+00 4.997540e+00 -4.074940e+00 -3.249312e+00 1.550365e+00 -9.086542e-01 2.479416e+00 -3.740906e-01 2.234607e+00 -1.358945e+00 1.619192e+01 -8.886695e-02 -2.591702e-02 5.853772e-02 3.131321e-02 -5.167391e-02 -1.647242e-01 -4.673047e-02 -1.121685e-01 -8.991342e-02 -5.307074e-02 -3.864185e-02 -5.849412e-02 7.001963e-03
<VARIANCE> 26
 2.231636e+01 5.567548e+00 2.807153e+01 1.115437e+01 3.487512e+01 3.557517e+01 1.787535e+01 1.669342e+01 1.659737e+01 1.638894e+01 1.237658e+01 1.315930e+01 9.992905e+12 1.292552e+00 4.881044e-01 7.711915e-01 9.523537e-01 1.637424e+00 1.633824e+00 1.763423e+00 1.869966e+00 1.407385e+00 1.490353e+00 1.156568e+00 1.388542e+00 2.198397e+12
<GCONST> 1.428484e+02
<STATE> 4
<MEAN> 26
 -5.681760e-01 4.255343e+00 9.824728e-01 -1.694100e+00 -8.846684e+00 -2.650213e+00 -1.348542e+00 -3.680592e+00 4.086494e+00 4.094965e-01 1.803853e+00 -6.258714e+00 1.747500e+01 7.183464e-01 -9.347932e-01 -9.107991e-01 -1.188821e+00 -1.088635e+00 3.144640e-01 -2.593921e-01 -2.203106e-01 4.874316e-01 1.164870e-01 -1.216186e-01 -5.517285e-01 2.566625e-01
<VARIANCE> 26
 1.711170e+01 1.643409e+01 3.640750e+01 2.898418e+01 2.564877e+01 2.139703e+01 3.116289e+01 2.086415e+01 2.830458e+01 2.651778e+01 1.411123e+01 1.668456e+01 9.992905e+12 1.056791e+00 8.907399e-01 1.278050e+00 1.530202e+00 1.496822e+00 1.341674e+00 1.566521e+00 1.485255e+00 1.264864e+00 1.668613e+00 1.268308e+00 1.199069e+00 2.198397e+12
<GCONST> 1.469226e+02
<TRANSP> 5
 0.000000e+00 1.000000e+00 0.000000e+00 0.000000e+00 0.000000e+00
 0.000000e+00 8.157163e-01 1.842837e-01 0.000000e+00 0.000000e+00
 0.000000e+00 0.000000e+00 8.969832e-01 1.030168e-01 0.000000e+00
 0.000000e+00 0.000000e+00 0.000000e+00 7.645940e-01 2.354060e-01
 0.000000e+00 0.000000e+00 0.000000e+00 0.000000e+00 0.000000e+00
<ENDHMM>
~h "w"
<BEGINHMM>
<NUMSTATES> 5
<STATE> 2
<MEAN> 26
 -1.197803e-01 5.772453e+00 3.055044e+00 1.048946e+00 -4.265248e+00 -8.022150e-01 8.610322e-01 -7.327278e-01 1.748149e+00 -8.961470e-01 1.769058e+00 -3.378279e+00 1.662524e+01 4.999419e-01 -3.934161e-02 -3.876974e-01 -6.853502e-01 -5.360821e-01 -1.103455e-01 1.294855e-01 -5.967102e-02 -4.721447e-01 -1.796058e-01 5.162824e-02 -3.708817e-01 8.394177e-02
<VARIANCE> 26
 1.117223e+01 2.029493e+01 1.824027e+01 3.523567e+01 3.787132e+01 2.793415e+01 2.716576e+01 1.718526e+01 2.583340e+01 1.349833e+01 1.727435e+01 2.462281e+01 9.992905e+12 9.945357e-01 8.121032e-01 1.350424e+00 2.151374e+00 1.953479e+00 1.588767e+00 2.062936e+00 1.365860e+00 1.596822e+00 1.390231e+00 1.504310e+00 1.375411e+00 2.198397e+12
<GCONST> 1.475891e+02
<STATE> 3
<MEAN> 26
 3.490851e+00 5.114180e+00 -1.739118e+00 -1.004717e+01 -1.017720e+01 2.097820e+00 4.341714e+00 1.866533e+00 -5.895543e-01 -5.408816e+00 2.481500e-01 -7.251314e+00 1.743374e+01 8.379942e-02 -7.678027e-02 -1.349320e-01 -2.598876e-01 -1.614332e-01 9.350706e-02 4.547476e-02 1.408110e-03 -4.373261e-02 -1.388006e-01 -2.800340e-02 -6.395645e-02 3.160812e-02
<VARIANCE> 26
 1.743311e+00 6.539526e+00 6.084955e+00 1.280728e+01 8.190686e+00 7.140877e+00 1.808033e+01 1.041633e+01 1.188240e+01 1.581535e+01 1.134517e+01 1.547157e+01 9.992905e+12 1.286534e-01 4.873366e-01 5.087559e-01 8.836673e-01 7.010527e-01 6.247777e-01 1.128091e+00 8.633456e-01 9.848312e-01 1.276035e+00 8.452644e-01 9.401141e-01 2.198397e+12
<GCONST> 1.282146e+02
<STATE> 4
<MEAN> 26
 3.838920e+00 5.366184e-01 -3.468569e+00 -8.132640e+00 -1.225380e+01 1.253567e+00 -1.075694e+00 -1.799779e+00 2.512168e+00 -1.792086e-01 4.097314e-01 -9.531471e+00 1.827640e+01 -1.088263e-03 -1.184942e+00 -1.276478e-01 7.088571e-01 -4.570727e-01 -4.602046e-01 -1.212090e+00 -4.764614e-01 9.357560e-01 9.853789e-01 -1.525125e-01 -6.830559e-01 2.226232e-01
<VARIANCE> 26
 2.407637e+00 1.380968e+01 1.142942e+01 2.993492e+01 1.026566e+01 1.568304e+01 2.643715e+01 7.615016e+00 1.332094e+01 1.602770e+01 1.360600e+01 1.427312e+01 9.992905e+12 3.131030e-01 9.273812e-01 9.837358e-01 1.241199e+00 1.091509e+00 9.384418e-01 1.926519e+00 1.199420e+00 1.088412e+00 2.354644e+00 1.507020e+00 1.605655e+00 2.198397e+12
<GCONST> 1.381439e+02
<TRANSP> 5
 0.000000e+00 1.000000e+00 0.000000e+00 0.000000e+00 0.000000e+00
 0.000000e+00 8.743879e-01 1.256121e-01 0.000000e+00 0.000000e+00
 0.000000e+00 0.000000e+00 8.980043e-01 1.019957e-01 0.000000e+00
 0.000000e+00 0.000000e+00 0.000000e+00 6.660763e-01 3.339237e-01
 0.000000e+00 0.000000e+00 0.000000e+00 0.000000e+00 0.000000e+00
<ENDHMM>
~h "x"
<BEGINHMM>
<NUMSTATES> 5
<STATE> 2
<MEAN> 26
 -2.874269e+00 2.675541e+00 2.062915e+00 -1.217492e+00 -7.986750e+00 -1.755995e+00 -3.703368e+00 -2.707868e+00 6.090065e+00 1.042217e+00 -6.070204e-01 -4.631774e+00 1.755463e+01 1.428534e+00 -1.215853e+00 -1.531905e+00 -1.489088e+00 -1.828885e+00 -2.615875e-01 -8.130605e-01 -1.077859e+00 7.444618e-01 4.371953e-01 -1.522554e-01 -1.394627e+00 5.236422e-01
<VARIANCE> 26
 4.565419e+01 1.714404e+01 2.777794e+01 3.546630e+01 4.025483e+01 3.221539e+01 3.704063e+01 2.251781e+01 1.757202e+01 2.971319e+01 1.260878e+01 2.288612e+01 9.992905e+12 3.634067e+00 9.259707e-01 1.635883e+00 2.131007e+00 3.340558e+00 2.556164e+00 2.924233e+00 2.351621e+00 1.666575e+00 1.905693e+00 1.409953e+00 1.816451e+00 2.198397e+12
<GCONST> 1.541399e+02
<STATE> 3
<MEAN> 26
 1.868430e+00 -1.336990e+00 -6.426555e+00 -6.813313e+00 -1.470510e+01 -1.142368e+00 -4.396252e+00 -8.999103e+00 1.103995e+01 5.025727e+00 2.529795e+00 -1.137838e+01 1.970323e+01 2.733796e-02 -4.874840e-02 1.230676e-02 -5.422595e-02 -2.632455e-02 6.328585e-02 -3.657398e-02 -1.355273e-02 5.545073e-02 2.642695e-02 3.315469e-02 -5.389276e-03 5.289777e-03
<VARIANCE> 26
 1.546389e+00 5.725168e+00 4.987265e+00 6.543093e+00 6.478724e+00 7.630640e+00 6.503050e+00 8.362860e+00 7.118882e+00 8.985125e+00 1.067880e+01 5.730853e+00 9.992905e+12 1.315508e-01 3.176116e-01 4.487422e-01 4.825647e-01 5.637519e-01 6.512220e-01 6.949190e-01 6.417651e-01 6.912996e-01 7.314840e-01 7.232258e-01 5.285426e-01 2.198397e+12
<GCONST> 1.198134e+02
<STATE> 4
<MEAN> 26
 8.719329e-02 3.112496e+00 2.231013e+00 -6.986264e-01 -7.770363e+00 -7.838376e-01 -3.765355e+00 -3.740574e+00 5.949238e+00 1.572757e+00 7.118384e-01 -5.465623e+00 1.770829e+01 -9.541255e-01 1.449883e+00 1.564469e+00 1.923787e+00 2.047975e+00 5.246497e-02 9.441249e-01 1.021650e+00 -9.904423e-01 -4.846382e-01 8.983643e-02 1.084314e+00 -4.815452e-01
<VARIANCE> 26
 1.187779e+01 2.755684e+01 2.546816e+01 4.453981e+01 5.210945e+01 2.185520e+01 3.263728e+01 1.829317e+01 2.639699e+01 2.991754e+01 1.807361e+01 1.969472e+01 9.992905e+12 8.203666e-01 1.837141e+00 1.567407e+00 2.622016e+00 2.817641e+00 2.791511e+00 2.625150e+00 1.443614e+00 2.191885e+00 2.235453e+00 1.548186e+00 1.334067e+00 2.198397e+12
<GCONST> 1.524703e+02
<TRANSP> 5
 0.000000e+00 1.000000e+00 0.000000e+00 0.000000e+00 0.000000e+00
 0.000000e+00 7.936307e-01 2.063693e-01 0.000000e+00 0.000000e+00
 0.000000e+00 0.000000e+00 9.336291e-01 6.637090e-02 0.000000e+00
 0.000000e+00 0.000000e+00 0.000000e+00 7.243171e-01 2.756829e-01
 0.000000e+00 0.000000e+00 0.000000e+00 0.000000e+00 0.000000e+00
<ENDHMM>
~h "y"
<BEGINHMM>
<NUMSTATES> 5
<STATE> 2
<MEAN> 26
 -5.218033e+00 6.619040e+00 1.028106e+01 6.206163e+00 -6.851139e+00 -5.765296e+00 -5.178246e-01 -2.357334e+00 2.913999e+00 -3.094587e+00 5.960057e-01 -1.242266e+00 1.673231e+01 1.114804e+00 -3.417336e-01 6.196254e-01 3.049860e-01 -1.247636e+00 -1.552244e+00 -1.483726e+00 -8.032277e-01 1.307649e-01 -1.315740e+00 -3.346001e-01 -3.366812e-02 3.341815e-01
<VARIANCE> 26
 1.952904e+01 6.290702e+00 2.703082e+01 1.311715e+01 3.387061e+01 4.301902e+01 3.083363e+01 2.143671e+01 1.539781e+01 2.510032e+01 1.389524e+01 1.882192e+01 9.992905e+12 1.436695e+00 5.793434e-01 1.128785e+00 8.742617e-01 2.580580e+00 2.455160e+00 2.611648e+00 1.614588e+00 1.581957e+00 1.520489e+00 1.281684e+00 1.403454e+00 2.198397e+12
<GCONST> 1.466732e+02
<STATE> 3
<MEAN> 26
 -1.344746e+00 4.958802e+00 1.366249e+01 7.062113e+00 -1.124898e+01 -1.220786e+01 -1.030978e+01 -5.032544e+00 6.053619e+00 -1.144901e+01 -1.166806e+00 4.942606e-01 1.815556e+01 4.709061e-02 1.889677e-02 -2.676731e-02 1.318080e-02 2.753999e-02 -5.485029e-02 -1.480681e-02 2.958175e-03 7.948902e-03 -2.932012e-02 2.144751e-02 -3.902863e-02 1.252551e-03
<VARIANCE> 26
 4.923608e+00 4.178237e+00 7.760567e+00 7.254612e+00 1.385805e+01 8.317475e+00 2.344177e+01 8.724992e+00 1.451108e+01 1.104076e+01 1.056520e+01 1.071903e+01 9.992905e+12 2.265926e-01 2.639496e-01 5.090605e-01 5.247366e-01 7.910829e-01 7.871676e-01 1.830132e+00 8.196422e-01 1.039769e+00 1.101631e+00 8.870836e-01 7.544348e-01 2.198397e+12
<GCONST> 1.285945e+02
<STATE> 4
<MEAN> 26
 -2.694742e+00 6.845040e+00 9.571980e+00 6.391650e+00 -5.536132e+00 -5.829295e+00 -1.010993e+00 -2.573827e+00 2.000362e+00 -4.065909e+00 1.443788e+00 -1.372535e+00 1.678509e+01 -2.495211e-01 2.790800e-01 -5.606372e-01 -1.950182e-01 1.076021e+00 1.395527e+00 9.870000e-01 5.094357e-01 -2.294978e-01 8.545588e-01 1.595889e-01 -4.977063e-02 -1.811831e-01
<VARIANCE> 26
 1.405748e+01 1.820349e+01 2.960233e+01 2.115648e+01 4.327354e+01 5.542737e+01 4.102432e+01 2.163705e+01 2.347126e+01 2.488136e+01 1.387175e+01 1.455492e+01 9.992905e+12 9.324310e-01 1.331949e+00 1.315814e+00 1.556656e+00 2.796231e+00 3.236407e+00 2.414824e+00 1.484460e+00 1.690802e+00 1.906034e+00 1.199570e+00 1.268541e+00 2.198397e+12
<GCONST> 1.503730e+02
<TRANSP> 5
 0.000000e+00 1.000000e+00 0.000000e+00 0.000000e+00 0.000000e+00
 0.000000e+00 7.798921e-01 2.201079e-01 0.000000e+00 0.000000e+00
 0.000000e+00 0.000000e+00 9.308541e-01 6.914590e-02 0.000000e+00
 0.000000e+00 0.000000e+00 0.000000e+00 7.882143e-01 2.117857e-01
 0.000000e+00 0.000000e+00 0.000000e+00 0.000000e+00 0.000000e+00
<ENDHMM>
~h "z"
<BEGINHMM>
<NUMSTATES> 5
<STATE> 2
<MEAN> 26
 -5.940656e+00 6.085570e+00 8.668291e+00 3.980504e-01 -9.075192e+00 -4.886992e+00 -1.086797e-01 -3.110067e+00 3.263428e+00 -1.606389e-01 1.906808e+00 -3.503261e+00 1.728057e+01 -9.670071e-01 5.000252e-01 1.820709e-01 3.989659e-01 7.682601e-01 -5.068047e-03 4.046485e-01 1.990277e-01 -3.546518e-03 5.944082e-01 1.094298e-01 1.894979e-01 -1.532867e-01
<VARIANCE> 26
 3.683321e+01 1.898401e+01 7.006493e+01 3.960036e+01 2.809220e+01 3.815488e+01 2.704681e+01 1.924760e+01 3.001745e+01 3.419035e+01 1.965779e+01 2.580372e+01 9.992905e+12 2.135809e+00 1.571193e+00 1.199178e+00 1.443159e+00 2.728410e+00 1.632624e+00 2.018009e+00 1.863776e+00 1.461942e+00 1.819895e+00 1.347783e+00 1.185847e+00 2.198397e+12
<GCONST> 1.530348e+02
<STATE> 3
<MEAN> 26
 -1.345734e+01 8.810834e+00 4.596076e+00 1.973691e+00 -1.639972e-01 -9.822721e-01 3.577606e+00 1.967442e+00 4.396610e+00 3.216552e+00 1.421807e+00 -1.525391e+00 1.578461e+01 -9.773279e-02 -1.370372e-02 -1.009639e-01 -3.817512e-02 1.136978e-02 -4.776282e-02 -3.458823e-02 2.467500e-02 2.154850e-02 3.227207e-03 -6.683350e-02 -2.711572e-02 -1.109053e-02
<VARIANCE> 26
 1.373664e+01 4.082860e+00 1.153342e+01 7.457230e+00 1.129466e+01 1.413780e+01 1.087389e+01 1.401082e+01 1.144007e+01 1.297065e+01 1.107515e+01 1.109815e+01 9.992905e+12 1.190612e+00 3.212378e-01 6.789336e-01 7.142310e-01 1.272701e+00 1.064919e+00 1.296027e+00 1.600494e+00 1.275162e+00 1.214385e+00 1.320943e+00 1.238927e+00 2.198397e+12
<GCONST> 1.348071e+02
<STATE> 4
<MEAN> 26
 -5.930242e+00 5.184666e+00 2.186226e+00 -1.713501e+00 -7.708182e+00 -1.894045e+00 -2.441015e+00 -3.357716e+00 6.705967e+00 4.975771e+00 -2.552068e-01 -6.261179e+00 1.710885e+01 1.330591e+00 -8.678249e-01 -4.810546e-01 -6.822797e-01 -1.153585e+00 1.999703e-01 -7.481012e-01 -6.624237e-01 5.116593e-01 2.778285e-02 -2.689137e-01 -5.912794e-01 2.748621e-01
<VARIANCE> 26
 2.354622e+01 1.459762e+01 3.579310e+01 1.749953e+01 2.645058e+01 2.108260e+01 2.275298e+01 2.040466e+01 1.633589e+01 2.215879e+01 1.073169e+01 2.214268e+01 9.992905e+12 2.525770e+00 1.443643e+00 1.162854e+00 1.314082e+00 3.005046e+00 1.396298e+00 2.681220e+00 1.866936e+00 1.604245e+00 1.410298e+00 1.334327e+00 1.550196e+00 2.198397e+12
<GCONST> 1.485484e+02
<TRANSP> 5
 0.000000e+00 1.000000e+00 0.000000e+00 0.000000e+00 0.000000e+00
 0.000000e+00 8.641713e-01 1.358287e-01 0.000000e+00 0.000000e+00
 0.000000e+00 0.000000e+00 9.033088e-01 9.669120e-02 0.000000e+00
 0.000000e+00 0.000000e+00 0.000000e+00 7.830691e-01 2.169309e-01
 0.000000e+00 0.000000e+00 0.000000e+00 0.000000e+00 0.000000e+00
<ENDHMM>
~h "__"
<BEGINHMM>
<NUMSTATES> 5
<STATE> 2
<MEAN> 26
 -6.206089e+00 7.540686e+00 6.111308e+00 5.120380e+00 6.172820e-01 1.612031e+00 9.265955e-01 2.693215e-01 1.229198e+00 1.398598e-01 1.264862e+00 -1.060476e-02 -3.205912e+06 -3.708693e-01 6.681559e-01 6.018714e-01 1.338002e+00 1.832184e+00 1.804197e+00 1.297831e+00 1.349290e+00 4.931836e-01 6.136162e-01 2.992176e-01 6.642332e-01 2.564738e+06
<VARIANCE> 26
 1.445989e+01 1.150169e+01 1.252413e+01 2.116277e+01 2.640073e+01 2.327383e+01 1.991860e+01 2.078309e+01 2.032136e+01 2.011251e+01 1.525066e+01 1.478630e+01 3.204836e+16 1.272049e+00 1.350667e+00 1.552289e+00 2.235874e+00 2.644598e+00 2.483427e+00 2.205471e+00 2.447272e+00 2.649865e+00 2.268965e+00 1.802962e+00 1.775197e+00 7.046480e+15
<GCONST> 1.651646e+02
<STATE> 3
<MEAN> 26
 -8.265572e+00 8.463326e+00 5.897871e+00 7.386872e+00 5.293808e+00 8.438849e+00 5.519497e+00 5.556170e+00 4.404326e+00 2.857769e+00 2.609164e+00 2.031895e+00 1.401481e+01 -1.480166e-01 -5.890474e-02 -1.553426e-01 -3.081259e-03 1.764754e-01 3.855652e-01 2.374515e-01 3.199068e-01 2.628054e-01 2.200193e-01 1.146894e-01 1.383365e-01 -1.747231e-02
<VARIANCE> 26
 2.427449e+00 3.453116e+00 4.198068e+00 4.675346e+00 6.453223e+00 8.622880e+00 8.943270e+00 1.037541e+01 1.079032e+01 1.073554e+01 9.940384e+00 9.023367e+00 9.992905e+12 3.102801e-01 4.280820e-01 4.951870e-01 6.251562e-01 8.822485e-01 1.251731e+00 1.241389e+00 1.412064e+00 1.398783e+00 1.363670e+00 1.243253e+00 1.113307e+00 2.198397e+12
<GCONST> 1.274775e+02
<STATE> 4
<MEAN> 26
 -7.334054e+00 9.024374e+00 6.079792e+00 6.128306e+00 3.766234e+00 6.637693e+00 4.605981e+00 4.863173e+00 4.201064e+00 2.624439e+00 2.819252e+00 1.971565e+00 1.405312e+01 3.082959e-01 6.673262e-02 1.518911e-01 -2.385981e-01 -4.988025e-01 -5.890734e-01 -2.837031e-01 -3.890662e-01 -1.830727e-01 -2.200632e-01 -1.186600e-01 -2.150504e-01 1.403867e-01
<VARIANCE> 26
 9.050724e+00 4.475200e+00 4.316032e+00 6.657279e+00 9.045436e+00 1.135202e+01 1.038495e+01 1.180846e+01 1.052180e+01 1.071765e+01 9.704114e+00 9.472528e+00 9.992905e+12 6.627446e-01 5.042635e-01 6.362727e-01 1.052054e+00 1.383034e+00 1.333454e+00 1.328207e+00 1.378882e+00 1.300623e+00 1.357240e+00 1.164633e+00 1.238402e+00 2.198397e+12
<GCONST> 1.325373e+02
<TRANSP> 5
 0.000000e+00 1.000000e+00 0.000000e+00 0.000000e+00 0.000000e+00
 0.000000e+00 4.671441e-01 5.328559e-01 0.000000e+00 0.000000e+00
 0.000000e+00 0.000000e+00 8.997020e-01 1.002980e-01 0.000000e+00
 0.000000e+00 0.000000e+00 0.000000e+00 7.029681e-01 2.970320e-01
 0.000000e+00 0.000000e+00 0.000000e+00 0.000000e+00 0.000000e+00
<ENDHMM>
~h "a~"
<BEGINHMM>
<NUMSTATES> 5
<STATE> 2
<MEAN> 26
 1.712990e+00 -6.334956e-02 -2.515515e+00 -9.137727e+00 -1.115272e+01 2.488148e+00 -1.409562e+00 -2.454324e+00 5.726492e+00 3.765235e-01 -1.022959e+00 -7.648474e+00 1.852621e+01 9.455360e-01 -6.386899e-01 -1.085956e+00 -2.368227e+00 -1.015486e+00 9.102038e-01 2.582482e-01 -2.403527e-01 -3.836214e-02 -6.243950e-01 -4.268906e-01 -5.264360e-01 3.280502e-01
<VARIANCE> 26
 1.461189e+01 2.995941e+01 2.280995e+01 4.319164e+01 3.064879e+01 1.786187e+01 2.857518e+01 2.162019e+01 1.541531e+01 2.604019e+01 1.520299e+01 2.715294e+01 9.992905e+12 2.110273e+00 1.941753e+00 1.657993e+00 2.291343e+00 2.978250e+00 1.345298e+00 2.593355e+00 1.584494e+00 1.447131e+00 2.578770e+00 1.451857e+00 2.421300e+00 2.198397e+12
<GCONST> 1.519807e+02
<STATE> 3
<MEAN> 26
 4.021274e+00 5.872278e+00 -5.745313e-01 -1.694687e+01 -1.140950e+01 4.363019e+00 -1.300236e+00 3.083631e+00 2.467876e+00 -1.114276e+01 -1.733008e+00 -4.465091e+00 1.832054e+01 9.006985e-02 5.253735e-01 3.479809e-01 1.117855e-01 3.534350e-02 -1.839536e-01 -2.925244e-01 4.018302e-01 -1.897331e-01 -5.426309e-01 1.005328e-01 2.461429e-01 -5.649927e-02
<VARIANCE> 26
 2.368417e+00 1.677569e+01 1.033608e+01 6.585023e+00 7.358211e+00 1.241076e+01 2.518297e+01 2.017708e+01 9.538963e+00 2.147567e+01 1.069543e+01 9.030056e+00 9.992905e+12 1.048554e-01 5.876385e-01 4.871217e-01 7.265425e-01 6.294128e-01 8.266241e-01 9.976982e-01 1.140568e+00 8.232718e-01 1.519957e+00 7.694347e-01 7.272402e-01 2.198397e+12
<GCONST> 1.299708e+02
<STATE> 4
<MEAN> 26
 2.705065e+00 8.973755e+00 3.343776e+00 -6.157358e+00 -7.362850e+00 1.686032e+00 -1.843134e+00 2.013923e+00 7.688555e-01 -7.029218e+00 5.719831e-01 -1.696163e+00 1.726078e+01 -1.144947e+00 -1.599634e-02 6.547918e-01 2.895606e+00 1.822025e+00 -3.331601e-02 8.599756e-01 -5.844828e-01 8.044537e-03 1.928094e+00 4.043601e-01 3.100494e-01 -3.056788e-01
<VARIANCE> 26
 9.029154e+00 6.809060e+00 1.178566e+01 6.188192e+01 3.213724e+01 1.173922e+01 1.539218e+01 1.369091e+01 9.445493e+00 3.504217e+01 1.099444e+01 1.365396e+01 9.992905e+12 8.950270e-01 5.768445e-01 8.247087e-01 2.331037e+00 2.241110e+00 1.529389e+00 1.212077e+00 1.746019e+00 1.331021e+00 1.734343e+00 1.050277e+00 1.363988e+00 2.198397e+12
<GCONST> 1.421144e+02
<TRANSP> 5
 0.000000e+00 1.000000e+00 0.000000e+00 0.000000e+00 0.000000e+00
 0.000000e+00 8.349100e-01 1.650900e-01 0.000000e+00 0.000000e+00
 0.000000e+00 0.000000e+00 9.310369e-01 6.896308e-02 0.000000e+00
 0.000000e+00 0.000000e+00 0.000000e+00 7.237316e-01 2.762684e-01
 0.000000e+00 0.000000e+00 0.000000e+00 0.000000e+00 0.000000e+00
<ENDHMM>
~h "e^"
<BEGINHMM>
<NUMSTATES> 5
<STATE> 2
<MEAN> 26
 -3.401355e+00 7.358505e-01 7.762665e+00 7.662014e-01 -1.201830e+01 -4.896872e+00 -2.748197e+00 -1.455639e+00 6.996301e+00 -2.930528e+00 -2.183447e+00 -1.865304e+00 1.778427e+01 1.658654e+00 -2.160528e+00 -6.410814e-01 -9.544324e-01 -2.486514e+00 -5.302438e-01 -9.810191e-01 1.430610e-01 1.093974e+00 -7.401693e-01 -9.660903e-01 -4.744583e-01 4.910873e-01
<VARIANCE> 26
 2.899706e+01 3.581343e+01 2.942061e+01 2.448126e+01 5.341747e+01 3.173676e+01 2.953128e+01 1.595224e+01 2.050086e+01 2.628540e+01 1.920728e+01 2.099761e+01 9.992905e+12 1.892750e+00 1.761104e+00 1.788969e+00 1.339793e+00 2.201637e+00 2.551346e+00 2.470742e+00 1.875306e+00 1.518764e+00 1.774794e+00 1.569263e+00 1.560486e+00 2.198397e+12
<GCONST> 1.527659e+02
<STATE> 3
<MEAN> 26
 3.188380e+00 -7.887999e+00 3.645636e+00 -1.597958e+00 -2.169572e+01 -5.776860e+00 -3.816831e+00 2.522743e+00 1.227119e+01 -5.555177e+00 -5.445991e+00 -3.145470e+00 1.944185e+01 1.621743e-02 4.827101e-03 3.216428e-02 3.901807e-02 -7.606189e-02 -6.284706e-02 5.527613e-02 3.566738e-02 3.887122e-02 -3.973694e-02 1.561672e-02 1.374664e-02 -6.618358e-04
<VARIANCE> 26
 1.239552e+00 5.948802e+00 9.212993e+00 7.928507e+00 7.249363e+00 1.376256e+01 9.509523e+00 7.758312e+00 7.069035e+00 6.604442e+00 1.500692e+01 1.054915e+01 9.992905e+12 1.109127e-01 3.037473e-01 4.718294e-01 5.026924e-01 7.048911e-01 7.835984e-01 7.213845e-01 6.670085e-01 6.066464e-01 6.187766e-01 7.156610e-01 6.372982e-01 2.198397e+12
<GCONST> 1.223179e+02
<STATE> 4
<MEAN> 26
 -6.632611e-01 -1.621737e+00 7.060259e+00 2.075753e-01 -1.597297e+01 -6.896388e+00 -3.719087e+00 -8.693209e-01 9.134432e+00 -4.099477e+00 -3.161287e+00 -2.436405e+00 1.846357e+01 -1.177170e+00 2.051026e+00 6.201645e-01 6.928688e-01 2.208490e+00 1.157884e-01 3.493870e-01 -5.424799e-01 -1.078918e+00 7.463632e-01 7.963122e-01 2.136643e-01 -3.336715e-01
<VARIANCE> 26
 1.497104e+01 3.191054e+01 2.570254e+01 2.203537e+01 3.949958e+01 2.448213e+01 1.857195e+01 1.243323e+01 2.072117e+01 1.889214e+01 2.359240e+01 2.446692e+01 9.992905e+12 1.604845e+00 1.926612e+00 1.647073e+00 1.677611e+00 2.583167e+00 2.138428e+00 2.583166e+00 1.463791e+00 1.433467e+00 1.807794e+00 1.778374e+00 1.447457e+00 2.198397e+12
<GCONST> 1.503711e+02
<TRANSP> 5
 0.000000e+00 1.000000e+00 0.000000e+00 0.000000e+00 0.000000e+00
 0.000000e+00 7.982031e-01 2.017969e-01 0.000000e+00 0.000000e+00
 0.000000e+00 0.000000e+00 9.351628e-01 6.483719e-02 0.000000e+00
 0.000000e+00 0.000000e+00 0.000000e+00 7.302437e-01 2.697563e-01
 0.000000e+00 0.000000e+00 0.000000e+00 0.000000e+00 0.000000e+00
<ENDHMM>
~h "e~"
<BEGINHMM>
<NUMSTATES> 5
<STATE> 2
<MEAN> 26
 -2.503344e+00 -1.828278e-01 2.958249e+00 -2.538759e+00 -9.043735e+00 -9.974613e-01 -3.540468e+00 -9.154357e-01 7.987707e+00 -8.176907e-01 -3.786754e+00 -5.490153e+00 1.774722e+01 1.028488e+00 -2.158021e+00 -1.167182e+00 -1.717499e+00 -1.317601e+00 5.393844e-01 -6.384243e-01 -6.361991e-02 1.134379e+00 -7.741749e-01 -1.499879e+00 -1.151402e+00 4.903664e-01
<VARIANCE> 26
 2.190728e+01 3.465562e+01 2.139363e+01 3.609079e+01 3.592303e+01 2.480930e+01 2.299042e+01 1.280922e+01 1.737933e+01 2.614636e+01 2.352134e+01 2.034007e+01 9.992905e+12 2.061539e+00 1.624922e+00 9.778812e-01 1.677780e+00 2.383343e+00 2.605495e+00 1.931716e+00 1.526630e+00 1.195107e+00 2.109972e+00 1.533587e+00 1.154632e+00 2.198397e+12
<GCONST> 1.502931e+02
<STATE> 3
<MEAN> 26
 2.405393e-01 -4.972250e+00 9.807514e-01 -5.683232e+00 -1.028382e+01 1.613162e+00 -4.296481e+00 4.475954e-01 1.254814e+01 -7.607661e+00 -1.107609e+01 -9.541705e+00 1.902119e+01 4.162531e-02 2.561793e-01 1.373126e-01 2.328734e-01 1.996735e-01 -1.353487e-01 -8.520931e-02 -2.226086e-02 -8.804277e-03 -7.689042e-02 -6.623818e-03 3.083397e-02 -3.987824e-02
<VARIANCE> 26
 3.395309e+00 1.480149e+01 1.196318e+01 1.030082e+01 1.010412e+01 1.353538e+01 9.431006e+00 5.942810e+00 6.778811e+00 9.507997e+00 9.876888e+00 8.096585e+00 9.992905e+12 2.432682e-01 8.153642e-01 5.466686e-01 7.065886e-01 6.457893e-01 8.409173e-01 8.212759e-01 5.872707e-01 7.068748e-01 8.423528e-01 1.034575e+00 6.580889e-01 2.198397e+12
<GCONST> 1.275481e+02
<STATE> 4
<MEAN> 26
 -8.112235e-01 4.588094e+00 5.924902e+00 3.788079e+00 -5.134550e+00 -4.428201e+00 -3.295352e+00 -1.649465e+00 4.822857e+00 -3.612855e+00 -1.317431e+00 -3.984036e+00 1.722593e+01 -5.462510e-01 1.096344e+00 6.188906e-01 1.031713e+00 8.011436e-01 6.983097e-02 8.770739e-01 1.406308e-01 -9.372701e-01 4.570904e-01 1.121561e+00 6.836272e-01 -2.642331e-01
<VARIANCE> 26
 9.600034e+00 2.531394e+01 2.404938e+01 2.634757e+01 2.850242e+01 2.970133e+01 3.758718e+01 1.272605e+01 2.974207e+01 1.350400e+01 2.722999e+01 1.657778e+01 9.992905e+12 6.445771e-01 1.824457e+00 1.425677e+00 1.937477e+00 2.094280e+00 3.554881e+00 2.119103e+00 1.553379e+00 2.042813e+00 1.531880e+00 1.984331e+00 1.297118e+00 2.198397e+12
<GCONST> 1.495638e+02
<TRANSP> 5
 0.000000e+00 1.000000e+00 0.000000e+00 0.000000e+00 0.000000e+00
 0.000000e+00 8.169276e-01 1.830724e-01 0.000000e+00 0.000000e+00
 0.000000e+00 0.000000e+00 9.457576e-01 5.424240e-02 0.000000e+00
 0.000000e+00 0.000000e+00 0.000000e+00 8.676768e-01 1.323232e-01
 0.000000e+00 0.000000e+00 0.000000e+00 0.000000e+00 0.000000e+00
<ENDHMM>
~h "o^"
<BEGINHMM>
<NUMSTATES> 5
<STATE> 2
<MEAN> 26
 5.103300e-01 4.824605e+00 2.297310e-01 -4.430685e+00 -6.858645e+00 8.670470e-01 3.423119e-01 -1.054000e+00 2.974179e+00 -8.225595e-01 3.553065e-01 -4.547868e+00 1.720976e+01 1.499613e+00 -1.240336e+00 -1.480811e+00 -2.184736e+00 -1.917536e+00 2.314184e-01 -2.761414e-01 -7.702349e-01 -8.846854e-02 -3.930197e-01 -2.322661e-01 -1.435247e+00 4.949202e-01
<VARIANCE> 26
 2.172723e+01 1.613850e+01 1.946546e+01 4.313942e+01 3.498249e+01 1.645265e+01 3.360817e+01 2.958823e+01 1.626862e+01 2.774626e+01 1.400689e+01 2.275402e+01 9.992905e+12 2.448315e+00 1.101323e+00 1.249362e+00 2.638426e+00 2.210898e+00 1.397842e+00 2.384419e+00 1.881471e+00 1.446996e+00 2.149606e+00 1.374166e+00 1.608697e+00 2.198397e+12
<GCONST> 1.506055e+02
<STATE> 3
<MEAN> 26
 4.071326e+00 2.900788e-01 -4.803997e+00 -1.192013e+01 -1.215257e+01 3.369396e+00 2.095739e+00 -1.825637e+00 2.389627e+00 -2.005456e+00 -5.375352e-02 -1.081382e+01 1.864532e+01 1.121176e-02 7.905561e-02 5.982586e-02 -1.208827e-02 1.099097e-02 1.389532e-02 7.877246e-02 1.026956e-01 -8.108155e-02 -6.099486e-02 -1.250258e-02 -6.729881e-03 -1.834351e-02
<VARIANCE> 26
 1.406520e+00 1.112877e+01 5.147198e+00 1.085213e+01 9.580950e+00 7.504488e+00 3.727693e+01 1.708436e+01 2.343547e+01 3.174770e+01 9.470579e+00 1.110752e+01 9.992905e+12 9.819148e-02 4.887071e-01 4.210760e-01 8.053586e-01 5.763021e-01 6.711645e-01 1.025140e+00 7.324768e-01 8.030530e-01 1.095109e+00 7.266934e-01 8.109317e-01 2.198397e+12
<GCONST> 1.288977e+02
<STATE> 4
<MEAN> 26
 1.533286e+00 5.088190e+00 5.403342e-01 -4.029241e+00 -7.166477e+00 1.334229e+00 1.810372e+00 -1.547405e-01 1.599910e+00 -1.183111e+00 7.269772e-01 -5.254009e+00 1.719047e+01 -9.953398e-01 7.815241e-01 1.276848e+00 2.453880e+00 1.756443e+00 -3.300871e-01 -2.355425e-01 1.045896e-01 2.604728e-01 3.453623e-01 1.886754e-01 1.355949e+00 -3.224699e-01
<VARIANCE> 26
 8.146696e+00 1.583234e+01 1.470915e+01 5.018809e+01 3.810650e+01 1.245655e+01 2.843771e+01 1.634695e+01 2.163665e+01 2.684960e+01 1.123855e+01 2.234574e+01 9.992905e+12 6.949769e-01 8.318676e-01 8.900703e-01 2.156164e+00 2.004058e+00 1.728444e+00 1.888226e+00 1.533599e+00 1.424662e+00 2.257281e+00 1.236139e+00 1.737966e+00 2.198397e+12
<GCONST> 1.461378e+02
<TRANSP> 5
 0.000000e+00 1.000000e+00 0.000000e+00 0.000000e+00 0.000000e+00
 0.000000e+00 7.690931e-01 2.309069e-01 0.000000e+00 0.000000e+00
 0.000000e+00 0.000000e+00 9.411740e-01 5.882597e-02 0.000000e+00
 0.000000e+00 0.000000e+00 0.000000e+00 6.890750e-01 3.109250e-01
 0.000000e+00 0.000000e+00 0.000000e+00 0.000000e+00 0.000000e+00
<ENDHMM>
~h "o~"
<BEGINHMM>
<NUMSTATES> 5
<STATE> 2
<MEAN> 26
 1.755805e+00 3.142968e+00 -1.093903e+00 -8.549687e+00 -9.712276e+00 2.352744e+00 -1.706164e+00 -1.220102e+00 4.111357e+00 -6.661275e-01 2.276430e-01 -5.469534e+00 1.796425e+01 1.166683e+00 -4.915681e-01 -9.234896e-01 -2.322473e+00 -1.364321e+00 5.770555e-01 -2.326619e-01 -9.025518e-02 -1.437758e-01 -8.732914e-01 -3.134185e-01 -6.387486e-01 3.422630e-01
<VARIANCE> 26
 1.840984e+01 2.688351e+01 2.060379e+01 4.639658e+01 3.332170e+01 1.615602e+01 2.140065e+01 2.505708e+01 1.683788e+01 2.991100e+01 1.208654e+01 2.195441e+01 9.992905e+12 2.570947e+00 1.605593e+00 1.489344e+00 2.727690e+00 2.518032e+00 1.789507e+00 2.065477e+00 1.977961e+00 1.606737e+00 3.046083e+00 1.411975e+00 1.819704e+00 2.198397e+12
<GCONST> 1.518437e+02
<STATE> 3
<MEAN> 26
 4.691988e+00 7.301358e+00 1.402873e-01 -1.649630e+01 -1.197816e+01 3.633869e+00 -2.577838e+00 4.652994e+00 2.149835e+00 -1.206497e+01 -1.081823e+00 -4.358472e+00 1.829284e+01 6.834237e-02 2.896049e-01 2.354238e-01 7.413866e-02 1.406270e-02 -8.903653e-02 -1.520089e-01 2.439170e-01 -1.573309e-01 -4.101658e-01 5.722589e-03 1.864759e-01 -2.621911e-02
<VARIANCE> 26
 1.947711e+00 1.227850e+01 1.011962e+01 6.077653e+00 6.558755e+00 9.387671e+00 1.711644e+01 1.504367e+01 8.802120e+00 2.497130e+01 1.015285e+01 1.025382e+01 9.992905e+12 8.912846e-02 5.231134e-01 4.806430e-01 7.680562e-01 5.825775e-01 7.573100e-01 9.114450e-01 1.017617e+00 7.956988e-01 1.620489e+00 8.467109e-01 7.327358e-01 2.198397e+12
<GCONST> 1.279605e+02
<STATE> 4
<MEAN> 26
 2.551520e+00 9.310541e+00 4.183624e+00 -4.934971e+00 -6.694595e+00 1.365016e+00 -2.038562e+00 2.273238e+00 1.662677e-02 -6.645414e+00 8.974333e-01 -1.198583e+00 1.718422e+01 -1.238316e+00 1.035133e-01 7.272899e-01 2.903296e+00 1.957471e+00 2.686805e-02 9.007788e-01 -6.244012e-01 2.798208e-01 1.980103e+00 3.382990e-01 3.147680e-01 -3.384124e-01
<VARIANCE> 26
 9.942882e+00 5.610414e+00 1.021954e+01 6.429339e+01 3.626110e+01 1.160516e+01 1.874675e+01 1.698438e+01 1.162129e+01 3.829180e+01 1.035853e+01 1.267780e+01 9.992905e+12 7.010526e-01 6.657656e-01 8.641893e-01 2.438161e+00 2.315323e+00 1.826985e+00 1.421428e+00 1.915230e+00 1.337120e+00 2.771643e+00 1.187801e+00 1.336730e+00 2.198397e+12
<GCONST> 1.436262e+02
<TRANSP> 5
 0.000000e+00 1.000000e+00 0.000000e+00 0.000000e+00 0.000000e+00
 0.000000e+00 8.335027e-01 1.664973e-01 0.000000e+00 0.000000e+00
 0.000000e+00 0.000000e+00 9.460988e-01 5.390118e-02 0.000000e+00
 0.000000e+00 0.000000e+00 0.000000e+00 7.361812e-01 2.638188e-01
 0.000000e+00 0.000000e+00 0.000000e+00 0.000000e+00 0.000000e+00
<ENDHMM>
~h "s^"
<BEGINHMM>
<NUMSTATES> 5
<STATE> 2
<MEAN> 26
 -9.901577e+00 6.552674e+00 8.605392e+00 2.156262e+00 -4.616008e+00 -2.610049e+00 2.383338e+00 1.373217e-01 4.527408e+00 8.128794e-01 8.583487e-01 -9.242017e-01 1.652827e+01 -2.557253e+00 9.023880e-01 -1.508943e-01 3.421521e-01 1.941260e+00 9.160095e-01 1.002047e+00 1.137890e+00 -1.202380e-01 7.300433e-01 4.023691e-01 7.295323e-01 -3.671876e-01
<VARIANCE> 26
 3.595176e+01 1.239149e+01 3.422686e+01 2.006368e+01 3.317635e+01 2.657988e+01 1.962762e+01 1.896303e+01 2.088249e+01 1.899234e+01 1.856711e+01 1.807767e+01 9.992905e+12 2.695876e+00 2.303854e+00 2.587204e+00 1.610888e+00 2.267889e+00 1.610581e+00 1.647422e+00 1.454054e+00 2.770399e+00 1.823684e+00 1.959694e+00 1.610040e+00 2.198397e+12
<GCONST> 1.514596e+02
<STATE> 3
<MEAN> 26
 -2.064050e+01 8.225717e+00 4.750611e+00 2.243494e+00 1.719319e+00 2.081749e+00 5.227859e+00 4.368416e+00 5.483611e+00 3.054247e+00 2.828014e+00 1.341056e+00 1.528231e+01 -1.385893e-01 -3.251976e-02 -4.259067e-02 -9.831840e-02 -1.990566e-02 1.923923e-02 9.745909e-03 7.431372e-03 1.825886e-02 3.065317e-02 3.055787e-02 1.342906e-02 -4.298271e-03
<VARIANCE> 26
 1.064660e+01 2.103236e+00 9.977109e+00 5.400373e+00 8.913257e+00 9.254426e+00 9.570581e+00 1.107586e+01 1.225973e+01 1.264675e+01 1.118920e+01 9.702501e+00 9.992905e+12 8.639087e-01 1.981912e-01 5.714800e-01 6.232136e-01 8.365642e-01 9.782135e-01 1.010789e+00 1.225156e+00 1.327377e+00 1.274209e+00 1.224992e+00 1.024757e+00 2.198397e+12
<GCONST> 1.300081e+02
<STATE> 4
<MEAN> 26
 -1.556624e+01 7.139180e+00 7.138220e+00 1.163724e+00 -1.299038e+00 4.742310e-01 4.192513e+00 2.729447e+00 4.617746e+00 2.494152e+00 1.736709e+00 8.314960e-01 1.556696e+01 2.624509e+00 -5.433698e-01 5.846100e-01 -1.379584e-01 -1.537228e+00 -8.747868e-01 -1.102750e+00 -1.074521e+00 -2.416738e-01 -6.175095e-01 -6.617602e-01 -4.508054e-01 2.599506e-01
<VARIANCE> 26
 1.594922e+01 2.333871e+00 1.073603e+01 8.382518e+00 1.163256e+01 1.073907e+01 1.164706e+01 1.429471e+01 1.285371e+01 1.610837e+01 1.110754e+01 1.025333e+01 9.992905e+12 2.475417e+00 7.250333e-01 1.258615e+00 1.349985e+00 1.904750e+00 1.364970e+00 1.759537e+00 1.712268e+00 1.587314e+00 1.379211e+00 1.222519e+00 1.351060e+00 2.198397e+12
<GCONST> 1.387227e+02
<TRANSP> 5
 0.000000e+00 1.000000e+00 0.000000e+00 0.000000e+00 0.000000e+00
 0.000000e+00 7.739810e-01 2.260190e-01 0.000000e+00 0.000000e+00
 0.000000e+00 0.000000e+00 9.409643e-01 5.903569e-02 0.000000e+00
 0.000000e+00 0.000000e+00 0.000000e+00 6.399712e-01 3.600288e-01
 0.000000e+00 0.000000e+00 0.000000e+00 0.000000e+00 0.000000e+00
<ENDHMM>
~h "x^"
<BEGINHMM>
<NUMSTATES> 5
<STATE> 2
<MEAN> 26
 -2.212989e+00 1.898064e+00 2.768767e+00 -1.474056e+00 -8.902700e+00 -6.921650e-01 -4.159725e+00 -2.792750e+00 6.714125e+00 1.540127e+00 -6.410456e-01 -4.833549e+00 1.772794e+01 1.678678e+00 -1.758000e+00 -1.860241e+00 -1.891620e+00 -2.152099e+00 3.376498e-02 -1.077817e+00 -1.008782e+00 1.051028e+00 4.850357e-01 -3.855811e-01 -1.762341e+00 6.239259e-01
<VARIANCE> 26
 3.101106e+01 2.480459e+01 3.711217e+01 4.172438e+01 4.269907e+01 3.242516e+01 3.188225e+01 2.014271e+01 1.819829e+01 2.973259e+01 1.375242e+01 2.402247e+01 9.992905e+12 2.169321e+00 1.113382e+00 1.876283e+00 2.508483e+00 3.225241e+00 2.592422e+00 3.294731e+00 2.262992e+00 1.525675e+00 1.764189e+00 1.469374e+00 1.419682e+00 2.198397e+12
<GCONST> 1.542074e+02
<STATE> 3
<MEAN> 26
 2.219833e+00 -5.749030e+00 -5.646193e+00 -8.183731e+00 -1.566317e+01 1.281681e+00 -4.235966e+00 -5.545938e+00 1.274720e+01 1.920237e+00 -2.515572e+00 -1.174620e+01 1.995560e+01 -3.096538e-03 -5.674631e-02 3.495205e-02 -2.333913e-02 -2.892534e-03 2.587218e-02 4.113040e-02 4.491616e-02 5.325829e-03 -8.747368e-02 -3.517484e-02 2.335704e-02 -9.052730e-03
<VARIANCE> 26
 1.130307e+00 3.873542e+00 5.474950e+00 5.789584e+00 4.495386e+00 5.757206e+00 6.201857e+00 7.676143e+00 6.921766e+00 8.946994e+00 9.853856e+00 5.667594e+00 9.992905e+12 1.113925e-01 3.182609e-01 4.074523e-01 4.268129e-01 4.575138e-01 5.377780e-01 6.205283e-01 6.038366e-01 6.739992e-01 6.369609e-01 7.380070e-01 5.343812e-01 2.198397e+12
<GCONST> 1.170857e+02
<STATE> 4
<MEAN> 26
 3.335066e-01 2.040583e+00 1.737355e+00 -1.485850e+00 -8.702269e+00 -7.116434e-01 -3.198385e+00 -3.259809e+00 6.162309e+00 9.572935e-01 3.521785e-01 -5.634839e+00 1.786274e+01 -8.691846e-01 2.125406e+00 1.551452e+00 2.116249e+00 2.245938e+00 -2.111078e-01 1.016472e+00 6.431338e-01 -1.249365e+00 -1.686357e-01 4.417360e-01 1.410705e+00 -5.165689e-01
<VARIANCE> 26
 9.140489e+00 4.158289e+01 2.679859e+01 4.806977e+01 5.011773e+01 1.979931e+01 1.663349e+01 1.358507e+01 2.889769e+01 2.002048e+01 1.945431e+01 2.296399e+01 9.992905e+12 8.431300e-01 2.613893e+00 1.598589e+00 3.068550e+00 3.097547e+00 2.679589e+00 2.024609e+00 1.709552e+00 1.823911e+00 1.907634e+00 1.801676e+00 1.724851e+00 2.198397e+12
<GCONST> 1.521399e+02
<TRANSP> 5
 0.000000e+00 1.000000e+00 0.000000e+00 0.000000e+00 0.000000e+00
 0.000000e+00 7.548452e-01 2.451548e-01 0.000000e+00 0.000000e+00
 0.000000e+00 0.000000e+00 9.413162e-01 5.868383e-02 0.000000e+00
 0.000000e+00 0.000000e+00 0.000000e+00 6.911989e-01 3.088010e-01
 0.000000e+00 0.000000e+00 0.000000e+00 0.000000e+00 0.000000e+00
<ENDHMM>
~h "x~"
<BEGINHMM>
<NUMSTATES> 5
<STATE> 2
<MEAN> 26
 -1.409616e+00 1.318786e+00 1.772728e+00 -2.483295e+00 -7.744728e+00 8.811726e-01 -2.927494e+00 -2.105390e+00 6.429184e+00 1.408912e+00 -1.195129e+00 -5.501049e+00 1.748466e+01 1.470367e+00 -2.359632e+00 -1.737790e+00 -2.128868e+00 -2.289479e+00 -1.173733e-01 -9.150391e-01 -4.411714e-01 1.116570e+00 6.011757e-02 -8.572673e-01 -1.852349e+00 6.799096e-01
<VARIANCE> 26
 1.867970e+01 3.554884e+01 2.404577e+01 4.250317e+01 4.597285e+01 1.593117e+01 1.853978e+01 1.514426e+01 2.080243e+01 1.886647e+01 1.755163e+01 2.312498e+01 9.992905e+12 1.469492e+00 1.759860e+00 1.403083e+00 2.353383e+00 2.240812e+00 2.678941e+00 2.232670e+00 2.108062e+00 1.684981e+00 1.711482e+00 1.479239e+00 1.134953e+00 2.198397e+12
<GCONST> 1.508399e+02
<STATE> 3
<MEAN> 26
 1.963061e+00 -7.029726e+00 -3.915204e+00 -7.169537e+00 -1.163132e+01 3.367982e+00 -4.038111e+00 -1.752667e+00 1.057195e+01 -2.616779e+00 -6.949915e+00 -1.055178e+01 1.925063e+01 4.515897e-02 1.455462e-01 6.858767e-02 1.469109e-01 2.370836e-01 5.393863e-03 -1.400667e-02 -3.540779e-02 -8.202724e-02 -2.874413e-01 -3.527602e-02 1.353674e-01 -4.178682e-02
<VARIANCE> 26
 3.576480e+00 9.804976e+00 6.804439e+00 8.159609e+00 1.286544e+01 1.525595e+01 1.090324e+01 7.662893e+00 8.994856e+00 2.155483e+01 2.200308e+01 1.044350e+01 9.992905e+12 1.722802e-01 6.598060e-01 4.685863e-01 6.192362e-01 6.311380e-01 9.985108e-01 8.299888e-01 6.273676e-01 5.717140e-01 7.975100e-01 1.081882e+00 5.905506e-01 2.198397e+12
<GCONST> 1.283605e+02
<STATE> 4
<MEAN> 26
 -6.042331e-01 5.590353e+00 4.888188e+00 3.811759e+00 -3.403733e+00 -2.162995e+00 -1.462857e+00 -2.136347e+00 2.946600e+00 -3.352406e+00 2.230516e-01 -3.225014e+00 1.689781e+01 -7.233517e-01 1.262476e+00 9.830684e-01 1.307712e+00 1.097486e+00 -5.321877e-02 7.221426e-01 4.502811e-01 -6.536047e-01 6.080844e-01 6.585769e-01 7.176619e-01 -3.105976e-01
<VARIANCE> 26
 9.204967e+00 2.999043e+01 2.428561e+01 2.961025e+01 3.198942e+01 2.833020e+01 3.173924e+01 1.471585e+01 2.669459e+01 1.622974e+01 1.845302e+01 1.670931e+01 9.992905e+12 5.743532e-01 1.870985e+00 1.402218e+00 1.736961e+00 1.670735e+00 3.739383e+00 1.792086e+00 1.521146e+00 2.017685e+00 1.479740e+00 1.517459e+00 1.131054e+00 2.198397e+12
<GCONST> 1.485246e+02
<TRANSP> 5
 0.000000e+00 1.000000e+00 0.000000e+00 0.000000e+00 0.000000e+00
 0.000000e+00 7.739156e-01 2.260844e-01 0.000000e+00 0.000000e+00
 0.000000e+00 0.000000e+00 9.531088e-01 4.689113e-02 0.000000e+00
 0.000000e+00 0.000000e+00 0.000000e+00 8.578857e-01 1.421143e-01
 0.000000e+00 0.000000e+00 0.000000e+00 0.000000e+00 0.000000e+00
<ENDHMM>
~h "z^"
<BEGINHMM>
<NUMSTATES> 5
<STATE> 2
<MEAN> 26
 -5.440116e+00 5.500445e+00 9.055540e+00 3.612638e+00 -6.823141e+00 -3.788797e+00 1.343958e+00 -9.084507e-01 3.753593e+00 -1.171427e+00 4.971981e-01 -1.097283e+00 1.670372e+01 -9.890473e-01 4.463812e-01 1.366996e+00 1.072198e-01 -4.706547e-01 -1.073700e+00 4.100542e-01 -5.286238e-01 -5.824230e-01 -4.659417e-02 3.559680e-01 3.929899e-01 4.833333e-02
<VARIANCE> 26
 2.325924e+01 1.936796e+01 3.061996e+01 1.889108e+01 5.098613e+01 3.701434e+01 2.461450e+01 1.763648e+01 2.032619e+01 1.737176e+01 2.054359e+01 1.874045e+01 9.992905e+12 2.187103e+00 1.646608e+00 1.807488e+00 1.354997e+00 3.499196e+00 2.280363e+00 2.539338e+00 1.716209e+00 2.099546e+00 1.554021e+00 1.791886e+00 1.887806e+00 2.198397e+12
<GCONST> 1.521704e+02
<STATE> 3
<MEAN> 26
 -1.307388e+01 9.117301e+00 1.813274e+01 4.320022e+00 -7.456020e+00 -9.485229e+00 4.727843e+00 -4.531584e+00 -1.502885e+00 -6.450847e-01 3.943421e+00 7.267838e-01 1.688853e+01 -8.725023e-02 1.833507e-02 5.213692e-03 -3.279875e-03 1.304605e-01 1.316665e-02 3.433568e-03 4.240745e-02 -3.263773e-02 2.798458e-03 2.851547e-02 -1.539140e-02 -1.089089e-02
<VARIANCE> 26
 2.230836e+00 2.811928e+00 1.018291e+01 8.113907e+00 1.342900e+01 1.019467e+01 1.011175e+01 1.353680e+01 1.193831e+01 1.162453e+01 1.160666e+01 1.036224e+01 9.992905e+12 3.837740e-01 3.795524e-01 6.816909e-01 7.818058e-01 1.335033e+00 1.004268e+00 1.224748e+00 1.187264e+00 1.393819e+00 1.208445e+00 1.142786e+00 1.028128e+00 2.198397e+12
<GCONST> 1.307424e+02
<STATE> 4
<MEAN> 26
 -7.193593e+00 3.715146e+00 1.090887e+01 7.027377e-01 -1.086735e+01 -6.327344e+00 6.413383e-01 -2.132985e+00 5.304154e+00 -1.664248e+00 1.445979e-01 -9.413844e-01 1.737130e+01 1.693269e+00 -1.477348e+00 -1.869503e+00 -7.801453e-01 -8.878499e-01 7.551108e-01 -1.020865e+00 2.726315e-01 1.295642e+00 -1.452429e-01 -9.856943e-01 -8.292824e-01 2.331151e-01
<VARIANCE> 26
 2.991315e+01 2.344551e+01 5.793520e+01 2.238192e+01 2.717465e+01 2.679278e+01 2.877512e+01 1.176418e+01 2.165091e+01 1.903089e+01 2.059219e+01 2.670087e+01 9.992905e+12 1.478403e+00 1.635727e+00 2.553899e+00 1.389485e+00 1.987372e+00 2.239606e+00 2.087913e+00 1.243683e+00 1.756259e+00 1.585200e+00 2.195433e+00 2.036106e+00 2.198397e+12
<GCONST> 1.517210e+02
<TRANSP> 5
 0.000000e+00 1.000000e+00 0.000000e+00 0.000000e+00 0.000000e+00
 0.000000e+00 8.682810e-01 1.317190e-01 0.000000e+00 0.000000e+00
 0.000000e+00 0.000000e+00 9.097239e-01 9.027615e-02 0.000000e+00
 0.000000e+00 0.000000e+00 0.000000e+00 6.919805e-01 3.080195e-01
 0.000000e+00 0.000000e+00 0.000000e+00 0.000000e+00 0.000000e+00
<ENDHMM>
