~o
<STREAMINFO> 1 26
<VECSIZE> 26<NULLD><MFCC_E_D><DIAGC>
~h "_"
<BEGINHMM>
<NUMSTATES> 5
<STATE> 2
<MEAN> 26
 -2.828248e+00 5.157609e+00 5.394886e+00 6.602030e-01 -6.499755e+00 -1.190698e+00 -2.692465e-01 -2.135013e+00 5.812485e-01 -1.755390e+00 -1.706230e+00 -3.338950e+00 1.698605e+01 -7.856717e-01 1.189175e+00 5.758044e-01 1.964956e+00 2.912714e+00 1.754787e+00 7.845123e-01 1.217895e+00 -1.761665e-02 1.223485e+00 1.481832e+00 1.038015e+00 -4.885112e-01
<VARIANCE> 26
 2.578957e+01 2.206433e+01 3.326970e+01 5.736214e+01 4.699147e+01 3.002761e+01 1.554857e+01 1.783909e+01 2.370597e+01 2.166172e+01 2.717017e+01 3.496517e+01 9.992905e+12 1.102338e+00 1.147645e+00 2.449576e+00 2.798484e+00 2.202103e+00 3.436054e+00 1.739880e+00 1.357314e+00 2.364560e+00 2.437042e+00 2.133890e+00 2.694584e+00 2.198397e+12
<GCONST> 1.545534e+02
<STATE> 3
<MEAN> 26
 -6.675018e+00 7.597290e+00 5.536638e+00 5.487624e+00 9.658852e-01 3.292041e+00 2.562997e+00 1.134866e+00 3.194748e+00 1.009710e+00 1.923046e+00 -5.116437e-01 1.574002e+01 -5.912027e-01 -3.535224e-03 -5.225647e-01 5.161775e-01 1.120985e+00 1.013031e+00 7.797691e-01 5.894976e-01 3.992224e-01 7.125911e-01 3.699021e-01 -7.680255e-03 -2.629414e-01
<VARIANCE> 26
 1.308229e+01 3.685031e+00 1.407201e+01 1.961471e+01 3.231231e+01 3.267762e+01 1.456487e+01 2.254311e+01 1.192776e+01 1.425685e+01 1.463635e+01 1.452794e+01 9.992905e+12 1.668498e+00 8.873315e-01 9.250059e-01 2.138545e+00 2.695157e+00 1.954513e+00 2.126367e+00 2.168665e+00 1.846549e+00 1.340740e+00 2.024725e+00 1.462108e+00 2.198397e+12
<GCONST> 1.451409e+02
<STATE> 4
<MEAN> 26
 -8.126055e+00 7.623963e+00 5.915235e+00 6.216568e+00 3.030803e+00 5.725438e+00 3.968592e+00 3.434635e+00 2.775835e+00 2.430467e+00 2.249922e+00 6.446925e-01 1.459966e+01 6.823136e-01 1.154552e-01 -1.019789e-01 -4.752605e-01 -6.550848e-01 -3.774849e-01 -2.414926e-01 -2.671880e-01 -4.749956e-01 -6.542643e-01 -1.647051e-01 2.198133e-01 6.772902e-02
<VARIANCE> 26
 1.511314e+01 4.224144e+00 5.939317e+00 1.066654e+01 2.202254e+01 1.897294e+01 1.717665e+01 1.151024e+01 1.101122e+01 1.759502e+01 9.550387e+00 1.039612e+01 9.992905e+12 2.099461e+00 6.519253e-01 7.391238e-01 2.497313e+00 2.059746e+00 1.517741e+00 1.585087e+00 1.743057e+00 1.044959e+00 2.743062e+00 1.182500e+00 1.310870e+00 2.198397e+12
<GCONST> 1.402022e+02
<TRANSP> 5
 0.000000e+00 1.000000e+00 0.000000e+00 0.000000e+00 0.000000e+00
 0.000000e+00 5.333334e-01 4.666667e-01 0.000000e+00 0.000000e+00
 0.000000e+00 0.000000e+00 6.216216e-01 3.783784e-01 0.000000e+00
 0.000000e+00 0.000000e+00 0.000000e+00 7.142857e-01 2.857143e-01
 0.000000e+00 0.000000e+00 0.000000e+00 0.000000e+00 0.000000e+00
<ENDHMM>
