~o
<STREAMINFO> 1 26
<VECSIZE> 26<NULLD><MFCC_E_D><DIAGC>
~h "__"
<BEGINHMM>
<NUMSTATES> 5
<STATE> 2
<MEAN> 26
 -6.202885e+00 7.537663e+00 6.121203e+00 5.136606e+00 6.194386e-01 1.603914e+00 9.225907e-01 2.589480e-01 1.214748e+00 1.326425e-01 1.272058e+00 -6.624668e-03 -3.204104e+06 -3.704600e-01 6.700398e-01 6.009880e-01 1.338036e+00 1.835925e+00 1.812079e+00 1.296830e+00 1.349246e+00 4.913344e-01 6.129689e-01 2.966305e-01 6.626548e-01 2.563242e+06
<VARIANCE> 26
 1.441826e+01 1.150495e+01 1.255943e+01 2.128660e+01 2.641901e+01 2.320256e+01 1.989347e+01 2.074528e+01 2.033037e+01 2.007600e+01 1.520636e+01 1.476477e+01 3.203005e+16 1.268713e+00 1.356930e+00 1.556424e+00 2.230739e+00 2.647161e+00 2.483719e+00 2.204886e+00 2.450996e+00 2.655009e+00 2.276915e+00 1.803676e+00 1.779092e+00 7.042465e+15
<GCONST> 1.651710e+02
<STATE> 3
<MEAN> 26
 -8.268303e+00 8.456368e+00 5.883126e+00 7.376049e+00 5.291903e+00 8.448349e+00 5.527996e+00 5.565891e+00 4.412549e+00 2.865077e+00 2.613675e+00 2.037150e+00 1.401099e+01 -1.457094e-01 -5.788524e-02 -1.507747e-01 -2.399405e-03 1.705820e-01 3.735817e-01 2.318997e-01 3.106138e-01 2.587408e-01 2.150245e-01 1.120671e-01 1.377248e-01 -1.675132e-02
<VARIANCE> 26
 2.415841e+00 3.456239e+00 4.194689e+00 4.664031e+00 6.477389e+00 8.607351e+00 8.925845e+00 1.034824e+01 1.075918e+01 1.075553e+01 9.948375e+00 9.033878e+00 9.992905e+12 3.092225e-01 4.237950e-01 4.930317e-01 6.248517e-01 8.770977e-01 1.243914e+00 1.237395e+00 1.407757e+00 1.392175e+00 1.360224e+00 1.242139e+00 1.114116e+00 2.198397e+12
<GCONST> 1.274246e+02
<STATE> 4
<MEAN> 26
 -7.273278e+00 9.081667e+00 6.131644e+00 6.080221e+00 3.683067e+00 6.508893e+00 4.529256e+00 4.799512e+00 4.172575e+00 2.592663e+00 2.813420e+00 1.949636e+00 1.406769e+01 3.275639e-01 6.947497e-02 1.555867e-01 -2.551225e-01 -5.224583e-01 -6.132168e-01 -2.963806e-01 -4.013771e-01 -1.952686e-01 -2.297185e-01 -1.225278e-01 -2.331118e-01 1.464819e-01
<VARIANCE> 26
 9.421631e+00 4.467637e+00 4.287075e+00 6.741451e+00 8.982417e+00 1.122586e+01 1.040954e+01 1.185861e+01 1.052877e+01 1.063239e+01 9.704932e+00 9.481237e+00 9.992905e+12 6.827879e-01 5.168042e-01 6.523906e-01 1.075036e+00 1.412574e+00 1.356326e+00 1.349394e+00 1.399443e+00 1.313593e+00 1.365825e+00 1.164883e+00 1.235758e+00 2.198397e+12
<GCONST> 1.327478e+02
<TRANSP> 5
 0.000000e+00 1.000000e+00 0.000000e+00 0.000000e+00 0.000000e+00
 0.000000e+00 4.674784e-01 5.325216e-01 0.000000e+00 0.000000e+00
 0.000000e+00 0.000000e+00 9.015344e-01 9.846555e-02 0.000000e+00
 0.000000e+00 0.000000e+00 0.000000e+00 6.855251e-01 3.144749e-01
 0.000000e+00 0.000000e+00 0.000000e+00 0.000000e+00 0.000000e+00
<ENDHMM>
