~o
<STREAMINFO> 1 26
<VECSIZE> 26<NULLD><MFCC_E_D><DIAGC>
~h "a"
<BEGINHMM>
<NUMSTATES> 5
<STATE> 2
<MEAN> 26
 -4.394177e-01 -3.336039e-01 1.136564e+00 -3.450719e+00 -1.060433e+01 -1.051836e+00 -3.243250e+00 -1.805986e+00 6.974802e+00 -2.479988e-01 -2.024557e+00 -5.940512e+00 1.812240e+01 1.558134e+00 -2.264400e+00 -1.874645e+00 -2.028663e+00 -1.930321e+00 3.659955e-01 -4.882020e-01 -4.616838e-01 1.089397e+00 1.217391e-01 -1.065406e+00 -1.733682e+00 5.997366e-01
<VARIANCE> 26
 2.817306e+01 3.603999e+01 3.286166e+01 3.823963e+01 4.541718e+01 2.635453e+01 2.670340e+01 1.732101e+01 2.532760e+01 2.647316e+01 2.262785e+01 2.724059e+01 9.992905e+12 2.846814e+00 1.556860e+00 1.657905e+00 2.721525e+00 3.565226e+00 2.350461e+00 3.816578e+00 2.356736e+00 1.774321e+00 1.958931e+00 1.780421e+00 1.819144e+00 2.198397e+12
<GCONST> 1.560909e+02
<STATE> 3
<MEAN> 26
 1.998619e+00 -6.577120e+00 -9.022692e+00 -9.816760e+00 -1.019210e+01 4.562089e+00 6.167593e+00 -5.914666e+00 8.496812e+00 -1.434888e+00 -9.761806e+00 -1.123676e+01 1.950685e+01 -7.245080e-03 -7.315102e-03 -8.082858e-02 -8.264843e-02 5.317909e-02 1.062775e-01 2.018422e-01 -4.904274e-02 -1.172406e-01 -7.615631e-02 -6.897726e-02 -3.173057e-02 -4.547929e-03
<VARIANCE> 26
 1.203645e+00 4.909009e+00 9.224532e+00 1.016134e+01 1.108091e+01 1.173261e+01 3.286245e+01 1.561013e+01 1.194570e+01 9.233503e+00 1.488757e+01 9.966432e+00 9.992905e+12 1.175356e-01 3.210256e-01 5.669153e-01 4.779358e-01 8.797436e-01 7.304801e-01 1.598652e+00 8.711657e-01 6.845676e-01 7.433812e-01 1.262399e+00 7.526188e-01 2.198397e+12
<GCONST> 1.278434e+02
<STATE> 4
<MEAN> 26
 1.878568e+00 -3.072141e+00 -2.156370e+00 -6.801379e+00 -1.286614e+01 1.050112e+00 -1.745526e+00 -1.897818e+00 7.604038e+00 4.386768e-01 -2.865038e+00 -9.320082e+00 1.880511e+01 -6.527105e-01 1.996006e+00 1.616912e+00 1.525315e+00 1.153179e+00 -5.759154e-01 -3.949977e-01 3.709152e-01 -6.107491e-01 4.956554e-01 1.180284e+00 1.187255e+00 -3.854788e-01
<VARIANCE> 26
 8.243710e+00 3.163853e+01 2.331207e+01 2.936175e+01 2.689372e+01 1.551539e+01 2.382248e+01 1.426271e+01 2.416911e+01 2.538900e+01 2.768260e+01 2.281557e+01 9.992905e+12 1.454492e+00 2.396689e+00 1.587997e+00 2.361033e+00 3.648926e+00 1.537067e+00 2.952411e+00 1.644337e+00 1.563241e+00 2.055705e+00 1.868231e+00 2.328271e+00 2.198397e+12
<GCONST> 1.514707e+02
<TRANSP> 5
 0.000000e+00 1.000000e+00 0.000000e+00 0.000000e+00 0.000000e+00
 0.000000e+00 7.675926e-01 2.324074e-01 0.000000e+00 0.000000e+00
 0.000000e+00 0.000000e+00 9.076867e-01 9.231336e-02 0.000000e+00
 0.000000e+00 0.000000e+00 0.000000e+00 6.964933e-01 3.035066e-01
 0.000000e+00 0.000000e+00 0.000000e+00 0.000000e+00 0.000000e+00
<ENDHMM>
