~o
<STREAMINFO> 1 26
<VECSIZE> 26<NULLD><MFCC_E_D><DIAGC>
~h "a~"
<BEGINHMM>
<NUMSTATES> 5
<STATE> 2
<MEAN> 26
 1.699649e+00 -2.837046e-02 -2.486912e+00 -9.056687e+00 -1.113818e+01 2.437903e+00 -1.458924e+00 -2.417085e+00 5.724447e+00 3.822883e-01 -9.766099e-01 -7.651927e+00 1.851663e+01 9.547451e-01 -6.471826e-01 -1.095190e+00 -2.384308e+00 -1.025507e+00 9.105445e-01 2.550177e-01 -2.425062e-01 -3.423008e-02 -6.141053e-01 -4.279723e-01 -5.331456e-01 3.319137e-01
<VARIANCE> 26
 1.468895e+01 3.013443e+01 2.287318e+01 4.268743e+01 3.080358e+01 1.772478e+01 2.809210e+01 2.179179e+01 1.552280e+01 2.614693e+01 1.509151e+01 2.732298e+01 9.992905e+12 2.113380e+00 1.944735e+00 1.657458e+00 2.279468e+00 2.979123e+00 1.350261e+00 2.601709e+00 1.597832e+00 1.455613e+00 2.590595e+00 1.451614e+00 2.440839e+00 2.198397e+12
<GCONST> 1.520123e+02
<STATE> 3
<MEAN> 26
 4.008317e+00 5.821288e+00 -6.171211e-01 -1.697759e+01 -1.140770e+01 4.392623e+00 -1.254349e+00 3.040651e+00 2.492037e+00 -1.109919e+01 -1.773704e+00 -4.497117e+00 1.832627e+01 9.113970e-02 5.322658e-01 3.517052e-01 1.006459e-01 3.295236e-02 -1.790262e-01 -2.964942e-01 4.122280e-01 -1.914510e-01 -5.664715e-01 9.901018e-02 2.514959e-01 -5.673107e-02
<VARIANCE> 26
 2.358308e+00 1.705925e+01 1.038371e+01 6.509815e+00 7.366971e+00 1.247638e+01 2.548640e+01 2.041236e+01 9.538388e+00 2.175287e+01 1.069945e+01 8.966019e+00 9.992905e+12 1.040661e-01 5.789447e-01 4.793054e-01 7.069056e-01 6.289195e-01 8.293017e-01 9.899282e-01 1.124733e+00 8.190256e-01 1.481146e+00 7.713537e-01 7.168015e-01 2.198397e+12
<GCONST> 1.298840e+02
<STATE> 4
<MEAN> 26
 2.794047e+00 8.947490e+00 3.312614e+00 -6.435945e+00 -7.522502e+00 1.719567e+00 -1.924050e+00 2.093814e+00 7.703922e-01 -7.214132e+00 5.867913e-01 -1.692619e+00 1.729095e+01 -1.114089e+00 -2.402006e-02 6.294763e-01 2.846122e+00 1.777393e+00 -4.574161e-02 8.488538e-01 -5.959199e-01 3.229600e-03 1.921776e+00 3.962335e-01 2.896062e-01 -2.986205e-01
<VARIANCE> 26
 8.989784e+00 6.795962e+00 1.154340e+01 6.232992e+01 3.202114e+01 1.146141e+01 1.522357e+01 1.385428e+01 9.389313e+00 3.558145e+01 1.084586e+01 1.347697e+01 9.992905e+12 8.973632e-01 5.853025e-01 8.492368e-01 2.348933e+00 2.246094e+00 1.508566e+00 1.230203e+00 1.715941e+00 1.322840e+00 1.701642e+00 1.044676e+00 1.362419e+00 2.198397e+12
<GCONST> 1.420589e+02
<TRANSP> 5
 0.000000e+00 1.000000e+00 0.000000e+00 0.000000e+00 0.000000e+00
 0.000000e+00 8.337802e-01 1.662198e-01 0.000000e+00 0.000000e+00
 0.000000e+00 0.000000e+00 9.306487e-01 6.935124e-02 0.000000e+00
 0.000000e+00 0.000000e+00 0.000000e+00 7.327586e-01 2.672414e-01
 0.000000e+00 0.000000e+00 0.000000e+00 0.000000e+00 0.000000e+00
<ENDHMM>
