~o
<STREAMINFO> 1 26
<VECSIZE> 26<NULLD><MFCC_E_D><DIAGC>
~h "b"
<BEGINHMM>
<NUMSTATES> 5
<STATE> 2
<MEAN> 26
 -1.649835e-01 7.427460e+00 4.658615e+00 2.291949e+00 -4.974837e+00 -3.214974e+00 6.742752e-01 -1.588365e+00 -1.467069e-02 -2.285087e+00 2.258921e+00 -4.291982e+00 1.668015e+01 -3.383958e-01 1.190724e+00 8.092843e-01 1.434751e+00 1.398369e+00 -2.414259e-01 6.108138e-01 -5.904337e-02 -9.018977e-01 6.347436e-02 5.828857e-01 6.499625e-01 -2.516138e-01
<VARIANCE> 26
 9.590422e+00 1.611138e+01 2.446461e+01 4.188526e+01 2.569751e+01 3.237366e+01 2.555375e+01 1.721170e+01 2.436612e+01 2.072734e+01 1.589950e+01 2.082098e+01 9.992905e+12 6.999573e-01 1.476800e+00 1.518271e+00 2.262544e+00 1.825719e+00 1.740185e+00 1.786916e+00 1.207094e+00 1.927709e+00 1.663979e+00 1.534330e+00 1.707744e+00 2.198397e+12
<GCONST> 1.482666e+02
<STATE> 3
<MEAN> 26
 -3.396145e+00 1.107227e+01 7.901475e+00 8.250511e+00 3.112455e+00 -9.150390e-02 4.214209e+00 8.074756e-01 1.281525e-02 -1.670624e+00 2.903663e+00 -3.198127e-01 1.541488e+01 4.845419e-02 -6.383911e-02 -2.414134e-02 5.071421e-02 -1.917990e-03 -4.073066e-02 -5.791484e-02 -5.816384e-02 5.231536e-03 -1.390375e-01 -1.276997e-01 3.936677e-03 2.869323e-02
<VARIANCE> 26
 3.397086e+00 4.207091e+00 4.327830e+00 4.946173e+00 9.913029e+00 2.265318e+01 1.229451e+01 1.692637e+01 1.458971e+01 1.563557e+01 1.037930e+01 1.076440e+01 9.992905e+12 2.898242e-01 3.823245e-01 4.079461e-01 6.194396e-01 1.215034e+00 1.743925e+00 1.330355e+00 1.684500e+00 1.451769e+00 1.553637e+00 1.139999e+00 1.082578e+00 2.198397e+12
<GCONST> 1.317640e+02
<STATE> 4
<MEAN> 26
 -1.233201e+00 6.664285e+00 4.938548e+00 3.590691e+00 -4.422430e+00 -2.922987e+00 2.108030e-01 -2.084764e+00 1.688620e+00 -1.730027e+00 1.869430e+00 -2.611650e+00 1.656864e+01 5.797718e-01 -1.412521e+00 -1.089146e+00 -1.870664e+00 -2.235105e+00 -3.756646e-01 -7.723162e-01 -6.141476e-01 7.445775e-01 3.073347e-01 -1.697704e-01 -8.933530e-01 3.941482e-01
<VARIANCE> 26
 6.484720e+00 1.532593e+01 2.674470e+01 3.369184e+01 2.921228e+01 2.304861e+01 1.619428e+01 1.307796e+01 1.689316e+01 1.918036e+01 1.182287e+01 1.366400e+01 9.992905e+12 8.819592e-01 1.247532e+00 2.323923e+00 3.063657e+00 2.216185e+00 2.623165e+00 1.935515e+00 1.612390e+00 1.656375e+00 2.235702e+00 1.456666e+00 1.950983e+00 2.198397e+12
<GCONST> 1.475828e+02
<TRANSP> 5
 0.000000e+00 1.000000e+00 0.000000e+00 0.000000e+00 0.000000e+00
 0.000000e+00 7.581864e-01 2.418136e-01 0.000000e+00 0.000000e+00
 0.000000e+00 0.000000e+00 9.058824e-01 9.411765e-02 0.000000e+00
 0.000000e+00 0.000000e+00 0.000000e+00 6.842105e-01 3.157895e-01
 0.000000e+00 0.000000e+00 0.000000e+00 0.000000e+00 0.000000e+00
<ENDHMM>
