~o
<STREAMINFO> 1 26
<VECSIZE> 26<NULLD><MFCC_E_D><DIAGC>
~h "d"
<BEGINHMM>
<NUMSTATES> 5
<STATE> 2
<MEAN> 26
 -2.073421e+00 6.310903e+00 6.838805e+00 1.586261e+00 -7.444727e+00 -4.119309e+00 -1.959723e+00 -1.751721e+00 1.521387e+00 -4.306378e+00 6.906660e-01 -2.418285e+00 1.695143e+01 -4.241932e-01 6.809174e-01 8.721912e-01 1.551345e+00 8.769453e-01 -6.815711e-01 6.705030e-01 -1.753010e-01 -4.709828e-01 1.285897e-01 3.828014e-01 4.778838e-01 -1.618470e-01
<VARIANCE> 26
 2.685632e+01 1.073901e+01 3.597247e+01 5.965232e+01 3.880867e+01 5.071999e+01 3.348489e+01 2.275104e+01 2.089569e+01 4.343342e+01 1.525792e+01 2.297643e+01 9.992905e+12 9.006062e-01 1.255792e+00 1.448161e+00 2.074764e+00 1.647641e+00 1.393351e+00 1.645152e+00 1.469859e+00 1.727208e+00 2.353587e+00 1.263616e+00 1.484537e+00 2.198397e+12
<GCONST> 1.513319e+02
<STATE> 3
<MEAN> 26
 -3.392763e+00 1.078993e+01 9.059630e+00 8.250165e+00 6.800895e-01 -2.018481e+00 2.937020e+00 -8.848720e-01 -6.055250e-01 -2.730797e+00 2.702447e+00 -4.236073e-01 1.576031e+01 8.456625e-02 -2.291755e-02 9.249715e-02 3.164319e-02 -1.908312e-01 -1.884035e-01 -1.262118e-01 -1.593730e-01 -4.903103e-02 -1.174021e-01 -1.227360e-01 -7.389913e-02 4.698686e-02
<VARIANCE> 26
 5.800042e+00 4.406032e+00 5.299058e+00 4.841668e+00 2.002274e+01 3.224607e+01 1.271595e+01 1.795434e+01 1.546763e+01 1.729219e+01 1.074823e+01 1.065708e+01 9.992905e+12 5.310185e-01 5.092770e-01 5.414430e-01 6.325915e-01 1.718702e+00 2.324555e+00 1.292994e+00 1.593376e+00 1.630119e+00 1.698610e+00 1.079496e+00 1.076082e+00 2.198397e+12
<GCONST> 1.357500e+02
<STATE> 4
<MEAN> 26
 -4.747462e+00 5.736262e+00 8.544002e+00 4.475578e+00 -6.736817e+00 -4.644253e+00 -3.576216e-01 -2.187265e+00 3.100824e+00 -9.865200e-01 7.674944e-01 -1.816793e+00 1.659636e+01 -1.692163e-01 -1.006407e+00 -5.336374e-01 -1.310648e+00 -1.298854e+00 -2.333906e-02 -4.356813e-01 -2.941681e-01 8.498387e-01 4.419608e-01 -2.359469e-01 -4.939241e-01 2.440485e-01
<VARIANCE> 26
 1.299166e+01 8.703756e+00 2.713934e+01 2.554953e+01 2.076863e+01 2.874902e+01 1.320898e+01 1.535345e+01 1.826389e+01 2.390391e+01 1.262843e+01 1.560021e+01 9.992905e+12 2.063073e+00 1.013463e+00 2.434888e+00 2.355059e+00 2.314454e+00 2.462569e+00 2.081056e+00 1.799741e+00 1.820504e+00 1.621429e+00 1.489288e+00 1.800753e+00 2.198397e+12
<GCONST> 1.480865e+02
<TRANSP> 5
 0.000000e+00 1.000000e+00 0.000000e+00 0.000000e+00 0.000000e+00
 0.000000e+00 7.020785e-01 2.979215e-01 0.000000e+00 0.000000e+00
 0.000000e+00 0.000000e+00 8.981043e-01 1.018957e-01 0.000000e+00
 0.000000e+00 0.000000e+00 0.000000e+00 6.868932e-01 3.131068e-01
 0.000000e+00 0.000000e+00 0.000000e+00 0.000000e+00 0.000000e+00
<ENDHMM>
