~o
<STREAMINFO> 1 26
<VECSIZE> 26<NULLD><MFCC_E_D><DIAGC>
~h "e"
<BEGINHMM>
<NUMSTATES> 5
<STATE> 2
<MEAN> 26
 -6.464684e+00 4.817681e+00 1.212946e+01 4.204732e+00 -1.000460e+01 -6.092427e+00 -1.652369e-01 -2.620641e+00 3.707578e+00 -3.125645e+00 2.247715e-01 -3.969037e-01 1.697103e+01 6.569748e-01 -7.737504e-01 9.777498e-01 -1.637739e-01 -2.225664e+00 -1.636921e+00 -6.716269e-01 -7.577502e-01 9.321264e-02 -9.226143e-01 -1.002210e-01 1.359124e-02 3.362629e-01
<VARIANCE> 26
 2.129129e+01 2.277447e+01 2.552825e+01 1.812260e+01 4.688209e+01 3.746811e+01 2.783665e+01 1.726644e+01 2.030499e+01 1.955074e+01 1.748710e+01 1.533886e+01 9.992905e+12 1.601020e+00 1.346614e+00 1.385298e+00 1.189011e+00 2.291613e+00 2.071844e+00 1.702685e+00 1.590547e+00 1.596137e+00 1.518437e+00 1.477839e+00 1.394154e+00 2.198397e+12
<GCONST> 1.491087e+02
<STATE> 3
<MEAN> 26
 -5.020768e+00 1.823687e+00 1.501245e+01 2.790638e+00 -1.898627e+01 -1.060662e+01 -7.383588e-01 -3.851594e+00 5.124047e+00 -7.341180e+00 2.634287e+00 2.868058e+00 1.790809e+01 4.364231e-02 2.949512e-03 -1.501627e-02 -4.023590e-02 -1.117623e-01 -3.064757e-02 -1.988468e-03 4.852721e-02 5.618289e-02 -6.782363e-02 7.695884e-02 6.352024e-02 9.332567e-03
<VARIANCE> 26
 1.352279e+01 7.707705e+00 9.564824e+00 5.091395e+00 1.194833e+01 7.663585e+00 2.024468e+01 9.084876e+00 1.336516e+01 9.154210e+00 9.983891e+00 8.209995e+00 9.992905e+12 3.619291e-01 3.851719e-01 5.055871e-01 5.439769e-01 7.723760e-01 7.560417e-01 9.845125e-01 7.385178e-01 7.719034e-01 9.294826e-01 7.701552e-01 7.248941e-01 2.198397e+12
<GCONST> 1.285806e+02
<STATE> 4
<MEAN> 26
 -4.844848e+00 5.521330e+00 1.350486e+01 5.268610e+00 -1.244514e+01 -9.829072e+00 -9.942982e-01 -3.487857e+00 3.228019e+00 -4.707296e+00 2.086518e+00 1.856268e-01 1.736958e+01 4.109009e-02 7.067586e-01 -6.835662e-01 5.126773e-01 1.816878e+00 8.755461e-01 3.362968e-01 3.451627e-01 -4.229641e-01 6.983910e-01 -1.425230e-01 -3.331029e-01 -1.919849e-01
<VARIANCE> 26
 1.142301e+01 8.369001e+00 1.398254e+01 9.538606e+00 2.709751e+01 1.596605e+01 2.331028e+01 1.146320e+01 1.442265e+01 1.425991e+01 1.610526e+01 1.184714e+01 9.992905e+12 1.121874e+00 5.475553e-01 1.130031e+00 8.650088e-01 1.994107e+00 2.122453e+00 1.935755e+00 1.308412e+00 1.395624e+00 1.585056e+00 1.153631e+00 1.160595e+00 2.198397e+12
<GCONST> 1.407730e+02
<TRANSP> 5
 0.000000e+00 1.000000e+00 0.000000e+00 0.000000e+00 0.000000e+00
 0.000000e+00 7.460036e-01 2.539965e-01 0.000000e+00 0.000000e+00
 0.000000e+00 0.000000e+00 9.114551e-01 8.854489e-02 0.000000e+00
 0.000000e+00 0.000000e+00 0.000000e+00 7.250000e-01 2.750000e-01
 0.000000e+00 0.000000e+00 0.000000e+00 0.000000e+00 0.000000e+00
<ENDHMM>
