~o
<STREAMINFO> 1 26
<VECSIZE> 26<NULLD><MFCC_E_D><DIAGC>
~h "e^"
<BEGINHMM>
<NUMSTATES> 5
<STATE> 2
<MEAN> 26
 -3.401405e+00 7.446183e-01 7.762040e+00 7.736128e-01 -1.202014e+01 -4.917974e+00 -2.740492e+00 -1.448943e+00 6.983070e+00 -2.933755e+00 -2.171881e+00 -1.846196e+00 1.778326e+01 1.660444e+00 -2.160074e+00 -6.473236e-01 -9.563588e-01 -2.479516e+00 -5.259760e-01 -9.874235e-01 1.434429e-01 1.093023e+00 -7.362773e-01 -9.678916e-01 -4.796818e-01 4.913368e-01
<VARIANCE> 26
 2.898910e+01 3.560889e+01 2.942667e+01 2.440002e+01 5.344861e+01 3.175359e+01 2.944618e+01 1.596274e+01 2.039354e+01 2.634537e+01 1.921272e+01 2.088026e+01 9.992905e+12 1.888193e+00 1.760319e+00 1.791069e+00 1.338233e+00 2.224139e+00 2.556616e+00 2.459522e+00 1.882558e+00 1.518422e+00 1.769194e+00 1.560279e+00 1.552644e+00 2.198397e+12
<GCONST> 1.527418e+02
<STATE> 3
<MEAN> 26
 3.188371e+00 -7.892893e+00 3.650713e+00 -1.598850e+00 -2.169618e+01 -5.767432e+00 -3.815752e+00 2.528741e+00 1.227569e+01 -5.548704e+00 -5.446859e+00 -3.151383e+00 1.944214e+01 1.625621e-02 4.611463e-03 3.407520e-02 4.108691e-02 -7.778459e-02 -6.359758e-02 5.556924e-02 3.519427e-02 3.951313e-02 -4.240971e-02 1.595481e-02 1.564707e-02 -8.897883e-04
<VARIANCE> 26
 1.239875e+00 5.960435e+00 9.229351e+00 7.943061e+00 7.200865e+00 1.379641e+01 9.512494e+00 7.719119e+00 7.053525e+00 6.570996e+00 1.498416e+01 1.055272e+01 9.992905e+12 1.095542e-01 3.028745e-01 4.680352e-01 5.014752e-01 7.093767e-01 7.757075e-01 7.229913e-01 6.623429e-01 6.057112e-01 6.227719e-01 7.181047e-01 6.395641e-01 2.198397e+12
<GCONST> 1.222839e+02
<STATE> 4
<MEAN> 26
 -6.527921e-01 -1.629013e+00 7.031634e+00 1.969387e-01 -1.598396e+01 -6.905573e+00 -3.734441e+00 -8.947545e-01 9.141719e+00 -4.126044e+00 -3.179043e+00 -2.439278e+00 1.846633e+01 -1.178134e+00 2.048303e+00 6.197248e-01 6.860318e-01 2.202931e+00 1.130657e-01 3.566115e-01 -5.399415e-01 -1.078602e+00 7.510498e-01 7.962278e-01 2.125727e-01 -3.326303e-01
<VARIANCE> 26
 1.497333e+01 3.185255e+01 2.575681e+01 2.203154e+01 3.964599e+01 2.431574e+01 1.862734e+01 1.243765e+01 2.072436e+01 1.901015e+01 2.362660e+01 2.451365e+01 9.992905e+12 1.598731e+00 1.930955e+00 1.645508e+00 1.684571e+00 2.587799e+00 2.166856e+00 2.564338e+00 1.473573e+00 1.436230e+00 1.794250e+00 1.771531e+00 1.439948e+00 2.198397e+12
<GCONST> 1.503827e+02
<TRANSP> 5
 0.000000e+00 1.000000e+00 0.000000e+00 0.000000e+00 0.000000e+00
 0.000000e+00 7.982709e-01 2.017291e-01 0.000000e+00 0.000000e+00
 0.000000e+00 0.000000e+00 9.351251e-01 6.487489e-02 0.000000e+00
 0.000000e+00 0.000000e+00 0.000000e+00 7.307692e-01 2.692308e-01
 0.000000e+00 0.000000e+00 0.000000e+00 0.000000e+00 0.000000e+00
<ENDHMM>
