~o
<STREAMINFO> 1 26
<VECSIZE> 26<NULLD><MFCC_E_D><DIAGC>
~h "e~"
<BEGINHMM>
<NUMSTATES> 5
<STATE> 2
<MEAN> 26
 -2.484371e+00 -1.975282e-01 2.932204e+00 -2.556377e+00 -9.031287e+00 -9.942461e-01 -3.560836e+00 -9.187410e-01 7.986272e+00 -7.995820e-01 -3.798829e+00 -5.499531e+00 1.775266e+01 1.025172e+00 -2.155424e+00 -1.164784e+00 -1.711410e+00 -1.313285e+00 5.393304e-01 -6.387535e-01 -6.066460e-02 1.134831e+00 -7.738859e-01 -1.499381e+00 -1.148413e+00 4.895408e-01
<VARIANCE> 26
 2.192264e+01 3.466748e+01 2.151026e+01 3.615744e+01 3.585432e+01 2.478719e+01 2.311279e+01 1.275686e+01 1.734888e+01 2.596423e+01 2.367371e+01 2.028761e+01 9.992905e+12 2.057969e+00 1.633389e+00 9.782869e-01 1.684465e+00 2.379357e+00 2.601453e+00 1.937763e+00 1.525209e+00 1.190482e+00 2.108070e+00 1.530473e+00 1.155027e+00 2.198397e+12
<GCONST> 1.502953e+02
<STATE> 3
<MEAN> 26
 2.472817e-01 -4.952491e+00 9.880592e-01 -5.663883e+00 -1.027166e+01 1.603362e+00 -4.303995e+00 4.383661e-01 1.253707e+01 -7.611547e+00 -1.106347e+01 -9.531034e+00 1.901674e+01 4.108867e-02 2.602245e-01 1.377666e-01 2.349487e-01 2.000128e-01 -1.402603e-01 -8.327758e-02 -2.201601e-02 -1.483913e-02 -7.404929e-02 2.658838e-03 3.143348e-02 -4.047455e-02
<VARIANCE> 26
 3.399461e+00 1.483023e+01 1.194948e+01 1.034012e+01 1.014857e+01 1.353286e+01 9.454796e+00 5.978742e+00 6.821772e+00 9.431795e+00 9.885918e+00 8.131427e+00 9.992905e+12 2.429229e-01 8.100006e-01 5.464979e-01 7.080706e-01 6.483977e-01 8.426612e-01 8.233511e-01 5.879772e-01 7.111071e-01 8.428152e-01 1.047865e+00 6.566068e-01 2.198397e+12
<GCONST> 1.275908e+02
<STATE> 4
<MEAN> 26
 -8.476975e-01 4.656206e+00 5.982305e+00 3.862617e+00 -5.113096e+00 -4.474597e+00 -3.251299e+00 -1.646628e+00 4.767193e+00 -3.584793e+00 -1.237668e+00 -3.945138e+00 1.721402e+01 -5.524221e-01 1.101284e+00 6.254697e-01 1.037230e+00 8.086518e-01 8.280527e-02 8.859717e-01 1.399886e-01 -9.372398e-01 4.583306e-01 1.116194e+00 6.912142e-01 -2.663497e-01
<VARIANCE> 26
 9.598368e+00 2.518539e+01 2.392199e+01 2.608640e+01 2.868487e+01 2.978183e+01 3.769571e+01 1.279645e+01 2.973128e+01 1.350262e+01 2.688630e+01 1.656567e+01 9.992905e+12 6.474502e-01 1.836102e+00 1.432177e+00 1.948035e+00 2.103100e+00 3.576452e+00 2.115970e+00 1.562909e+00 2.057532e+00 1.538562e+00 1.987073e+00 1.303965e+00 2.198397e+12
<GCONST> 1.496008e+02
<TRANSP> 5
 0.000000e+00 1.000000e+00 0.000000e+00 0.000000e+00 0.000000e+00
 0.000000e+00 8.175896e-01 1.824104e-01 0.000000e+00 0.000000e+00
 0.000000e+00 0.000000e+00 9.459720e-01 5.402798e-02 0.000000e+00
 0.000000e+00 0.000000e+00 0.000000e+00 8.660287e-01 1.339713e-01
 0.000000e+00 0.000000e+00 0.000000e+00 0.000000e+00 0.000000e+00
<ENDHMM>
