~o
<STREAMINFO> 1 26
<VECSIZE> 26<NULLD><MFCC_E_D><DIAGC>
~h "f"
<BEGINHMM>
<NUMSTATES> 5
<STATE> 2
<MEAN> 26
 -9.120992e+00 6.306325e+00 5.894686e+00 9.126781e-01 -3.181581e+00 1.182956e+00 1.649452e+00 7.019381e-01 4.819571e+00 2.034665e+00 1.062667e+00 -1.722319e+00 1.624775e+01 -2.858598e+00 6.094367e-01 1.752468e-01 5.141238e-01 1.799419e+00 6.955276e-01 6.214224e-01 9.793866e-01 1.117175e-01 7.949208e-01 2.827476e-01 7.222945e-01 -3.524439e-01
<VARIANCE> 26
 4.371038e+01 7.802227e+00 2.937865e+01 2.712800e+01 4.220394e+01 3.260793e+01 1.652682e+01 1.980029e+01 2.078861e+01 2.167233e+01 1.457240e+01 2.019425e+01 9.992905e+12 3.717949e+00 1.248791e+00 2.003213e+00 2.340306e+00 3.760226e+00 1.992008e+00 2.168562e+00 2.012067e+00 2.357454e+00 2.515682e+00 1.716787e+00 1.661018e+00 2.198397e+12
<GCONST> 1.528572e+02
<STATE> 3
<MEAN> 26
 -1.983892e+01 7.958642e+00 3.709238e+00 1.423009e+00 1.817936e+00 1.888392e+00 4.651567e+00 4.233141e+00 6.034751e+00 3.593396e+00 2.080360e+00 8.859515e-01 1.530155e+01 -1.228131e-01 1.296566e-02 -4.565343e-02 -7.077148e-02 -3.358848e-02 -7.368728e-02 8.446056e-02 2.747057e-02 1.606909e-02 3.235322e-02 1.893252e-02 1.252097e-02 6.971113e-03
<VARIANCE> 26
 7.780029e+00 2.156854e+00 1.082299e+01 5.187879e+00 8.165733e+00 1.055603e+01 1.012983e+01 1.003013e+01 1.035922e+01 1.249708e+01 1.105695e+01 1.104961e+01 9.992905e+12 8.487686e-01 1.968862e-01 5.219559e-01 6.550294e-01 8.793644e-01 1.027191e+00 1.041131e+00 1.039644e+00 1.296216e+00 1.235328e+00 1.278765e+00 1.149570e+00 2.198397e+12
<GCONST> 1.297024e+02
<STATE> 4
<MEAN> 26
 -1.516384e+01 7.451339e+00 6.185483e+00 4.459700e-01 -1.594139e+00 6.363345e-01 3.446583e+00 2.014021e+00 4.478691e+00 3.196263e+00 1.602909e+00 4.532979e-03 1.573672e+01 3.491036e+00 -5.416132e-01 3.189465e-01 -6.223327e-01 -2.321357e+00 -1.142998e+00 -1.600950e+00 -1.563444e+00 -3.104812e-01 -7.330241e-01 -5.409549e-01 -9.584429e-01 4.546202e-01
<VARIANCE> 26
 2.039618e+01 3.133804e+00 1.717411e+01 9.151468e+00 1.498661e+01 1.430917e+01 1.245560e+01 1.263533e+01 1.516174e+01 1.514351e+01 1.043620e+01 1.309870e+01 9.992905e+12 4.059812e+00 6.863796e-01 1.713097e+00 1.978917e+00 2.043936e+00 1.461624e+00 1.209411e+00 1.250137e+00 1.703484e+00 1.819319e+00 1.427158e+00 1.890674e+00 2.198397e+12
<GCONST> 1.420094e+02
<TRANSP> 5
 0.000000e+00 1.000000e+00 0.000000e+00 0.000000e+00 0.000000e+00
 0.000000e+00 7.702128e-01 2.297872e-01 0.000000e+00 0.000000e+00
 0.000000e+00 0.000000e+00 9.383562e-01 6.164384e-02 0.000000e+00
 0.000000e+00 0.000000e+00 0.000000e+00 6.351352e-01 3.648649e-01
 0.000000e+00 0.000000e+00 0.000000e+00 0.000000e+00 0.000000e+00
<ENDHMM>
