~o
<STREAMINFO> 1 26
<VECSIZE> 26<NULLD><MFCC_E_D><DIAGC>
~h "g"
<BEGINHMM>
<NUMSTATES> 5
<STATE> 2
<MEAN> 26
 -2.587829e+00 7.281053e+00 5.154758e+00 2.301037e+00 -3.196419e+00 1.179520e-01 1.449064e+00 1.418901e+00 1.851734e+00 -2.947365e+00 1.352498e+00 -2.404738e+00 1.617855e+01 1.310138e-01 7.042041e-01 6.957233e-01 1.061195e+00 5.439730e-01 -1.027747e+00 3.331057e-02 -6.984720e-01 -8.158476e-01 -2.891214e-01 1.926297e-01 -5.285584e-02 6.234693e-03
<VARIANCE> 26
 2.264133e+01 1.558412e+01 2.143764e+01 6.813142e+01 5.679464e+01 4.145747e+01 3.113188e+01 2.503852e+01 2.046750e+01 4.714445e+01 1.467134e+01 2.246311e+01 9.992905e+12 1.245793e+00 1.174440e+00 1.036044e+00 1.967427e+00 1.796383e+00 1.648570e+00 1.694986e+00 1.499658e+00 1.531927e+00 2.541925e+00 1.017117e+00 1.325440e+00 2.198397e+12
<GCONST> 1.511511e+02
<STATE> 3
<MEAN> 26
 -1.990534e+00 1.206218e+01 9.821043e+00 8.543207e+00 -2.386102e-01 -4.933140e+00 2.408036e+00 -2.851829e+00 -2.638147e+00 -4.043926e+00 3.126354e+00 -2.295997e+00 1.605990e+01 -5.200462e-02 -7.099766e-02 3.092616e-02 3.913451e-03 -9.983006e-02 5.630136e-02 7.409822e-02 4.275629e-02 1.180796e-01 3.931481e-02 -6.794832e-02 9.936915e-02 -5.667350e-03
<VARIANCE> 26
 2.043721e+00 5.398098e+00 4.737873e+00 5.192466e+00 1.506531e+01 1.641810e+01 9.143469e+00 1.045938e+01 1.080025e+01 1.129399e+01 8.978373e+00 1.003941e+01 9.992905e+12 2.541590e-01 6.265851e-01 4.697454e-01 5.493984e-01 1.714701e+00 1.674092e+00 1.087861e+00 1.359399e+00 1.325958e+00 1.267051e+00 9.278195e-01 1.055202e+00 2.198397e+12
<GCONST> 1.298682e+02
<STATE> 4
<MEAN> 26
 -3.679024e+00 6.041308e+00 8.001958e+00 4.236526e+00 -5.518393e+00 -2.981042e+00 2.052345e+00 -7.885113e-01 2.340266e+00 -1.599604e+00 1.144263e+00 -1.165708e+00 1.649831e+01 7.117347e-02 -8.171382e-01 -2.207161e-01 -8.577461e-01 -1.129278e+00 -6.077782e-02 -2.759236e-01 -3.241282e-03 5.987225e-01 7.716198e-02 -3.109556e-01 -2.718811e-01 1.829374e-01
<VARIANCE> 26
 1.731051e+01 2.255691e+01 3.186462e+01 2.508711e+01 5.002923e+01 3.274562e+01 2.065736e+01 1.842551e+01 1.856435e+01 1.570611e+01 1.749706e+01 1.757483e+01 9.992905e+12 1.403681e+00 1.429584e+00 1.931468e+00 1.481833e+00 1.787458e+00 2.043670e+00 1.878343e+00 1.558401e+00 1.722429e+00 1.675428e+00 1.339048e+00 1.636766e+00 2.198397e+12
<GCONST> 1.494967e+02
<TRANSP> 5
 0.000000e+00 1.000000e+00 0.000000e+00 0.000000e+00 0.000000e+00
 0.000000e+00 7.785714e-01 2.214286e-01 0.000000e+00 0.000000e+00
 0.000000e+00 0.000000e+00 9.041731e-01 9.582689e-02 0.000000e+00
 0.000000e+00 0.000000e+00 0.000000e+00 8.306011e-01 1.693989e-01
 0.000000e+00 0.000000e+00 0.000000e+00 0.000000e+00 0.000000e+00
<ENDHMM>
