~o
<STREAMINFO> 1 26
<VECSIZE> 26<NULLD><MFCC_E_D><DIAGC>
~h "h"
<BEGINHMM>
<NUMSTATES> 5
<STATE> 2
<MEAN> 26
 -1.509073e-01 1.491300e+00 5.827331e+00 2.243171e+00 -1.129328e+01 -6.985107e+00 -6.246157e+00 -2.332229e+00 7.183721e+00 -4.952296e+00 -3.745867e-01 -2.060384e+00 1.797798e+01 2.064564e-01 3.847254e-01 7.875010e-01 1.001267e+00 1.778754e-01 -1.061768e+00 -1.020883e+00 -3.827098e-01 -6.352153e-02 -5.540151e-01 -1.681366e-01 4.437255e-01 2.508204e-02
<VARIANCE> 26
 4.133389e+01 2.303515e+01 2.896675e+01 2.791874e+01 4.751672e+01 3.368169e+01 4.177427e+01 1.567198e+01 3.055573e+01 2.244416e+01 1.836856e+01 2.136288e+01 9.992905e+12 8.422923e-01 1.336408e+00 1.075359e+00 1.552295e+00 2.725301e+00 1.382937e+00 2.376697e+00 1.224545e+00 1.709050e+00 1.848090e+00 1.442045e+00 1.428445e+00 2.198397e+12
<GCONST> 1.509542e+02
<STATE> 3
<MEAN> 26
 5.712243e-01 6.310575e+00 1.106192e+01 8.737596e+00 -7.058095e+00 -1.261049e+01 -1.165851e+01 -5.112764e+00 4.786017e+00 -1.105082e+01 -8.923640e-01 -1.858469e+00 1.808264e+01 5.951852e-02 1.967950e-02 -7.125089e-02 1.234005e-01 1.882643e-01 -8.841269e-02 -2.200119e-01 -1.484592e-01 5.849401e-03 -5.856502e-02 8.486027e-03 -6.620832e-02 1.212124e-02
<VARIANCE> 26
 1.350331e+01 4.031341e+00 1.386403e+01 6.440174e+00 1.434797e+01 8.178553e+00 8.161838e+01 7.193272e+00 2.525097e+01 1.692097e+01 1.756496e+01 8.234471e+00 9.992905e+12 2.220021e-01 2.811971e-01 7.601032e-01 5.252409e-01 8.836046e-01 8.480026e-01 1.348591e+00 6.906406e-01 7.343405e-01 1.132163e+00 6.873350e-01 6.089005e-01 2.198397e+12
<GCONST> 1.316900e+02
<STATE> 4
<MEAN> 26
 2.899890e+00 2.011199e+00 3.840868e+00 4.022050e+00 -7.821784e+00 -9.044419e+00 -1.173774e+01 -5.077938e+00 5.766375e+00 -5.113769e+00 -1.562684e+00 -4.209490e+00 1.824556e+01 2.948681e-03 -9.989555e-01 -8.879217e-01 -1.632772e+00 -1.254823e+00 1.273205e+00 1.676579e+00 4.050874e-01 -1.924230e-01 1.320670e+00 1.004058e-01 -6.670519e-01 -1.306137e-03
<VARIANCE> 26
 9.970383e+00 1.141442e+01 3.392758e+01 2.745558e+01 2.141590e+01 2.791767e+01 6.235797e+01 1.289245e+01 1.734583e+01 2.833500e+01 1.374333e+01 2.019928e+01 9.992905e+12 2.441643e-01 1.009003e+00 1.099805e+00 1.177511e+00 1.454410e+00 1.664272e+00 2.507408e+00 1.086359e+00 1.071095e+00 1.676889e+00 1.121956e+00 1.497020e+00 2.198397e+12
<GCONST> 1.444621e+02
<TRANSP> 5
 0.000000e+00 1.000000e+00 0.000000e+00 0.000000e+00 0.000000e+00
 0.000000e+00 8.614718e-01 1.385281e-01 0.000000e+00 0.000000e+00
 0.000000e+00 0.000000e+00 9.197995e-01 8.020050e-02 0.000000e+00
 0.000000e+00 0.000000e+00 0.000000e+00 7.217391e-01 2.782609e-01
 0.000000e+00 0.000000e+00 0.000000e+00 0.000000e+00 0.000000e+00
<ENDHMM>
