~o
<STREAMINFO> 1 26
<VECSIZE> 26<NULLD><MFCC_E_D><DIAGC>
~h "i"
<BEGINHMM>
<NUMSTATES> 5
<STATE> 2
<MEAN> 26
 -8.088670e+00 8.395547e+00 1.071056e+01 7.077279e+00 -3.460395e+00 -2.767818e+00 2.952512e+00 -1.448780e+00 1.450902e+00 -2.094297e+00 2.437325e+00 1.156645e-02 1.584846e+01 7.783307e-01 -7.616595e-03 1.213650e+00 2.723906e-01 -1.341969e+00 -1.937068e+00 -3.066003e-01 -1.280267e+00 -7.070044e-01 -8.409038e-01 -7.587884e-02 -3.273472e-01 2.982222e-01
<VARIANCE> 26
 2.106774e+01 5.834455e+00 1.819048e+01 8.913103e+00 3.550925e+01 4.903553e+01 1.921519e+01 2.504689e+01 1.721804e+01 2.102389e+01 1.103451e+01 1.267304e+01 9.992905e+12 1.923158e+00 5.315267e-01 9.821477e-01 7.272636e-01 1.544552e+00 2.159550e+00 1.632698e+00 1.595382e+00 1.575185e+00 1.677913e+00 1.250792e+00 1.474713e+00 2.198397e+12
<GCONST> 1.439389e+02
<STATE> 3
<MEAN> 26
 -9.726321e+00 7.003160e+00 1.762705e+01 5.609525e+00 -9.903034e+00 -1.095743e+01 3.189516e+00 -6.057831e+00 -6.121755e-01 -3.949363e+00 4.313012e+00 -6.763380e-01 1.702212e+01 7.101154e-03 -1.812370e-02 6.977822e-02 2.362003e-03 -1.084050e-01 -1.127837e-01 -4.275011e-03 -1.441323e-02 -4.192656e-02 -4.273054e-02 1.143973e-01 -5.998291e-03 1.421786e-02
<VARIANCE> 26
 7.907565e+00 2.813607e+00 5.105051e+00 1.100980e+01 8.322765e+00 8.600750e+00 1.674068e+01 9.756435e+00 1.021771e+01 1.173874e+01 1.156311e+01 1.056512e+01 9.992905e+12 4.244829e-01 2.803317e-01 4.947319e-01 6.838661e-01 7.633874e-01 8.848305e-01 1.273877e+00 9.533635e-01 9.718040e-01 9.453295e-01 8.818852e-01 9.213419e-01 2.198397e+12
<GCONST> 1.285239e+02
<STATE> 4
<MEAN> 26
 -4.776528e+00 9.147902e+00 1.300467e+01 8.621090e+00 -6.453127e+00 -8.808721e+00 2.939398e+00 -5.964087e+00 -2.678913e+00 -4.371435e+00 4.375362e+00 -2.320989e+00 1.654040e+01 4.130744e-02 5.157256e-02 -3.166386e-01 2.427951e-02 5.417393e-01 5.776920e-01 6.896710e-02 3.339443e-01 1.611393e-01 1.816471e-01 -1.009595e-01 8.803593e-02 -5.330018e-02
<VARIANCE> 26
 5.972424e+00 6.243561e+00 8.408914e+00 7.183242e+00 1.959778e+01 1.609691e+01 1.093607e+01 1.439267e+01 1.470978e+01 1.081104e+01 1.172579e+01 1.094653e+01 9.992905e+12 5.447286e-01 3.844351e-01 7.050220e-01 5.323113e-01 1.477733e+00 1.835657e+00 1.035679e+00 1.411828e+00 1.178679e+00 1.286459e+00 9.622282e-01 9.315193e-01 2.198397e+12
<GCONST> 1.337341e+02
<TRANSP> 5
 0.000000e+00 1.000000e+00 0.000000e+00 0.000000e+00 0.000000e+00
 0.000000e+00 7.267759e-01 2.732241e-01 0.000000e+00 0.000000e+00
 0.000000e+00 0.000000e+00 9.021527e-01 9.784736e-02 0.000000e+00
 0.000000e+00 0.000000e+00 0.000000e+00 8.531571e-01 1.468429e-01
 0.000000e+00 0.000000e+00 0.000000e+00 0.000000e+00 0.000000e+00
<ENDHMM>
