~o
<STREAMINFO> 1 26
<VECSIZE> 26<NULLD><MFCC_E_D><DIAGC>
~h "j"
<BEGINHMM>
<NUMSTATES> 5
<STATE> 2
<MEAN> 26
 -3.270601e+00 2.863419e+00 8.981085e+00 4.058938e+00 -9.853162e+00 -5.806381e+00 -2.711989e+00 -1.537211e+00 5.818948e+00 -4.356320e+00 9.757335e-02 -8.855727e-01 1.733373e+01 -3.263979e-01 5.411693e-01 1.128862e+00 4.959973e-01 -1.800575e-01 -8.715042e-01 -1.512212e-01 -5.573604e-01 -3.847564e-01 -3.949052e-01 3.602885e-01 3.892903e-01 1.234967e-02
<VARIANCE> 26
 4.237733e+01 3.268992e+01 2.637163e+01 2.040870e+01 8.125814e+01 4.593071e+01 4.040510e+01 1.512605e+01 2.945172e+01 2.389218e+01 1.713605e+01 1.628067e+01 9.992905e+12 1.222121e+00 1.373542e+00 1.160436e+00 1.198786e+00 1.832601e+00 1.572612e+00 1.926713e+00 1.137889e+00 1.712597e+00 1.240646e+00 1.337978e+00 1.317468e+00 2.198397e+12
<GCONST> 1.504980e+02
<STATE> 3
<MEAN> 26
 -6.769620e+00 7.718736e+00 1.656188e+01 6.914915e+00 -9.995008e+00 -1.057839e+01 6.282889e-01 -5.668264e+00 1.308386e-02 -6.241775e+00 3.814018e+00 2.699003e-01 1.708676e+01 -5.723682e-02 -5.301996e-02 1.557446e-01 -4.892745e-02 -1.248024e-01 -9.380277e-02 -1.099303e-01 -8.556720e-03 1.649496e-02 -1.067300e-01 4.494293e-02 7.242773e-02 2.209662e-02
<VARIANCE> 26
 9.266610e+00 5.197489e+00 1.054924e+01 1.151258e+01 1.600960e+01 1.186026e+01 2.058894e+01 9.112165e+00 1.340171e+01 1.562784e+01 9.941936e+00 1.019235e+01 9.992905e+12 4.803783e-01 3.974056e-01 5.982223e-01 7.974155e-01 1.086420e+00 9.846287e-01 1.411803e+00 9.448722e-01 9.809806e-01 1.040995e+00 9.589028e-01 8.486840e-01 2.198397e+12
<GCONST> 1.330285e+02
<STATE> 4
<MEAN> 26
 -2.050067e+00 1.901874e+00 9.213725e+00 3.009426e+00 -1.211934e+01 -8.159800e+00 -5.856811e+00 -3.018293e+00 6.533991e+00 -5.651869e+00 -3.256115e-01 -5.843476e-01 1.791018e+01 1.191382e+00 -1.080011e+00 -1.625986e+00 -9.825686e-01 -6.190937e-01 5.562840e-01 -3.653202e-01 2.278699e-01 6.581287e-01 5.398554e-01 -6.629859e-01 -8.774479e-01 1.729431e-01
<VARIANCE> 26
 2.777969e+01 2.248558e+01 3.789911e+01 2.552795e+01 4.590166e+01 2.801974e+01 3.559743e+01 1.526133e+01 2.306486e+01 3.357799e+01 1.679796e+01 1.720650e+01 9.992905e+12 1.806405e+00 1.240580e+00 1.500692e+00 1.745659e+00 2.692191e+00 1.730643e+00 3.114787e+00 1.611273e+00 1.670573e+00 2.151744e+00 1.617662e+00 1.201286e+00 2.198397e+12
<GCONST> 1.520899e+02
<TRANSP> 5
 0.000000e+00 1.000000e+00 0.000000e+00 0.000000e+00 0.000000e+00
 0.000000e+00 7.915195e-01 2.084806e-01 0.000000e+00 0.000000e+00
 0.000000e+00 0.000000e+00 8.975694e-01 1.024306e-01 0.000000e+00
 0.000000e+00 0.000000e+00 0.000000e+00 7.773585e-01 2.226415e-01
 0.000000e+00 0.000000e+00 0.000000e+00 0.000000e+00 0.000000e+00
<ENDHMM>
