~o
<STREAMINFO> 1 26
<VECSIZE> 26<NULLD><MFCC_E_D><DIAGC>
~h "k"
<BEGINHMM>
<NUMSTATES> 5
<STATE> 2
<MEAN> 26
 -3.599567e+00 8.483573e+00 7.676659e+00 4.575919e+00 -2.362672e+00 -2.184432e-01 1.270984e+00 5.365299e-01 1.789235e+00 -1.042721e+00 1.285158e+00 -8.801531e-01 1.609227e+01 -9.623366e-01 4.849487e-01 7.562644e-02 9.919949e-01 2.169863e+00 1.722306e+00 9.786465e-01 1.062268e+00 1.241372e-01 7.198426e-01 2.562583e-01 8.075168e-01 -3.603383e-01
<VARIANCE> 26
 1.498727e+01 6.988402e+00 1.013300e+01 2.887184e+01 3.560814e+01 3.008044e+01 1.752711e+01 1.685022e+01 1.517145e+01 1.731108e+01 9.835542e+00 1.483937e+01 9.992905e+12 1.129101e+00 1.103837e+00 1.523836e+00 2.202484e+00 1.998379e+00 2.524716e+00 1.466018e+00 1.778531e+00 1.887924e+00 2.018298e+00 1.173636e+00 1.491644e+00 2.198397e+12
<GCONST> 1.455907e+02
<STATE> 3
<MEAN> 26
 -7.985503e+00 8.471743e+00 5.945213e+00 6.897295e+00 4.695864e+00 7.912611e+00 5.101791e+00 5.077210e+00 4.304631e+00 2.320738e+00 2.506480e+00 2.046176e+00 1.426858e+01 -2.700055e-01 -7.394405e-02 -4.751293e-02 -1.441975e-01 -1.408668e-01 2.415754e-03 -1.129928e-01 -9.877056e-02 6.404658e-02 5.116239e-02 -5.407246e-02 1.218590e-02 -2.241604e-02
<VARIANCE> 26
 5.613393e+00 3.156509e+00 3.952028e+00 4.732430e+00 7.455947e+00 9.819840e+00 9.521341e+00 1.159867e+01 9.988565e+00 1.045797e+01 9.265239e+00 8.172779e+00 9.992905e+12 5.722217e-01 3.290650e-01 4.691549e-01 6.091761e-01 1.039938e+00 1.398213e+00 1.095191e+00 1.383107e+00 1.223296e+00 1.317719e+00 1.175259e+00 1.049577e+00 2.198397e+12
<GCONST> 1.284682e+02
<STATE> 4
<MEAN> 26
 -8.706966e+00 7.167747e+00 5.897813e+00 1.820471e+00 -2.175330e+00 2.180533e+00 1.637290e+00 9.756683e-01 3.406284e+00 1.018663e+00 9.118397e-01 -4.703663e-01 1.555122e+01 7.827420e-01 -5.338467e-01 -2.887962e-01 -1.056525e+00 -1.521476e+00 -9.861871e-01 -5.016268e-01 -5.515614e-01 1.706403e-01 -7.193714e-02 -2.672008e-01 -7.047786e-01 3.277772e-01
<VARIANCE> 26
 4.985431e+01 7.198626e+00 1.038817e+01 1.690131e+01 2.150742e+01 1.457036e+01 1.574378e+01 1.408750e+01 1.333660e+01 1.599493e+01 1.313278e+01 1.382644e+01 9.992905e+12 2.028736e+00 7.693854e-01 1.560891e+00 2.119376e+00 2.283409e+00 1.623660e+00 1.836337e+00 1.700141e+00 1.601999e+00 1.514742e+00 1.525909e+00 1.379502e+00 2.198397e+12
<GCONST> 1.446224e+02
<TRANSP> 5
 0.000000e+00 1.000000e+00 0.000000e+00 0.000000e+00 0.000000e+00
 0.000000e+00 7.194030e-01 2.805970e-01 0.000000e+00 0.000000e+00
 0.000000e+00 0.000000e+00 8.785530e-01 1.214470e-01 0.000000e+00
 0.000000e+00 0.000000e+00 0.000000e+00 8.097166e-01 1.902834e-01
 0.000000e+00 0.000000e+00 0.000000e+00 0.000000e+00 0.000000e+00
<ENDHMM>
