~o
<STREAMINFO> 1 26
<VECSIZE> 26<NULLD><MFCC_E_D><DIAGC>
~h "l"
<BEGINHMM>
<NUMSTATES> 5
<STATE> 2
<MEAN> 26
 -6.458303e-01 3.597317e+00 5.054843e+00 2.686689e+00 -6.858287e+00 -3.934035e+00 -3.350341e+00 -1.591575e+00 4.480976e+00 -3.019206e+00 -8.909116e-01 -3.036283e+00 1.728991e+01 3.657105e-01 4.126991e-01 5.094792e-01 1.058202e+00 2.286581e-01 -1.498714e+00 -1.480262e+00 -6.721845e-01 2.437711e-02 -7.155827e-01 -1.947502e-01 9.567577e-02 1.052537e-01
<VARIANCE> 26
 1.892924e+01 2.473052e+01 3.461860e+01 4.042952e+01 4.627280e+01 4.136898e+01 4.608160e+01 1.616159e+01 2.513680e+01 2.311405e+01 1.965322e+01 2.267714e+01 9.992905e+12 1.070569e+00 2.146092e+00 1.083707e+00 2.191965e+00 3.402220e+00 1.991485e+00 2.657439e+00 1.311774e+00 1.877037e+00 2.025371e+00 1.410015e+00 1.520686e+00 2.198397e+12
<GCONST> 1.531209e+02
<STATE> 3
<MEAN> 26
 1.629377e+00 5.563994e+00 8.781440e+00 8.836178e+00 -5.855773e+00 -1.206100e+01 -1.408122e+01 -4.922043e+00 7.502400e+00 -9.955927e+00 -2.392624e+00 -2.194003e+00 1.821975e+01 5.809298e-02 -2.496745e-02 -1.382073e-02 5.383491e-02 2.561364e-02 -6.490895e-02 -1.262362e-01 -6.203061e-02 4.011573e-02 -6.405984e-02 -3.917241e-04 6.797811e-03 9.068620e-03
<VARIANCE> 26
 7.630654e+00 4.105446e+00 1.991555e+01 8.998432e+00 1.830313e+01 1.058361e+01 3.045247e+01 9.564987e+00 1.242259e+01 1.593074e+01 9.975102e+00 1.247967e+01 9.992905e+12 2.667124e-01 3.997440e-01 5.994945e-01 7.131495e-01 9.637946e-01 9.494738e-01 1.611363e+00 9.319271e-01 1.002754e+00 1.252945e+00 1.030445e+00 7.402586e-01 2.198397e+12
<GCONST> 1.330092e+02
<STATE> 4
<MEAN> 26
 -9.921762e-01 3.449076e+00 6.224848e+00 3.986162e+00 -7.211907e+00 -6.472549e+00 -4.758937e+00 -2.967814e+00 4.633593e+00 -3.587075e+00 -2.922556e-01 -2.651696e+00 1.745890e+01 -1.630456e-01 -4.853911e-01 -5.720074e-01 -1.039593e+00 -2.440946e-01 1.090737e+00 9.997232e-01 3.747762e-01 3.883928e-02 6.807079e-01 5.544013e-02 -2.283268e-01 -1.565935e-02
<VARIANCE> 26
 2.022388e+01 1.848169e+01 4.218556e+01 2.589051e+01 2.963226e+01 3.377446e+01 5.046749e+01 1.465710e+01 2.459045e+01 2.503635e+01 1.758801e+01 1.939862e+01 9.992905e+12 8.986338e-01 1.667556e+00 1.517199e+00 2.114900e+00 2.233618e+00 2.279540e+00 3.158177e+00 1.203763e+00 1.900136e+00 1.856525e+00 1.555423e+00 1.398724e+00 2.198397e+12
<GCONST> 1.513973e+02
<TRANSP> 5
 0.000000e+00 1.000000e+00 0.000000e+00 0.000000e+00 0.000000e+00
 0.000000e+00 7.482711e-01 2.517289e-01 0.000000e+00 0.000000e+00
 0.000000e+00 0.000000e+00 8.464135e-01 1.535865e-01 0.000000e+00
 0.000000e+00 0.000000e+00 0.000000e+00 6.899489e-01 3.100511e-01
 0.000000e+00 0.000000e+00 0.000000e+00 0.000000e+00 0.000000e+00
<ENDHMM>
