~o
<STREAMINFO> 1 26
<VECSIZE> 26<NULLD><MFCC_E_D><DIAGC>
~h "m"
<BEGINHMM>
<NUMSTATES> 5
<STATE> 2
<MEAN> 26
 -1.278168e+00 6.035717e+00 5.119342e+00 3.181304e+00 -4.672852e+00 -3.429122e+00 -6.232225e-01 -4.090292e-01 2.582917e+00 -3.569528e+00 3.709277e-01 -3.253106e+00 1.679165e+01 1.182741e-01 8.409304e-01 5.276390e-01 9.702967e-01 6.470947e-01 -7.730136e-01 2.872502e-01 -4.397823e-01 -9.962801e-01 -3.425002e-01 3.968848e-01 1.399785e-01 -6.271721e-02
<VARIANCE> 26
 1.731517e+01 1.554986e+01 2.719382e+01 4.794547e+01 3.541751e+01 4.583052e+01 4.754303e+01 2.291677e+01 2.159970e+01 2.816048e+01 1.831458e+01 1.990954e+01 9.992905e+12 1.133815e+00 1.286114e+00 1.400297e+00 1.822048e+00 2.023729e+00 2.089806e+00 2.529317e+00 1.760760e+00 1.934769e+00 1.776472e+00 1.445990e+00 1.624691e+00 2.198397e+12
<GCONST> 1.519386e+02
<STATE> 3
<MEAN> 26
 -8.821329e-01 1.079349e+01 9.475461e+00 7.838987e+00 -2.791273e+00 -7.502650e+00 1.056091e+00 -4.240039e+00 -3.388487e+00 -4.791461e+00 3.047707e+00 -3.414863e+00 1.651145e+01 2.832005e-02 -7.128225e-02 -1.657900e-03 -3.245949e-02 -1.294093e-01 -1.256910e-01 -3.278467e-02 -1.059712e-01 -6.566654e-02 -2.412767e-02 5.223902e-02 -5.689392e-02 2.910750e-03
<VARIANCE> 26
 1.823075e+00 8.375316e+00 7.275846e+00 6.639707e+00 1.139053e+01 1.251685e+01 1.093331e+01 1.001072e+01 1.206458e+01 1.028744e+01 1.024413e+01 9.819850e+00 9.992905e+12 1.643184e-01 4.964198e-01 4.556355e-01 5.980331e-01 1.003144e+00 1.111080e+00 1.106641e+00 8.768004e-01 1.208304e+00 1.079823e+00 9.912902e-01 9.344590e-01 2.198397e+12
<GCONST> 1.282889e+02
<STATE> 4
<MEAN> 26
 4.092033e-01 5.989614e+00 4.093600e+00 2.526662e+00 -6.179854e+00 -5.136868e+00 -2.519353e-01 -2.048675e+00 3.394995e-03 -3.299249e+00 2.184910e+00 -4.234964e+00 1.688885e+01 2.916872e-01 -9.258302e-01 -9.089882e-01 -1.169751e+00 -8.195451e-01 5.117087e-01 -4.788651e-01 2.076942e-01 8.876125e-01 1.827541e-02 -2.557987e-01 -7.227293e-02 1.460512e-01
<VARIANCE> 26
 6.099560e+00 1.255885e+01 2.291455e+01 3.063426e+01 1.383376e+01 2.123354e+01 2.437018e+01 1.297764e+01 2.301986e+01 1.832261e+01 1.552433e+01 1.516716e+01 9.992905e+12 5.937135e-01 1.455508e+00 1.731341e+00 2.169525e+00 1.615644e+00 1.548397e+00 1.605693e+00 1.129453e+00 2.010289e+00 1.515252e+00 1.192584e+00 1.278664e+00 2.198397e+12
<GCONST> 1.441997e+02
<TRANSP> 5
 0.000000e+00 1.000000e+00 0.000000e+00 0.000000e+00 0.000000e+00
 0.000000e+00 8.091603e-01 1.908397e-01 0.000000e+00 0.000000e+00
 0.000000e+00 0.000000e+00 8.511904e-01 1.488095e-01 0.000000e+00
 0.000000e+00 0.000000e+00 0.000000e+00 6.875000e-01 3.125000e-01
 0.000000e+00 0.000000e+00 0.000000e+00 0.000000e+00 0.000000e+00
<ENDHMM>
