~o
<STREAMINFO> 1 26
<VECSIZE> 26<NULLD><MFCC_E_D><DIAGC>
~h "n"
<BEGINHMM>
<NUMSTATES> 5
<STATE> 2
<MEAN> 26
 -2.138102e+00 5.481415e+00 6.318731e+00 3.465718e+00 -6.456733e+00 -4.022727e+00 -1.652708e+00 -1.037722e+00 3.513552e+00 -3.665512e+00 1.772928e-01 -2.825027e+00 1.687642e+01 -3.041069e-01 8.720597e-01 1.333081e+00 1.459021e+00 2.511825e-01 -1.540808e+00 2.571123e-02 -4.847287e-01 -9.412614e-01 -8.508035e-01 2.711211e-01 4.485467e-01 -4.216941e-02
<VARIANCE> 26
 1.700934e+01 1.833351e+01 2.633401e+01 4.174242e+01 4.480334e+01 4.266419e+01 4.274928e+01 1.905987e+01 2.217913e+01 3.527008e+01 1.592982e+01 2.013048e+01 9.992905e+12 1.586040e+00 1.501275e+00 1.366175e+00 2.294029e+00 2.698546e+00 2.056615e+00 2.108152e+00 1.818558e+00 1.891750e+00 1.983967e+00 1.370450e+00 1.703745e+00 2.198397e+12
<GCONST> 1.528106e+02
<STATE> 3
<MEAN> 26
 -3.183993e+00 7.897321e+00 1.341131e+01 8.446842e+00 -7.590982e+00 -1.021199e+01 -1.459252e+00 -5.433804e+00 -2.136360e-01 -7.411549e+00 2.232698e+00 -1.043260e+00 1.710364e+01 -3.834086e-03 -7.590972e-02 1.134581e-01 2.621845e-02 -7.944545e-02 -8.714828e-02 -1.421771e-01 -6.924482e-02 1.202573e-01 -1.283478e-01 5.337287e-03 9.244443e-02 2.064901e-02
<VARIANCE> 26
 3.269029e+00 6.646008e+00 9.107059e+00 5.496832e+00 1.093212e+01 9.044042e+00 2.977690e+01 9.169761e+00 1.733978e+01 1.586148e+01 1.246007e+01 1.108306e+01 9.992905e+12 1.918685e-01 3.428109e-01 5.913824e-01 5.569183e-01 8.669924e-01 8.515734e-01 1.326377e+00 9.570131e-01 1.117843e+00 1.034087e+00 1.012910e+00 8.210636e-01 2.198397e+12
<GCONST> 1.299400e+02
<STATE> 4
<MEAN> 26
 -1.913981e+00 4.476988e+00 9.036674e+00 5.413493e+00 -7.980244e+00 -8.464012e+00 -5.044869e+00 -2.546226e+00 5.422873e+00 -5.631764e+00 -4.568778e-02 -1.933066e+00 1.741690e+01 2.997634e-01 -5.302882e-01 -1.039310e+00 -8.451766e-01 1.025204e-01 9.121733e-01 -1.754288e-01 2.346536e-01 4.286721e-01 6.715510e-01 -2.638203e-01 -2.151137e-01 2.181018e-02
<VARIANCE> 26
 9.016790e+00 1.143184e+01 2.547339e+01 1.928603e+01 2.202543e+01 2.578738e+01 4.039688e+01 1.401062e+01 1.915181e+01 3.199516e+01 1.308879e+01 1.473168e+01 9.992905e+12 1.063418e+00 1.672322e+00 1.560632e+00 2.382854e+00 2.216840e+00 2.204793e+00 3.282670e+00 1.399200e+00 1.971904e+00 1.668356e+00 1.576921e+00 1.301156e+00 2.198397e+12
<GCONST> 1.482393e+02
<TRANSP> 5
 0.000000e+00 1.000000e+00 0.000000e+00 0.000000e+00 0.000000e+00
 0.000000e+00 7.688889e-01 2.311111e-01 0.000000e+00 0.000000e+00
 0.000000e+00 0.000000e+00 9.154472e-01 8.455284e-02 0.000000e+00
 0.000000e+00 0.000000e+00 0.000000e+00 7.189189e-01 2.810811e-01
 0.000000e+00 0.000000e+00 0.000000e+00 0.000000e+00 0.000000e+00
<ENDHMM>
