~o
<STREAMINFO> 1 26
<VECSIZE> 26<NULLD><MFCC_E_D><DIAGC>
~h "o"
<BEGINHMM>
<NUMSTATES> 5
<STATE> 2
<MEAN> 26
 4.320449e-01 5.306293e+00 9.177305e-01 -3.803353e+00 -6.361860e+00 9.750904e-01 1.014956e+00 3.577514e-01 2.157939e+00 -1.292864e+00 9.548859e-01 -4.265140e+00 1.689641e+01 1.266231e+00 -1.127309e+00 -1.483695e+00 -2.226163e+00 -1.807565e+00 1.926598e-01 -3.948709e-01 -6.082912e-01 -6.601446e-02 -1.465851e-01 -2.284938e-01 -1.361346e+00 4.497675e-01
<VARIANCE> 26
 1.306181e+01 1.788242e+01 1.784956e+01 4.709100e+01 3.516261e+01 1.890772e+01 3.163589e+01 2.001119e+01 1.842960e+01 2.276379e+01 1.399288e+01 1.998755e+01 9.992905e+12 1.414367e+00 8.718419e-01 1.003767e+00 2.351030e+00 2.236765e+00 2.541590e+00 2.055499e+00 1.585382e+00 1.549897e+00 2.279177e+00 1.464890e+00 1.217760e+00 2.198397e+12
<GCONST> 1.487751e+02
<STATE> 3
<MEAN> 26
 4.882785e+00 -5.121642e-01 -4.690322e+00 -1.166250e+01 -1.291942e+01 4.171332e+00 -1.945313e+00 -2.351663e+00 3.261487e+00 5.199883e-04 7.541432e-01 -1.053083e+01 1.887954e+01 5.352303e-03 5.617168e-02 2.799311e-02 3.177128e-02 2.418953e-02 1.218657e-02 9.754882e-02 4.129287e-02 -7.179462e-02 -3.760223e-02 -7.553027e-03 -8.761396e-02 -1.825612e-02
<VARIANCE> 26
 1.215126e+00 4.861054e+00 3.115407e+00 9.377556e+00 6.779984e+00 6.699944e+00 1.466144e+01 1.093913e+01 1.375474e+01 1.544561e+01 6.904773e+00 9.206669e+00 9.992905e+12 1.119182e-01 4.451779e-01 3.266000e-01 5.734901e-01 5.992912e-01 5.783702e-01 1.014256e+00 6.760176e-01 8.016445e-01 1.039284e+00 7.072079e-01 6.886067e-01 2.198397e+12
<GCONST> 1.226784e+02
<STATE> 4
<MEAN> 26
 2.031743e+00 5.928108e+00 3.801195e-02 -5.411918e+00 -7.540415e+00 4.170292e-01 4.032826e+00 9.480503e-01 -3.461792e-01 -2.898638e+00 1.402400e+00 -6.792717e+00 1.703174e+01 -5.844533e-01 5.648038e-01 7.784041e-01 1.215126e+00 9.230410e-01 -1.898214e-01 5.913731e-02 1.352414e-01 5.870361e-02 1.139410e-01 1.018815e-01 8.027509e-01 -1.716721e-01
<VARIANCE> 26
 6.246467e+00 1.010891e+01 1.308622e+01 4.145518e+01 2.038922e+01 1.261782e+01 1.735629e+01 1.431325e+01 1.807863e+01 1.634680e+01 1.460969e+01 1.883550e+01 9.992905e+12 7.469819e-01 7.725039e-01 1.132375e+00 2.868939e+00 1.842180e+00 1.413273e+00 1.232719e+00 1.220817e+00 1.179721e+00 1.400316e+00 1.049796e+00 1.676949e+00 2.198397e+12
<GCONST> 1.420111e+02
<TRANSP> 5
 0.000000e+00 1.000000e+00 0.000000e+00 0.000000e+00 0.000000e+00
 0.000000e+00 7.837301e-01 2.162698e-01 0.000000e+00 0.000000e+00
 0.000000e+00 0.000000e+00 9.268947e-01 7.310529e-02 0.000000e+00
 0.000000e+00 0.000000e+00 0.000000e+00 8.377976e-01 1.622024e-01
 0.000000e+00 0.000000e+00 0.000000e+00 0.000000e+00 0.000000e+00
<ENDHMM>
