~o
<STREAMINFO> 1 26
<VECSIZE> 26<NULLD><MFCC_E_D><DIAGC>
~h "o^"
<BEGINHMM>
<NUMSTATES> 5
<STATE> 2
<MEAN> 26
 4.796550e-01 4.872009e+00 2.818451e-01 -4.381001e+00 -6.802632e+00 8.465202e-01 3.414648e-01 -1.012421e+00 2.959813e+00 -7.892069e-01 3.373094e-01 -4.482620e+00 1.719677e+01 1.509896e+00 -1.242094e+00 -1.484002e+00 -2.202274e+00 -1.926394e+00 2.304159e-01 -2.872574e-01 -7.710728e-01 -8.915238e-02 -4.033441e-01 -2.372250e-01 -1.440982e+00 4.970168e-01
<VARIANCE> 26
 2.185725e+01 1.606897e+01 1.941199e+01 4.332094e+01 3.497052e+01 1.662446e+01 3.354118e+01 2.950127e+01 1.631341e+01 2.739830e+01 1.410775e+01 2.247961e+01 9.992905e+12 2.462241e+00 1.101746e+00 1.255937e+00 2.632624e+00 2.219469e+00 1.408117e+00 2.389268e+00 1.892693e+00 1.450825e+00 2.143096e+00 1.374092e+00 1.610682e+00 2.198397e+12
<GCONST> 1.506280e+02
<STATE> 3
<MEAN> 26
 4.069587e+00 2.932643e-01 -4.804036e+00 -1.191541e+01 -1.214620e+01 3.370800e+00 2.093658e+00 -1.828738e+00 2.391575e+00 -2.019255e+00 -4.643261e-02 -1.081544e+01 1.864401e+01 1.266219e-02 7.649457e-02 5.664544e-02 -1.362555e-02 6.842446e-03 1.470615e-02 7.996790e-02 1.006424e-01 -8.008334e-02 -5.862864e-02 -1.339096e-02 -8.946418e-03 -1.747572e-02
<VARIANCE> 26
 1.405535e+00 1.110077e+01 5.128441e+00 1.085038e+01 9.603231e+00 7.466813e+00 3.727977e+01 1.714934e+01 2.340333e+01 3.182449e+01 9.452549e+00 1.108886e+01 9.992905e+12 9.887979e-02 4.935471e-01 4.253445e-01 8.025774e-01 5.775245e-01 6.700390e-01 1.023992e+00 7.354414e-01 8.023897e-01 1.097807e+00 7.292202e-01 8.133090e-01 2.198397e+12
<GCONST> 1.289242e+02
<STATE> 4
<MEAN> 26
 1.528680e+00 5.080847e+00 5.518993e-01 -4.000436e+00 -7.191311e+00 1.315124e+00 1.797475e+00 -1.797100e-01 1.615355e+00 -1.136207e+00 7.194373e-01 -5.233955e+00 1.719180e+01 -9.978111e-01 7.802973e-01 1.278705e+00 2.459684e+00 1.766577e+00 -3.306573e-01 -2.326359e-01 1.043791e-01 2.566368e-01 3.426946e-01 1.973055e-01 1.357932e+00 -3.232571e-01
<VARIANCE> 26
 8.150127e+00 1.597927e+01 1.468169e+01 4.993775e+01 3.830695e+01 1.244281e+01 2.847836e+01 1.630101e+01 2.169704e+01 2.667648e+01 1.130150e+01 2.228552e+01 9.992905e+12 6.939206e-01 8.357130e-01 8.895414e-01 2.153970e+00 1.988510e+00 1.734032e+00 1.901676e+00 1.529227e+00 1.436150e+00 2.263374e+00 1.227158e+00 1.740442e+00 2.198397e+12
<GCONST> 1.461485e+02
<TRANSP> 5
 0.000000e+00 1.000000e+00 0.000000e+00 0.000000e+00 0.000000e+00
 0.000000e+00 7.666667e-01 2.333333e-01 0.000000e+00 0.000000e+00
 0.000000e+00 0.000000e+00 9.413504e-01 5.864957e-02 0.000000e+00
 0.000000e+00 0.000000e+00 0.000000e+00 6.884817e-01 3.115183e-01
 0.000000e+00 0.000000e+00 0.000000e+00 0.000000e+00 0.000000e+00
<ENDHMM>
