~o
<STREAMINFO> 1 26
<VECSIZE> 26<NULLD><MFCC_E_D><DIAGC>
~h "o~"
<BEGINHMM>
<NUMSTATES> 5
<STATE> 2
<MEAN> 26
 1.811507e+00 3.084005e+00 -1.166584e+00 -8.728581e+00 -9.777020e+00 2.434140e+00 -1.706293e+00 -1.246347e+00 4.115271e+00 -7.157440e-01 2.010242e-01 -5.509566e+00 1.798945e+01 1.143019e+00 -4.668915e-01 -8.989205e-01 -2.296780e+00 -1.336887e+00 5.714923e-01 -2.198794e-01 -7.498180e-02 -1.489566e-01 -8.778558e-01 -3.147190e-01 -6.152862e-01 3.349926e-01
<VARIANCE> 26
 1.816942e+01 2.663263e+01 2.044991e+01 4.691175e+01 3.288486e+01 1.630888e+01 2.120565e+01 2.481283e+01 1.670441e+01 2.985379e+01 1.198734e+01 2.177454e+01 9.992905e+12 2.540710e+00 1.630482e+00 1.506683e+00 2.730713e+00 2.513112e+00 1.769320e+00 2.061592e+00 2.003206e+00 1.600281e+00 3.049357e+00 1.401699e+00 1.825863e+00 2.198397e+12
<GCONST> 1.517825e+02
<STATE> 3
<MEAN> 26
 4.696126e+00 7.356561e+00 1.769582e-01 -1.649635e+01 -1.197314e+01 3.613696e+00 -2.583865e+00 4.706240e+00 2.133335e+00 -1.213682e+01 -1.082554e+00 -4.331580e+00 1.828635e+01 6.777697e-02 2.868830e-01 2.371079e-01 8.492811e-02 1.524398e-02 -9.300993e-02 -1.557143e-01 2.412322e-01 -1.552264e-01 -4.062191e-01 8.372088e-03 1.859855e-01 -2.667467e-02
<VARIANCE> 26
 1.951598e+00 1.196413e+01 1.002842e+01 6.071409e+00 6.574460e+00 9.340878e+00 1.712155e+01 1.469505e+01 8.758191e+00 2.436916e+01 1.018638e+01 1.021049e+01 9.992905e+12 8.945117e-02 5.143548e-01 4.771928e-01 7.543322e-01 5.798252e-01 7.562701e-01 9.031268e-01 1.003249e+00 7.920744e-01 1.594949e+00 8.458525e-01 7.291749e-01 2.198397e+12
<GCONST> 1.277760e+02
<STATE> 4
<MEAN> 26
 2.536359e+00 9.295073e+00 4.185157e+00 -4.877038e+00 -6.671275e+00 1.366872e+00 -2.037680e+00 2.255936e+00 1.089175e-02 -6.598447e+00 9.061516e-01 -1.210785e+00 1.718171e+01 -1.242291e+00 1.038350e-01 7.228543e-01 2.907419e+00 1.965199e+00 3.195298e-02 9.056717e-01 -6.280565e-01 2.794511e-01 1.995584e+00 3.404132e-01 3.091618e-01 -3.389704e-01
<VARIANCE> 26
 9.934220e+00 5.641429e+00 1.023891e+01 6.386387e+01 3.623276e+01 1.165157e+01 1.886785e+01 1.692251e+01 1.160926e+01 3.797919e+01 1.032206e+01 1.269994e+01 9.992905e+12 7.000667e-01 6.699703e-01 8.672900e-01 2.442629e+00 2.315561e+00 1.827574e+00 1.426762e+00 1.923139e+00 1.340059e+00 2.781785e+00 1.184054e+00 1.346993e+00 2.198397e+12
<GCONST> 1.436500e+02
<TRANSP> 5
 0.000000e+00 1.000000e+00 0.000000e+00 0.000000e+00 0.000000e+00
 0.000000e+00 8.371736e-01 1.628264e-01 0.000000e+00 0.000000e+00
 0.000000e+00 0.000000e+00 9.457523e-01 5.424769e-02 0.000000e+00
 0.000000e+00 0.000000e+00 0.000000e+00 7.350000e-01 2.650000e-01
 0.000000e+00 0.000000e+00 0.000000e+00 0.000000e+00 0.000000e+00
<ENDHMM>
