~o
<STREAMINFO> 1 26
<VECSIZE> 26<NULLD><MFCC_E_D><DIAGC>
~h "p"
<BEGINHMM>
<NUMSTATES> 5
<STATE> 2
<MEAN> 26
 -2.094006e+00 7.842904e+00 6.373221e+00 4.361896e+00 -2.184178e+00 2.320594e-01 5.272740e-01 -1.054016e+00 1.318230e+00 -6.813247e-01 1.270201e+00 -2.023851e+00 1.632019e+01 -1.109842e+00 1.159277e+00 7.397630e-01 1.861723e+00 2.922731e+00 1.830932e+00 1.336054e+00 1.175926e+00 -2.461075e-01 4.192159e-01 3.958995e-01 1.212148e+00 -5.208260e-01
<VARIANCE> 26
 1.168001e+01 1.321045e+01 1.814048e+01 3.782837e+01 4.319739e+01 3.109783e+01 1.704590e+01 1.837554e+01 1.505853e+01 1.703698e+01 1.098271e+01 1.719096e+01 9.992905e+12 1.309899e+00 1.978454e+00 2.222833e+00 3.430359e+00 2.463747e+00 3.215114e+00 1.718887e+00 2.036054e+00 2.075047e+00 1.991499e+00 1.362309e+00 1.582912e+00 2.198397e+12
<GCONST> 1.499377e+02
<STATE> 3
<MEAN> 26
 -7.943235e+00 8.444860e+00 6.174562e+00 7.295789e+00 4.908225e+00 7.980008e+00 5.449339e+00 5.267283e+00 4.132739e+00 2.357674e+00 2.723017e+00 1.848693e+00 1.418690e+01 -2.639109e-01 -1.240967e-01 -3.056901e-02 -1.735005e-01 -2.078508e-01 -3.432802e-02 -1.387213e-01 -4.476655e-02 1.283894e-01 8.828376e-02 -3.152782e-02 4.349640e-02 -1.759654e-02
<VARIANCE> 26
 3.140839e+00 3.005838e+00 3.650285e+00 4.779650e+00 6.143521e+00 8.510775e+00 8.555588e+00 1.062571e+01 1.077488e+01 1.080873e+01 1.007114e+01 8.910255e+00 9.992905e+12 8.105859e-01 3.480128e-01 4.815579e-01 6.433250e-01 9.951925e-01 1.756133e+00 1.335775e+00 1.564807e+00 1.363050e+00 1.416582e+00 1.294607e+00 1.064116e+00 2.198397e+12
<GCONST> 1.287982e+02
<STATE> 4
<MEAN> 26
 -4.674378e+00 6.390921e+00 6.045917e+00 2.789943e+00 -2.941235e+00 1.654943e+00 6.156239e-02 -4.391578e-01 3.306881e+00 6.500451e-01 6.601139e-01 -1.482074e+00 1.602624e+01 1.545756e+00 -9.887663e-01 -8.347961e-01 -2.008685e+00 -2.729215e+00 -1.421876e+00 -1.398807e+00 -1.363370e+00 5.915223e-02 -3.510035e-01 -4.042763e-01 -1.350102e+00 6.037863e-01
<VARIANCE> 26
 2.363282e+01 1.637927e+01 1.857950e+01 2.641693e+01 3.250937e+01 1.582739e+01 1.464267e+01 1.633668e+01 1.765172e+01 1.620954e+01 1.256947e+01 2.074902e+01 9.992905e+12 2.039739e+00 1.261921e+00 2.471015e+00 2.749724e+00 2.264295e+00 2.132185e+00 1.902830e+00 1.873323e+00 1.880490e+00 1.901448e+00 1.147894e+00 1.649749e+00 2.198397e+12
<GCONST> 1.488518e+02
<TRANSP> 5
 0.000000e+00 1.000000e+00 0.000000e+00 0.000000e+00 0.000000e+00
 0.000000e+00 7.024129e-01 2.975871e-01 0.000000e+00 0.000000e+00
 0.000000e+00 0.000000e+00 8.676996e-01 1.323004e-01 0.000000e+00
 0.000000e+00 0.000000e+00 0.000000e+00 6.696429e-01 3.303571e-01
 0.000000e+00 0.000000e+00 0.000000e+00 0.000000e+00 0.000000e+00
<ENDHMM>
