~o
<STREAMINFO> 1 26
<VECSIZE> 26<NULLD><MFCC_E_D><DIAGC>
~h "q"
<BEGINHMM>
<NUMSTATES> 5
<STATE> 2
<MEAN> 26
 -4.728190e+00 3.403210e+00 4.004505e+00 -1.072945e-01 -6.678138e+00 -1.672718e+00 -1.250042e+00 -6.732322e-01 6.082315e+00 1.299184e+00 3.019330e-02 -3.812309e+00 1.689292e+01 5.102857e-01 -4.724173e-01 -6.768047e-01 -7.066277e-01 -5.897319e-01 4.561886e-01 3.223557e-02 2.715007e-02 4.600873e-01 6.393468e-01 3.206388e-03 -6.725670e-01 9.737907e-02
<VARIANCE> 26
 3.543141e+01 1.458855e+01 2.336526e+01 2.439819e+01 2.752220e+01 3.000856e+01 2.078283e+01 1.668461e+01 1.585805e+01 2.567591e+01 1.619834e+01 1.521394e+01 9.992905e+12 1.635932e+00 1.130330e+00 1.037959e+00 1.391015e+00 1.901998e+00 2.012769e+00 2.580731e+00 1.319954e+00 1.611516e+00 1.778069e+00 1.701200e+00 1.157392e+00 2.198397e+12
<GCONST> 1.480918e+02
<STATE> 3
<MEAN> 26
 -4.058006e+00 4.348084e+00 3.497266e+00 -3.857588e-01 -5.990499e+00 -1.728298e-01 -1.172545e+00 -9.039744e-01 6.268643e+00 4.215697e+00 1.531981e+00 -4.670785e+00 1.666114e+01 -5.038857e-01 1.111198e+00 1.076545e+00 1.365952e+00 1.515871e+00 3.111404e-01 3.253512e-01 2.092247e-01 -9.447368e-01 8.232125e-02 5.531520e-01 9.936787e-01 -2.866195e-01
<VARIANCE> 26
 2.395570e+01 7.172639e+00 1.266458e+01 1.566867e+01 1.881087e+01 1.390805e+01 1.257951e+01 1.494810e+01 1.828284e+01 1.818378e+01 1.777045e+01 1.375801e+01 9.992905e+12 1.257334e+00 1.004226e+00 1.127515e+00 1.470453e+00 2.101145e+00 1.809898e+00 1.408603e+00 1.512813e+00 1.696234e+00 2.099165e+00 1.631230e+00 1.436970e+00 2.198397e+12
<GCONST> 1.436355e+02
<STATE> 4
<MEAN> 26
 -7.801482e+00 7.787418e+00 6.916435e+00 5.666831e+00 2.275990e+00 4.828292e+00 2.369366e+00 2.021120e+00 3.020658e+00 2.064956e+00 1.994941e+00 8.867024e-01 1.520066e+01 -4.404980e-01 4.109607e-01 1.715205e-01 9.982256e-01 1.469413e+00 1.376867e+00 8.697668e-01 7.768103e-01 -1.734784e-01 -1.653520e-01 3.332356e-02 7.670314e-01 -2.650645e-01
<VARIANCE> 26
 1.768303e+01 2.901240e+00 4.253335e+00 1.123386e+01 1.618846e+01 1.902511e+01 1.409964e+01 1.417157e+01 1.220118e+01 1.129461e+01 1.103993e+01 1.147963e+01 9.992905e+12 1.342509e+00 4.734300e-01 6.946921e-01 1.082294e+00 1.934896e+00 1.440373e+00 1.453746e+00 1.505031e+00 1.692634e+00 1.431823e+00 1.338659e+00 1.493490e+00 2.198397e+12
<GCONST> 1.373837e+02
<TRANSP> 5
 0.000000e+00 1.000000e+00 0.000000e+00 0.000000e+00 0.000000e+00
 0.000000e+00 7.037671e-01 2.962329e-01 0.000000e+00 0.000000e+00
 0.000000e+00 0.000000e+00 6.653772e-01 3.346228e-01 0.000000e+00
 0.000000e+00 0.000000e+00 0.000000e+00 6.865942e-01 3.134058e-01
 0.000000e+00 0.000000e+00 0.000000e+00 0.000000e+00 0.000000e+00
<ENDHMM>
