~o
<STREAMINFO> 1 26
<VECSIZE> 26<NULLD><MFCC_E_D><DIAGC>
~h "r"
<BEGINHMM>
<NUMSTATES> 5
<STATE> 2
<MEAN> 26
 3.442630e-01 1.668934e+00 1.074153e+00 -6.324836e+00 -1.123218e+01 1.071416e+00 -2.027312e+00 -2.324151e+00 5.481616e+00 -1.251753e-01 -1.043739e+00 -6.124820e+00 1.804279e+01 -7.497016e-01 7.725151e-01 5.153947e-01 5.382027e-01 8.093754e-01 9.494013e-02 2.008348e-01 3.672087e-01 -3.062002e-02 5.953164e-01 2.991785e-01 2.364170e-01 -2.268037e-01
<VARIANCE> 26
 2.134942e+01 2.919951e+01 3.697072e+01 4.722316e+01 3.268987e+01 2.713088e+01 1.889896e+01 1.969518e+01 2.132565e+01 3.557708e+01 2.197346e+01 2.885984e+01 9.992905e+12 2.549819e+00 2.194580e+00 2.494149e+00 3.559515e+00 3.291480e+00 1.743579e+00 1.857802e+00 1.952820e+00 1.677348e+00 2.350457e+00 1.823352e+00 2.258083e+00 2.198397e+12
<GCONST> 1.555563e+02
<STATE> 3
<MEAN> 26
 -1.115313e+01 5.423795e+00 5.501591e+00 1.025795e-01 -1.480610e+00 3.441174e+00 1.116623e+00 2.151828e+00 5.859987e+00 3.624869e+00 9.173936e-01 -1.549078e+00 1.558099e+01 -2.709484e-01 1.271265e-01 1.466762e-01 2.202787e-01 3.052638e-01 4.330831e-02 1.035450e-01 8.954646e-02 -1.319574e-01 -1.105897e-01 4.062033e-02 1.865865e-01 -7.172356e-02
<VARIANCE> 26
 3.332804e+01 5.141698e+00 8.770577e+00 1.574689e+01 1.868243e+01 1.177635e+01 1.277558e+01 1.390871e+01 1.367460e+01 1.629124e+01 1.152571e+01 1.634566e+01 9.992905e+12 2.639281e+00 4.644126e-01 6.147824e-01 1.144137e+00 1.943592e+00 1.248396e+00 1.355136e+00 1.662821e+00 1.394387e+00 1.569670e+00 1.229256e+00 1.605405e+00 2.198397e+12
<GCONST> 1.404403e+02
<STATE> 4
<MEAN> 26
 -1.051525e+00 5.296013e+00 2.224123e+00 -5.626287e+00 -7.404637e+00 1.494216e+00 2.161948e+00 3.983671e-01 3.036953e+00 -1.747200e+00 1.945251e-01 -4.155821e+00 1.699510e+01 5.270711e-01 -2.883736e-01 -3.007417e-01 -2.614266e-01 -5.102698e-01 -5.561508e-02 -1.754739e-01 -2.174396e-01 2.842405e-02 -2.002450e-01 -6.690367e-02 -1.941192e-01 1.303521e-01
<VARIANCE> 26
 2.775385e+01 1.298857e+01 3.537179e+01 5.107457e+01 2.942232e+01 2.436157e+01 3.277879e+01 2.498943e+01 1.572089e+01 3.022400e+01 1.351381e+01 2.065480e+01 9.992905e+12 1.962771e+00 1.187660e+00 1.420021e+00 2.594634e+00 3.129587e+00 1.326869e+00 1.876519e+00 1.806916e+00 1.288533e+00 1.636183e+00 1.292890e+00 1.812408e+00 2.198397e+12
<GCONST> 1.509940e+02
<TRANSP> 5
 0.000000e+00 1.000000e+00 0.000000e+00 0.000000e+00 0.000000e+00
 0.000000e+00 7.234333e-01 2.765667e-01 0.000000e+00 0.000000e+00
 0.000000e+00 0.000000e+00 8.376000e-01 1.624000e-01 0.000000e+00
 0.000000e+00 0.000000e+00 0.000000e+00 7.436869e-01 2.563131e-01
 0.000000e+00 0.000000e+00 0.000000e+00 0.000000e+00 0.000000e+00
<ENDHMM>
