~o
<STREAMINFO> 1 26
<VECSIZE> 26<NULLD><MFCC_E_D><DIAGC>
~h "s"
<BEGINHMM>
<NUMSTATES> 5
<STATE> 2
<MEAN> 26
 -1.264087e+01 7.970124e+00 6.549693e+00 1.919728e+00 -1.309962e+00 1.381644e+00 2.142335e+00 2.043878e+00 4.402666e+00 1.781189e+00 1.570480e+00 -2.058623e-01 1.572592e+01 -3.074444e+00 4.063267e-01 -5.504166e-01 2.804450e-01 1.623673e+00 8.622294e-01 5.879952e-01 9.293326e-01 4.726473e-01 8.715945e-01 2.170890e-01 4.543391e-01 -3.043772e-01
<VARIANCE> 26
 4.614811e+01 4.923652e+00 1.893659e+01 2.118952e+01 2.774971e+01 3.089118e+01 1.911099e+01 1.578316e+01 1.622463e+01 2.665401e+01 1.404492e+01 1.503109e+01 9.992905e+12 3.076257e+00 1.047896e+00 1.748828e+00 2.567260e+00 3.227395e+00 2.173759e+00 2.035017e+00 1.833260e+00 1.996248e+00 2.649144e+00 1.561192e+00 1.844491e+00 2.198397e+12
<GCONST> 1.501019e+02
<STATE> 3
<MEAN> 26
 -2.555575e+01 8.889109e+00 1.741169e+00 2.971095e+00 3.950266e+00 2.893090e+00 4.342033e+00 6.065327e+00 7.754832e+00 4.113565e+00 2.757691e+00 1.011110e+00 1.562581e+01 -1.949017e-01 -3.239764e-02 -8.453430e-02 -1.065976e-02 1.416592e-02 -2.242492e-02 7.381021e-02 9.368891e-02 8.588851e-02 3.877983e-02 4.683156e-02 4.057638e-02 1.373286e-02
<VARIANCE> 26
 6.158714e+00 2.883282e+00 6.487612e+00 5.194287e+00 7.535360e+00 1.018024e+01 1.226040e+01 1.050578e+01 1.050095e+01 1.007415e+01 9.802616e+00 9.508311e+00 9.992905e+12 7.255057e-01 2.105452e-01 4.947532e-01 5.404946e-01 7.270920e-01 8.429809e-01 1.041294e+00 1.156412e+00 1.161273e+00 1.146090e+00 1.158343e+00 1.026955e+00 2.198397e+12
<GCONST> 1.278831e+02
<STATE> 4
<MEAN> 26
 -1.964580e+01 7.553591e+00 4.918814e+00 1.251244e+00 7.561136e-01 2.792666e+00 3.496371e+00 4.126987e+00 5.994740e+00 3.583341e+00 2.085444e+00 5.653867e-01 1.518040e+01 2.556373e+00 -2.305737e-01 5.887109e-01 -3.188727e-01 -1.152349e+00 -6.727723e-01 -5.983589e-01 -9.848112e-01 -6.891020e-01 -4.385655e-01 -4.388250e-01 -5.406613e-01 1.387414e-01
<VARIANCE> 26
 1.778561e+01 2.806013e+00 7.715911e+00 7.076395e+00 9.094613e+00 1.303390e+01 1.168209e+01 1.222513e+01 1.229086e+01 1.511944e+01 1.167798e+01 9.974040e+00 9.992905e+12 3.086186e+00 4.212782e-01 9.497726e-01 1.237412e+00 1.785535e+00 1.547006e+00 1.832667e+00 1.919271e+00 1.289638e+00 1.717058e+00 1.255877e+00 1.682051e+00 2.198397e+12
<GCONST> 1.380065e+02
<TRANSP> 5
 0.000000e+00 1.000000e+00 0.000000e+00 0.000000e+00 0.000000e+00
 0.000000e+00 7.925373e-01 2.074627e-01 0.000000e+00 0.000000e+00
 0.000000e+00 0.000000e+00 9.219978e-01 7.800224e-02 0.000000e+00
 0.000000e+00 0.000000e+00 0.000000e+00 7.116182e-01 2.883817e-01
 0.000000e+00 0.000000e+00 0.000000e+00 0.000000e+00 0.000000e+00
<ENDHMM>
