~o
<STREAMINFO> 1 26
<VECSIZE> 26<NULLD><MFCC_E_D><DIAGC>
~h "s^"
<BEGINHMM>
<NUMSTATES> 5
<STATE> 2
<MEAN> 26
 -1.001840e+01 6.587742e+00 8.574689e+00 2.132774e+00 -4.567758e+00 -2.579302e+00 2.434590e+00 1.906549e-01 4.523490e+00 8.490247e-01 8.903530e-01 -9.110107e-01 1.651866e+01 -2.551844e+00 8.908340e-01 -1.683310e-01 3.437873e-01 1.938372e+00 9.208871e-01 1.000303e+00 1.134089e+00 -1.030961e-01 7.346464e-01 4.111870e-01 7.217544e-01 -3.667803e-01
<VARIANCE> 26
 3.636095e+01 1.235316e+01 3.391914e+01 1.978687e+01 3.287590e+01 2.635306e+01 1.959786e+01 1.897009e+01 2.082446e+01 1.888041e+01 1.876951e+01 1.802103e+01 9.992905e+12 2.670899e+00 2.278822e+00 2.574314e+00 1.601355e+00 2.237262e+00 1.591791e+00 1.631346e+00 1.434039e+00 2.758532e+00 1.811582e+00 1.936403e+00 1.606761e+00 2.198397e+12
<GCONST> 1.513200e+02
<STATE> 3
<MEAN> 26
 -2.065786e+01 8.228740e+00 4.750447e+00 2.256571e+00 1.726907e+00 2.089950e+00 5.225388e+00 4.364377e+00 5.480195e+00 3.058729e+00 2.845279e+00 1.347324e+00 1.527947e+01 -1.325036e-01 -3.309399e-02 -3.611983e-02 -1.021932e-01 -2.895447e-02 1.340625e-02 8.261157e-03 1.759251e-03 1.193220e-02 2.852780e-02 2.817219e-02 1.416923e-02 -3.360714e-03
<VARIANCE> 26
 1.060235e+01 2.088323e+00 9.931208e+00 5.409142e+00 8.881656e+00 9.256670e+00 9.596152e+00 1.111702e+01 1.224644e+01 1.272705e+01 1.108313e+01 9.681436e+00 9.992905e+12 8.373537e-01 1.974954e-01 5.678422e-01 6.176594e-01 8.258637e-01 9.717223e-01 1.001986e+00 1.227401e+00 1.322046e+00 1.262954e+00 1.224077e+00 1.023957e+00 2.198397e+12
<GCONST> 1.298995e+02
<STATE> 4
<MEAN> 26
 -1.553134e+01 7.104140e+00 7.096131e+00 1.123266e+00 -1.269972e+00 4.887494e-01 4.193626e+00 2.770394e+00 4.667648e+00 2.463207e+00 1.627335e+00 8.274068e-01 1.556929e+01 2.641399e+00 -5.448050e-01 5.768279e-01 -1.279683e-01 -1.527576e+00 -8.702906e-01 -1.116583e+00 -1.062936e+00 -2.277979e-01 -6.299826e-01 -6.714360e-01 -4.608946e-01 2.628322e-01
<VARIANCE> 26
 1.579970e+01 2.275525e+00 1.113536e+01 8.322203e+00 1.189314e+01 1.063637e+01 1.156556e+01 1.426101e+01 1.286574e+01 1.574937e+01 1.109841e+01 1.023294e+01 9.992905e+12 2.445884e+00 7.302880e-01 1.255481e+00 1.369074e+00 1.939556e+00 1.394199e+00 1.775736e+00 1.734161e+00 1.617113e+00 1.415382e+00 1.220479e+00 1.343211e+00 2.198397e+12
<GCONST> 1.388009e+02
<TRANSP> 5
 0.000000e+00 1.000000e+00 0.000000e+00 0.000000e+00 0.000000e+00
 0.000000e+00 7.774295e-01 2.225706e-01 0.000000e+00 0.000000e+00
 0.000000e+00 0.000000e+00 9.407346e-01 5.926544e-02 0.000000e+00
 0.000000e+00 0.000000e+00 0.000000e+00 6.395939e-01 3.604061e-01
 0.000000e+00 0.000000e+00 0.000000e+00 0.000000e+00 0.000000e+00
<ENDHMM>
