~o
<STREAMINFO> 1 26
<VECSIZE> 26<NULLD><MFCC_E_D><DIAGC>
~h "t"
<BEGINHMM>
<NUMSTATES> 5
<STATE> 2
<MEAN> 26
 -4.348347e+00 7.847465e+00 7.093858e+00 4.487708e+00 -2.089932e+00 1.103368e+00 6.178106e-01 -2.945429e-01 2.500722e+00 -7.113010e-02 1.000295e+00 -1.102049e+00 1.608528e+01 -1.535871e+00 7.952246e-01 4.391699e-01 1.578687e+00 2.799320e+00 1.863258e+00 1.386842e+00 1.213879e+00 -7.369919e-02 7.206484e-01 2.490311e-01 9.875563e-01 -5.307946e-01
<VARIANCE> 26
 2.537471e+01 9.678135e+00 1.356405e+01 2.974730e+01 4.202409e+01 2.786246e+01 1.799463e+01 1.808028e+01 1.706146e+01 1.909028e+01 1.094238e+01 1.800458e+01 9.992905e+12 1.822218e+00 1.616032e+00 2.287770e+00 2.905230e+00 2.245175e+00 3.036705e+00 1.640113e+00 1.939789e+00 1.976427e+00 2.081697e+00 1.409226e+00 1.897829e+00 2.198397e+12
<GCONST> 1.500092e+02
<STATE> 3
<MEAN> 26
 -8.467423e+00 8.369976e+00 5.930597e+00 7.059923e+00 4.918888e+00 8.059481e+00 5.071734e+00 5.315059e+00 4.458078e+00 2.910108e+00 2.619737e+00 1.861688e+00 1.405789e+01 -3.428017e-01 -7.642597e-02 -7.458409e-02 -1.482550e-01 -7.811166e-02 6.180587e-02 -9.463420e-02 -1.814614e-02 5.683709e-02 4.096952e-02 1.119488e-02 7.525321e-02 -4.341348e-02
<VARIANCE> 26
 5.253870e+00 3.264471e+00 4.154784e+00 5.440699e+00 6.996580e+00 8.836861e+00 9.146561e+00 1.131819e+01 1.013934e+01 1.040994e+01 1.077231e+01 9.410636e+00 9.992905e+12 6.984968e-01 4.030438e-01 5.500935e-01 7.501387e-01 9.130017e-01 1.268875e+00 1.318267e+00 1.560584e+00 1.321427e+00 1.325899e+00 1.348376e+00 1.187777e+00 2.198397e+12
<GCONST> 1.298864e+02
<STATE> 4
<MEAN> 26
 -1.292966e+01 6.905197e+00 6.376630e+00 2.392961e+00 -3.676799e-01 3.489954e+00 1.901801e+00 2.251243e+00 4.655613e+00 2.000282e+00 1.149602e+00 3.895785e-01 1.510334e+01 3.071493e-01 -4.153547e-01 -9.162012e-02 -7.510838e-01 -1.021918e+00 -8.280521e-01 -3.855261e-01 -3.300642e-01 1.861416e-01 6.361009e-03 -2.253404e-01 -5.394611e-01 2.382132e-01
<VARIANCE> 26
 2.145859e+01 6.989321e+00 6.248718e+00 1.159564e+01 1.746675e+01 1.572598e+01 1.304022e+01 1.415201e+01 1.463986e+01 1.323448e+01 1.364097e+01 1.460273e+01 9.992905e+12 2.431822e+00 6.472480e-01 9.658061e-01 1.712264e+00 1.981020e+00 1.944495e+00 1.667801e+00 1.736543e+00 1.650501e+00 1.413767e+00 1.413284e+00 1.706724e+00 2.198397e+12
<GCONST> 1.419208e+02
<TRANSP> 5
 0.000000e+00 1.000000e+00 0.000000e+00 0.000000e+00 0.000000e+00
 0.000000e+00 6.596154e-01 3.403846e-01 0.000000e+00 0.000000e+00
 0.000000e+00 0.000000e+00 8.964912e-01 1.035088e-01 0.000000e+00
 0.000000e+00 0.000000e+00 0.000000e+00 8.217523e-01 1.782477e-01
 0.000000e+00 0.000000e+00 0.000000e+00 0.000000e+00 0.000000e+00
<ENDHMM>
