~o
<STREAMINFO> 1 26
<VECSIZE> 26<NULLD><MFCC_E_D><DIAGC>
~h "u"
<BEGINHMM>
<NUMSTATES> 5
<STATE> 2
<MEAN> 26
 -1.717984e+00 7.172426e+00 4.698750e+00 3.040768e+00 -2.921452e+00 -1.513622e+00 1.308434e+00 -3.583427e-01 1.147253e+00 -1.525344e+00 1.771885e+00 -2.205663e+00 1.617693e+01 1.057193e+00 -3.603755e-01 -7.517344e-01 -9.472026e-01 -9.893206e-01 -3.216759e-01 -1.364207e-01 -4.284797e-01 -5.467395e-01 -3.747644e-01 4.311102e-02 -6.968055e-01 2.132860e-01
<VARIANCE> 26
 1.444672e+01 7.657931e+00 1.667264e+01 2.664156e+01 2.803612e+01 2.874648e+01 2.651889e+01 1.936959e+01 1.887760e+01 2.249529e+01 1.406421e+01 1.621511e+01 9.992905e+12 2.239335e+00 5.578396e-01 9.210986e-01 1.971848e+00 2.049140e+00 1.702332e+00 1.812917e+00 1.721886e+00 1.875472e+00 1.973498e+00 1.394885e+00 1.480149e+00 2.198397e+12
<GCONST> 1.465940e+02
<STATE> 3
<MEAN> 26
 2.302261e+00 6.123370e+00 -1.385681e-01 -5.316776e+00 -7.368702e+00 -3.050863e-01 4.374690e+00 1.155058e+00 -1.003085e+00 -3.891370e+00 1.915665e+00 -6.011540e+00 1.683668e+01 -2.993289e-02 -9.135980e-03 4.554388e-02 1.478968e-01 5.653326e-02 -1.092325e-01 3.734027e-02 1.276116e-02 -1.558982e-02 1.346256e-02 6.854491e-02 -6.544025e-03 -4.134511e-03
<VARIANCE> 26
 2.403179e+00 5.181324e+00 5.122373e+00 2.133477e+01 8.815459e+00 1.264527e+01 1.240928e+01 1.435180e+01 1.584525e+01 1.236122e+01 1.639975e+01 1.436240e+01 9.992905e+12 1.849509e-01 2.624862e-01 4.784248e-01 1.170541e+00 7.926917e-01 7.256570e-01 1.044249e+00 8.834803e-01 1.068629e+00 1.218866e+00 1.062448e+00 1.047916e+00 2.198397e+12
<GCONST> 1.301207e+02
<STATE> 4
<MEAN> 26
 -1.385605e+00 8.643058e+00 6.614275e+00 5.954604e+00 -1.757719e+00 -4.688048e+00 2.005981e+00 -1.937819e+00 -1.165689e+00 -2.568748e+00 2.983089e+00 -2.521230e+00 1.630781e+01 -4.614014e-01 1.714418e-01 3.814880e-01 5.022883e-01 5.698370e-01 3.572060e-01 1.101702e-01 1.680747e-01 2.490953e-01 1.726167e-01 -1.035582e-01 3.389545e-01 -9.139331e-02
<VARIANCE> 26
 4.113287e+00 8.022745e+00 1.049145e+01 1.244929e+01 1.545958e+01 2.182802e+01 1.263540e+01 1.242033e+01 1.333858e+01 1.368583e+01 9.611494e+00 1.239249e+01 9.992905e+12 5.212314e-01 5.118705e-01 6.544854e-01 1.026743e+00 1.390269e+00 2.082647e+00 1.342293e+00 1.419683e+00 1.431241e+00 1.461388e+00 1.044556e+00 1.130195e+00 2.198397e+12
<GCONST> 1.362626e+02
<TRANSP> 5
 0.000000e+00 1.000000e+00 0.000000e+00 0.000000e+00 0.000000e+00
 0.000000e+00 7.905199e-01 2.094801e-01 0.000000e+00 0.000000e+00
 0.000000e+00 0.000000e+00 9.147480e-01 8.525202e-02 0.000000e+00
 0.000000e+00 0.000000e+00 0.000000e+00 8.823024e-01 1.176976e-01
 0.000000e+00 0.000000e+00 0.000000e+00 0.000000e+00 0.000000e+00
<ENDHMM>
