~o
<STREAMINFO> 1 26
<VECSIZE> 26<NULLD><MFCC_E_D><DIAGC>
~h "v"
<BEGINHMM>
<NUMSTATES> 5
<STATE> 2
<MEAN> 26
 8.039851e-01 3.182513e+00 -4.611967e-02 -3.993863e+00 -1.059864e+01 -1.512303e+00 -7.510701e-01 -3.195232e+00 4.491780e+00 -8.310295e-01 1.190056e+00 -7.389045e+00 1.790601e+01 -5.067610e-01 7.958818e-01 6.816105e-01 8.603852e-01 5.977569e-01 -3.324315e-01 1.623866e-01 -8.831546e-03 -2.639447e-01 3.547727e-01 2.619345e-01 3.858959e-01 -1.686672e-01
<VARIANCE> 26
 1.176922e+01 2.477749e+01 3.443079e+01 3.415717e+01 3.071114e+01 2.009995e+01 2.943236e+01 2.798633e+01 4.055540e+01 3.418157e+01 1.953806e+01 2.879632e+01 9.992905e+12 7.957627e-01 1.206609e+00 1.348841e+00 1.613874e+00 1.474574e+00 8.990165e-01 1.495300e+00 1.503980e+00 1.378917e+00 1.410415e+00 1.202078e+00 1.500139e+00 2.198397e+12
<GCONST> 1.486723e+02
<STATE> 3
<MEAN> 26
 -5.831578e+00 7.471014e+00 8.502008e+00 4.987919e+00 -4.083651e+00 -3.224199e+00 1.531618e+00 -8.852360e-01 2.482983e+00 -3.638086e-01 2.249379e+00 -1.386577e+00 1.619215e+01 -1.318770e-01 -1.003185e-02 9.453358e-02 7.690661e-02 -1.309575e-02 -1.606293e-01 -1.876292e-02 -8.070038e-02 -9.235653e-02 -5.157153e-02 -2.495468e-02 -2.885246e-02 -3.789754e-03
<VARIANCE> 26
 2.230403e+01 5.525885e+00 2.794150e+01 1.107020e+01 3.461335e+01 3.583311e+01 1.796766e+01 1.649953e+01 1.661129e+01 1.633810e+01 1.227666e+01 1.320825e+01 9.992905e+12 1.332239e+00 4.842085e-01 8.012299e-01 9.576224e-01 1.653893e+00 1.667589e+00 1.759455e+00 1.884722e+00 1.404428e+00 1.514928e+00 1.150823e+00 1.412787e+00 2.198397e+12
<GCONST> 1.429432e+02
<STATE> 4
<MEAN> 26
 -7.471554e-01 4.296546e+00 1.145393e+00 -1.595691e+00 -8.767805e+00 -2.671035e+00 -1.257589e+00 -3.568309e+00 4.145700e+00 4.640189e-01 1.762958e+00 -6.158450e+00 1.743910e+01 7.214546e-01 -9.278283e-01 -9.001505e-01 -1.186752e+00 -1.090452e+00 2.757371e-01 -2.738672e-01 -2.443814e-01 4.755529e-01 1.191593e-01 -1.341073e-01 -5.455804e-01 2.560343e-01
<VARIANCE> 26
 1.785162e+01 1.621545e+01 3.649591e+01 2.872950e+01 2.589221e+01 2.100878e+01 3.035468e+01 2.093356e+01 2.795841e+01 2.632478e+01 1.428524e+01 1.695233e+01 9.992905e+12 1.067137e+00 8.838705e-01 1.265559e+00 1.531505e+00 1.498151e+00 1.383167e+00 1.564783e+00 1.487977e+00 1.292696e+00 1.658493e+00 1.280598e+00 1.221122e+00 2.198397e+12
<GCONST> 1.469905e+02
<TRANSP> 5
 0.000000e+00 1.000000e+00 0.000000e+00 0.000000e+00 0.000000e+00
 0.000000e+00 8.090453e-01 1.909548e-01 0.000000e+00 0.000000e+00
 0.000000e+00 0.000000e+00 8.974359e-01 1.025641e-01 0.000000e+00
 0.000000e+00 0.000000e+00 0.000000e+00 7.724551e-01 2.275449e-01
 0.000000e+00 0.000000e+00 0.000000e+00 0.000000e+00 0.000000e+00
<ENDHMM>
