~o
<STREAMINFO> 1 26
<VECSIZE> 26<NULLD><MFCC_E_D><DIAGC>
~h "w"
<BEGINHMM>
<NUMSTATES> 5
<STATE> 2
<MEAN> 26
 -6.489072e-02 5.682733e+00 2.955494e+00 9.409230e-01 -4.389918e+00 -7.672807e-01 8.272079e-01 -7.717736e-01 1.770328e+00 -8.397118e-01 1.763293e+00 -3.491174e+00 1.664976e+01 4.950102e-01 -1.622006e-02 -3.727303e-01 -6.779156e-01 -5.241477e-01 -1.213483e-01 1.428888e-01 -4.743782e-02 -4.773987e-01 -1.825085e-01 5.323139e-02 -3.506998e-01 7.994372e-02
<VARIANCE> 26
 1.127216e+01 2.076886e+01 1.884601e+01 3.586006e+01 3.861290e+01 2.785362e+01 2.701279e+01 1.700764e+01 2.579275e+01 1.350079e+01 1.716325e+01 2.530447e+01 9.992905e+12 9.834418e-01 8.381407e-01 1.342669e+00 2.141101e+00 1.948532e+00 1.584080e+00 2.082591e+00 1.379387e+00 1.598231e+00 1.387408e+00 1.492960e+00 1.394934e+00 2.198397e+12
<GCONST> 1.477203e+02
<STATE> 3
<MEAN> 26
 3.476910e+00 5.203521e+00 -1.694885e+00 -1.005119e+01 -1.011293e+01 2.086791e+00 4.430428e+00 1.946261e+00 -6.605374e-01 -5.506441e+00 2.510862e-01 -7.205266e+00 1.741448e+01 8.343570e-02 -9.330150e-02 -1.422161e-01 -2.656896e-01 -1.680215e-01 1.019152e-01 3.339000e-02 -5.760427e-03 -3.251924e-02 -1.472285e-01 -3.182225e-02 -7.140415e-02 3.382206e-02
<VARIANCE> 26
 1.752679e+00 5.986369e+00 6.018375e+00 1.265138e+01 8.075270e+00 7.064631e+00 1.767205e+01 1.010327e+01 1.156598e+01 1.522802e+01 1.139310e+01 1.529184e+01 9.992905e+12 1.311621e-01 4.567628e-01 5.108785e-01 8.731480e-01 6.957164e-01 6.064437e-01 1.105237e+00 8.383558e-01 9.771389e-01 1.241048e+00 8.481299e-01 9.181419e-01 2.198397e+12
<GCONST> 1.277613e+02
<STATE> 4
<MEAN> 26
 3.850111e+00 5.373192e-01 -3.475563e+00 -8.223267e+00 -1.228900e+01 1.303070e+00 -1.073774e+00 -1.810400e+00 2.556421e+00 -2.433981e-01 3.638138e-01 -9.470763e+00 1.828638e+01 8.593958e-04 -1.178463e+00 -1.360726e-01 7.069792e-01 -4.511892e-01 -4.428573e-01 -1.193197e+00 -4.770119e-01 9.134016e-01 1.004438e+00 -1.453601e-01 -6.936859e-01 2.216402e-01
<VARIANCE> 26
 2.404131e+00 1.370140e+01 1.124072e+01 3.038843e+01 1.017450e+01 1.566366e+01 2.625603e+01 7.841276e+00 1.306954e+01 1.616748e+01 1.350476e+01 1.474157e+01 9.992905e+12 3.090112e-01 9.274731e-01 9.803465e-01 1.255525e+00 1.095765e+00 9.736554e-01 1.921148e+00 1.220966e+00 1.098343e+00 2.390575e+00 1.497245e+00 1.609122e+00 2.198397e+12
<GCONST> 1.382303e+02
<TRANSP> 5
 0.000000e+00 1.000000e+00 0.000000e+00 0.000000e+00 0.000000e+00
 0.000000e+00 8.759305e-01 1.240695e-01 0.000000e+00 0.000000e+00
 0.000000e+00 0.000000e+00 8.964803e-01 1.035197e-01 0.000000e+00
 0.000000e+00 0.000000e+00 0.000000e+00 6.710526e-01 3.289474e-01
 0.000000e+00 0.000000e+00 0.000000e+00 0.000000e+00 0.000000e+00
<ENDHMM>
