~o
<STREAMINFO> 1 26
<VECSIZE> 26<NULLD><MFCC_E_D><DIAGC>
~h "x"
<BEGINHMM>
<NUMSTATES> 5
<STATE> 2
<MEAN> 26
 -2.871912e+00 2.669541e+00 2.067341e+00 -1.209788e+00 -7.996597e+00 -1.760546e+00 -3.709013e+00 -2.705838e+00 6.094394e+00 1.035729e+00 -6.153184e-01 -4.642527e+00 1.755505e+01 1.430786e+00 -1.218750e+00 -1.536333e+00 -1.497571e+00 -1.830643e+00 -2.594600e-01 -8.141634e-01 -1.079164e+00 7.426870e-01 4.380695e-01 -1.531796e-01 -1.392271e+00 5.245491e-01
<VARIANCE> 26
 4.567386e+01 1.722400e+01 2.770760e+01 3.536076e+01 4.022830e+01 3.224651e+01 3.700637e+01 2.255526e+01 1.751465e+01 2.966403e+01 1.265307e+01 2.296409e+01 9.992905e+12 3.634409e+00 9.255195e-01 1.625881e+00 2.117090e+00 3.337103e+00 2.555987e+00 2.923416e+00 2.348591e+00 1.667773e+00 1.910211e+00 1.413072e+00 1.823271e+00 2.198397e+12
<GCONST> 1.541358e+02
<STATE> 3
<MEAN> 26
 1.866935e+00 -1.335695e+00 -6.432467e+00 -6.819851e+00 -1.470758e+01 -1.139369e+00 -4.393179e+00 -9.003629e+00 1.104163e+01 5.029946e+00 2.532174e+00 -1.137609e+01 1.970404e+01 2.744462e-02 -4.880304e-02 1.181437e-02 -5.279414e-02 -2.678388e-02 6.286898e-02 -3.526934e-02 -1.372292e-02 5.611733e-02 2.793868e-02 3.319734e-02 -7.004548e-03 5.331007e-03
<VARIANCE> 26
 1.541838e+00 5.723480e+00 4.966398e+00 6.530799e+00 6.479539e+00 7.598805e+00 6.514075e+00 8.328712e+00 7.144482e+00 8.958491e+00 1.066625e+01 5.750358e+00 9.992905e+12 1.308508e-01 3.149909e-01 4.470707e-01 4.802336e-01 5.642444e-01 6.529273e-01 6.917585e-01 6.427540e-01 6.916755e-01 7.281012e-01 7.230077e-01 5.285568e-01 2.198397e+12
<GCONST> 1.197744e+02
<STATE> 4
<MEAN> 26
 9.297833e-02 3.097620e+00 2.216823e+00 -7.055468e-01 -7.773515e+00 -7.928152e-01 -3.772952e+00 -3.742868e+00 5.955896e+00 1.576061e+00 7.178758e-01 -5.481875e+00 1.771167e+01 -9.506305e-01 1.444702e+00 1.562336e+00 1.917063e+00 2.039136e+00 5.098207e-02 9.341275e-01 1.017338e+00 -9.845467e-01 -4.888589e-01 9.034595e-02 1.080389e+00 -4.797233e-01
<VARIANCE> 26
 1.194159e+01 2.747828e+01 2.543377e+01 4.439668e+01 5.198738e+01 2.190467e+01 3.256284e+01 1.825489e+01 2.630801e+01 2.992846e+01 1.798151e+01 1.972994e+01 9.992905e+12 8.202198e-01 1.838517e+00 1.562835e+00 2.618356e+00 2.823008e+00 2.778288e+00 2.645531e+00 1.443046e+00 2.192971e+00 2.230862e+00 1.541171e+00 1.336354e+00 2.198397e+12
<GCONST> 1.524538e+02
<TRANSP> 5
 0.000000e+00 1.000000e+00 0.000000e+00 0.000000e+00 0.000000e+00
 0.000000e+00 7.934186e-01 2.065814e-01 0.000000e+00 0.000000e+00
 0.000000e+00 0.000000e+00 9.335685e-01 6.643151e-02 0.000000e+00
 0.000000e+00 0.000000e+00 0.000000e+00 7.257282e-01 2.742718e-01
 0.000000e+00 0.000000e+00 0.000000e+00 0.000000e+00 0.000000e+00
<ENDHMM>
