~o
<STREAMINFO> 1 26
<VECSIZE> 26<NULLD><MFCC_E_D><DIAGC>
~h "x^"
<BEGINHMM>
<NUMSTATES> 5
<STATE> 2
<MEAN> 26
 -2.224707e+00 1.915835e+00 2.797040e+00 -1.453758e+00 -8.890037e+00 -7.040467e-01 -4.170144e+00 -2.785287e+00 6.705055e+00 1.535235e+00 -6.403812e-01 -4.831442e+00 1.772280e+01 1.678197e+00 -1.754125e+00 -1.857117e+00 -1.890123e+00 -2.153451e+00 2.926541e-02 -1.077696e+00 -1.009735e+00 1.048287e+00 4.823719e-01 -3.807501e-01 -1.760795e+00 6.231542e-01
<VARIANCE> 26
 3.091154e+01 2.486504e+01 3.703003e+01 4.166818e+01 4.256944e+01 3.243215e+01 3.191149e+01 2.014251e+01 1.815132e+01 2.964622e+01 1.379636e+01 2.395184e+01 9.992905e+12 2.168809e+00 1.118180e+00 1.884494e+00 2.507967e+00 3.217542e+00 2.616014e+00 3.294218e+00 2.257856e+00 1.532518e+00 1.764418e+00 1.472182e+00 1.418062e+00 2.198397e+12
<GCONST> 1.542138e+02
<STATE> 3
<MEAN> 26
 2.220114e+00 -5.746309e+00 -5.649051e+00 -8.183634e+00 -1.566365e+01 1.282522e+00 -4.231030e+00 -5.546819e+00 1.274704e+01 1.920519e+00 -2.512204e+00 -1.174644e+01 1.995577e+01 -3.567794e-03 -5.733541e-02 3.412641e-02 -2.340203e-02 -2.096758e-03 2.718159e-02 4.249509e-02 4.603117e-02 5.069171e-03 -8.706934e-02 -3.489465e-02 2.307502e-02 -9.050344e-03
<VARIANCE> 26
 1.142419e+00 3.876009e+00 5.446252e+00 5.806127e+00 4.508340e+00 5.757802e+00 6.176819e+00 7.675413e+00 6.924927e+00 8.956926e+00 9.858376e+00 5.683343e+00 9.992905e+12 1.104976e-01 3.200975e-01 4.073080e-01 4.251427e-01 4.569203e-01 5.285421e-01 6.197242e-01 6.041132e-01 6.723807e-01 6.374105e-01 7.407787e-01 5.356498e-01 2.198397e+12
<GCONST> 1.170766e+02
<STATE> 4
<MEAN> 26
 3.499073e-01 2.008010e+00 1.718621e+00 -1.508711e+00 -8.711881e+00 -7.020792e-01 -3.209038e+00 -3.264314e+00 6.170434e+00 9.607457e-01 3.366630e-01 -5.634448e+00 1.786752e+01 -8.705501e-01 2.130858e+00 1.558026e+00 2.122113e+00 2.251538e+00 -2.128456e-01 1.012910e+00 6.413752e-01 -1.248817e+00 -1.684941e-01 4.356911e-01 1.415966e+00 -5.176661e-01
<VARIANCE> 26
 9.078509e+00 4.173590e+01 2.672400e+01 4.806801e+01 5.019469e+01 1.975501e+01 1.673603e+01 1.354928e+01 2.896958e+01 2.007137e+01 1.948575e+01 2.293816e+01 9.992905e+12 8.435578e-01 2.599797e+00 1.583176e+00 3.066100e+00 3.082246e+00 2.699005e+00 2.035459e+00 1.712816e+00 1.834965e+00 1.909212e+00 1.794813e+00 1.712558e+00 2.198397e+12
<GCONST> 1.521323e+02
<TRANSP> 5
 0.000000e+00 1.000000e+00 0.000000e+00 0.000000e+00 0.000000e+00
 0.000000e+00 7.551546e-01 2.448454e-01 0.000000e+00 0.000000e+00
 0.000000e+00 0.000000e+00 9.413218e-01 5.867819e-02 0.000000e+00
 0.000000e+00 0.000000e+00 0.000000e+00 6.905537e-01 3.094462e-01
 0.000000e+00 0.000000e+00 0.000000e+00 0.000000e+00 0.000000e+00
<ENDHMM>
