~o
<STREAMINFO> 1 26
<VECSIZE> 26<NULLD><MFCC_E_D><DIAGC>
~h "x~"
<BEGINHMM>
<NUMSTATES> 5
<STATE> 2
<MEAN> 26
 -1.382327e+00 1.269600e+00 1.762934e+00 -2.532189e+00 -7.773284e+00 8.996292e-01 -2.912234e+00 -2.100420e+00 6.441112e+00 1.371327e+00 -1.218145e+00 -5.502421e+00 1.749318e+01 1.459021e+00 -2.358748e+00 -1.736389e+00 -2.127566e+00 -2.279554e+00 -1.114904e-01 -8.943688e-01 -4.386832e-01 1.114691e+00 6.183470e-02 -8.559268e-01 -1.850507e+00 6.784262e-01
<VARIANCE> 26
 1.874793e+01 3.584812e+01 2.392539e+01 4.287365e+01 4.602694e+01 1.595513e+01 1.856331e+01 1.515114e+01 2.067248e+01 1.895209e+01 1.768131e+01 2.296741e+01 9.992905e+12 1.488845e+00 1.757457e+00 1.401264e+00 2.354356e+00 2.255097e+00 2.682904e+00 2.289331e+00 2.098845e+00 1.681029e+00 1.698308e+00 1.482075e+00 1.134059e+00 2.198397e+12
<GCONST> 1.508891e+02
<STATE> 3
<MEAN> 26
 1.958769e+00 -7.038601e+00 -3.920484e+00 -7.174180e+00 -1.163556e+01 3.369884e+00 -4.046164e+00 -1.753805e+00 1.057715e+01 -2.599000e+00 -6.960399e+00 -1.055700e+01 1.925251e+01 4.757592e-02 1.461931e-01 6.912371e-02 1.470500e-01 2.371597e-01 6.713897e-03 -1.893173e-02 -3.506203e-02 -8.071729e-02 -2.884489e-01 -3.937156e-02 1.376357e-01 -4.182609e-02
<VARIANCE> 26
 3.573925e+00 9.781238e+00 6.802891e+00 8.076708e+00 1.282469e+01 1.528596e+01 1.088461e+01 7.657272e+00 9.013022e+00 2.153287e+01 2.198904e+01 1.045910e+01 9.992905e+12 1.711476e-01 6.532966e-01 4.663846e-01 6.101944e-01 6.333607e-01 9.905354e-01 8.254387e-01 6.282749e-01 5.673172e-01 7.988485e-01 1.068182e+00 5.894239e-01 2.198397e+12
<GCONST> 1.282799e+02
<STATE> 4
<MEAN> 26
 -5.864037e-01 5.562599e+00 4.850956e+00 3.789315e+00 -3.424310e+00 -2.146115e+00 -1.463913e+00 -2.133317e+00 2.972458e+00 -3.389882e+00 2.178677e-01 -3.258548e+00 1.690329e+01 -7.236837e-01 1.261468e+00 9.811121e-01 1.307123e+00 1.093848e+00 -6.025082e-02 7.228658e-01 4.464206e-01 -6.569009e-01 6.046574e-01 6.689346e-01 7.123660e-01 -3.102396e-01
<VARIANCE> 26
 9.242222e+00 2.993884e+01 2.448411e+01 2.955007e+01 3.199379e+01 2.823448e+01 3.160450e+01 1.467617e+01 2.672356e+01 1.635950e+01 1.833765e+01 1.685923e+01 9.992905e+12 5.711643e-01 1.864434e+00 1.396356e+00 1.737252e+00 1.661719e+00 3.742671e+00 1.778614e+00 1.519058e+00 2.016625e+00 1.479201e+00 1.536240e+00 1.128855e+00 2.198397e+12
<GCONST> 1.485174e+02
<TRANSP> 5
 0.000000e+00 1.000000e+00 0.000000e+00 0.000000e+00 0.000000e+00
 0.000000e+00 7.749196e-01 2.250804e-01 0.000000e+00 0.000000e+00
 0.000000e+00 0.000000e+00 9.529886e-01 4.701142e-02 0.000000e+00
 0.000000e+00 0.000000e+00 0.000000e+00 8.585858e-01 1.414141e-01
 0.000000e+00 0.000000e+00 0.000000e+00 0.000000e+00 0.000000e+00
<ENDHMM>
