~o
<STREAMINFO> 1 26
<VECSIZE> 26<NULLD><MFCC_E_D><DIAGC>
~h "y"
<BEGINHMM>
<NUMSTATES> 5
<STATE> 2
<MEAN> 26
 -5.215380e+00 6.626659e+00 1.025228e+01 6.203814e+00 -6.846025e+00 -5.752583e+00 -5.005166e-01 -2.352971e+00 2.917987e+00 -3.074239e+00 5.956829e-01 -1.244642e+00 1.673101e+01 1.117755e+00 -3.434987e-01 6.204214e-01 2.992971e-01 -1.257804e+00 -1.554304e+00 -1.485150e+00 -7.881699e-01 1.423066e-01 -1.322508e+00 -3.373935e-01 -3.658159e-02 3.353674e-01
<VARIANCE> 26
 1.960041e+01 6.319006e+00 2.691143e+01 1.313858e+01 3.408448e+01 4.300512e+01 3.075269e+01 2.148137e+01 1.557020e+01 2.495698e+01 1.398252e+01 1.878832e+01 9.992905e+12 1.436378e+00 5.786650e-01 1.124912e+00 8.819048e-01 2.561291e+00 2.464962e+00 2.628384e+00 1.634281e+00 1.601467e+00 1.512317e+00 1.289502e+00 1.399847e+00 2.198397e+12
<GCONST> 1.467231e+02
<STATE> 3
<MEAN> 26
 -1.306056e+00 4.929081e+00 1.366693e+01 7.009080e+00 -1.131460e+01 -1.221946e+01 -1.048868e+01 -5.002872e+00 6.202013e+00 -1.153019e+01 -1.236749e+00 5.144161e-01 1.817650e+01 4.594976e-02 1.452224e-02 -2.315485e-02 1.549115e-02 2.616125e-02 -5.499002e-02 -2.168252e-02 -6.110520e-03 9.306420e-03 -3.353975e-02 1.851353e-02 -3.220146e-02 1.908891e-03
<VARIANCE> 26
 4.922399e+00 4.159938e+00 7.834628e+00 7.117251e+00 1.364345e+01 8.359867e+00 2.204245e+01 8.696944e+00 1.343057e+01 1.070394e+01 1.032133e+01 1.079988e+01 9.992905e+12 2.268794e-01 2.620398e-01 5.118428e-01 5.239296e-01 7.903118e-01 7.865508e-01 1.839716e+00 8.270453e-01 1.028868e+00 1.093501e+00 8.680486e-01 7.501701e-01 2.198397e+12
<GCONST> 1.283458e+02
<STATE> 4
<MEAN> 26
 -2.747050e+00 6.829436e+00 9.788786e+00 6.577868e+00 -5.638020e+00 -6.121899e+00 -9.731195e-01 -2.783122e+00 1.774968e+00 -4.214281e+00 1.513095e+00 -1.335590e+00 1.679391e+01 -2.311072e-01 2.788803e-01 -5.425669e-01 -1.849910e-01 1.032025e+00 1.319328e+00 9.526948e-01 4.935521e-01 -2.313121e-01 8.240607e-01 1.625270e-01 -6.604210e-02 -1.739244e-01
<VARIANCE> 26
 1.337053e+01 1.736605e+01 2.912792e+01 2.100651e+01 4.168164e+01 5.446325e+01 3.885757e+01 2.170658e+01 2.319524e+01 2.448218e+01 1.360160e+01 1.413066e+01 9.992905e+12 9.012792e-01 1.279288e+00 1.275413e+00 1.504525e+00 2.730257e+00 3.212857e+00 2.360694e+00 1.438697e+00 1.665349e+00 1.896698e+00 1.228242e+00 1.258238e+00 2.198397e+12
<GCONST> 1.498399e+02
<TRANSP> 5
 0.000000e+00 1.000000e+00 0.000000e+00 0.000000e+00 0.000000e+00
 0.000000e+00 7.793210e-01 2.206790e-01 0.000000e+00 0.000000e+00
 0.000000e+00 0.000000e+00 9.296606e-01 7.033940e-02 0.000000e+00
 0.000000e+00 0.000000e+00 0.000000e+00 7.991573e-01 2.008427e-01
 0.000000e+00 0.000000e+00 0.000000e+00 0.000000e+00 0.000000e+00
<ENDHMM>
