~o
<STREAMINFO> 1 26
<VECSIZE> 26<NULLD><MFCC_E_D><DIAGC>
~h "z"
<BEGINHMM>
<NUMSTATES> 5
<STATE> 2
<MEAN> 26
 -5.945372e+00 6.077098e+00 8.667974e+00 3.800399e-01 -9.055895e+00 -4.880675e+00 -1.109956e-01 -3.091819e+00 3.284655e+00 -1.627284e-01 1.905607e+00 -3.506375e+00 1.728022e+01 -9.794809e-01 4.998125e-01 1.887169e-01 4.035010e-01 7.860032e-01 2.699340e-03 4.130117e-01 1.978517e-01 -1.373835e-02 5.947323e-01 1.140178e-01 1.929875e-01 -1.549757e-01
<VARIANCE> 26
 3.685667e+01 1.891233e+01 6.997916e+01 3.964124e+01 2.840191e+01 3.828466e+01 2.701598e+01 1.931643e+01 3.002095e+01 3.415810e+01 1.969068e+01 2.591564e+01 9.992905e+12 2.146038e+00 1.574986e+00 1.191283e+00 1.441485e+00 2.744577e+00 1.653382e+00 2.028583e+00 1.863276e+00 1.459685e+00 1.818414e+00 1.345013e+00 1.177385e+00 2.198397e+12
<GCONST> 1.530647e+02
<STATE> 3
<MEAN> 26
 -1.344196e+01 8.821603e+00 4.584037e+00 1.993303e+00 -1.782053e-01 -9.921204e-01 3.564878e+00 1.930004e+00 4.367751e+00 3.215648e+00 1.422974e+00 -1.527598e+00 1.578745e+01 -8.980508e-02 -1.320941e-02 -1.060584e-01 -3.755106e-02 -9.833293e-04 -5.028664e-02 -3.659787e-02 2.625428e-02 2.535961e-02 8.889784e-04 -6.469200e-02 -3.023738e-02 -1.038155e-02
<VARIANCE> 26
 1.389658e+01 4.099726e+00 1.156605e+01 7.405100e+00 1.128301e+01 1.410385e+01 1.094277e+01 1.419642e+01 1.153710e+01 1.291297e+01 1.103241e+01 1.102676e+01 9.992905e+12 1.161244e+00 3.171906e-01 6.809853e-01 7.113758e-01 1.233665e+00 1.045636e+00 1.270739e+00 1.600331e+00 1.274007e+00 1.217159e+00 1.318336e+00 1.241827e+00 2.198397e+12
<GCONST> 1.347222e+02
<STATE> 4
<MEAN> 26
 -5.933043e+00 5.163295e+00 2.213163e+00 -1.738430e+00 -7.732878e+00 -1.888241e+00 -2.425490e+00 -3.319542e+00 6.740675e+00 4.981134e+00 -2.589157e-01 -6.263530e+00 1.710749e+01 1.334778e+00 -8.698407e-01 -4.807103e-01 -6.918251e-01 -1.155782e+00 1.938078e-01 -7.579839e-01 -6.653683e-01 5.203840e-01 3.322617e-02 -2.813069e-01 -5.907872e-01 2.764176e-01
<VARIANCE> 26
 2.353268e+01 1.451957e+01 3.613638e+01 1.736275e+01 2.641686e+01 2.110014e+01 2.294109e+01 2.068296e+01 1.606848e+01 2.236057e+01 1.077962e+01 2.217407e+01 9.992905e+12 2.537551e+00 1.449244e+00 1.166995e+00 1.307607e+00 3.027032e+00 1.409786e+00 2.700196e+00 1.866600e+00 1.602264e+00 1.406962e+00 1.337012e+00 1.556613e+00 2.198397e+12
<GCONST> 1.485974e+02
<TRANSP> 5
 0.000000e+00 1.000000e+00 0.000000e+00 0.000000e+00 0.000000e+00
 0.000000e+00 8.640777e-01 1.359223e-01 0.000000e+00 0.000000e+00
 0.000000e+00 0.000000e+00 9.034483e-01 9.655172e-02 0.000000e+00
 0.000000e+00 0.000000e+00 0.000000e+00 7.826087e-01 2.173913e-01
 0.000000e+00 0.000000e+00 0.000000e+00 0.000000e+00 0.000000e+00
<ENDHMM>
