~o
<STREAMINFO> 1 26
<VECSIZE> 26<NULLD><MFCC_E_D><DIAGC>
~h "z^"
<BEGINHMM>
<NUMSTATES> 5
<STATE> 2
<MEAN> 26
 -5.441991e+00 5.506549e+00 9.033957e+00 3.613424e+00 -6.783491e+00 -3.777982e+00 1.341665e+00 -8.969544e-01 3.752723e+00 -1.167015e+00 4.872268e-01 -1.086750e+00 1.670052e+01 -9.867594e-01 4.407030e-01 1.361964e+00 1.081562e-01 -4.747191e-01 -1.073392e+00 4.075590e-01 -5.226372e-01 -5.728053e-01 -4.531112e-02 3.522820e-01 3.936751e-01 4.848434e-02
<VARIANCE> 26
 2.319298e+01 1.934973e+01 3.026636e+01 1.883225e+01 5.098621e+01 3.687288e+01 2.465997e+01 1.762978e+01 2.025701e+01 1.740890e+01 2.051560e+01 1.876721e+01 9.992905e+12 2.184878e+00 1.646563e+00 1.815212e+00 1.354829e+00 3.477018e+00 2.277473e+00 2.532835e+00 1.715347e+00 2.096553e+00 1.554120e+00 1.788764e+00 1.891247e+00 2.198397e+12
<GCONST> 1.521395e+02
<STATE> 3
<MEAN> 26
 -1.307784e+01 9.117171e+00 1.814392e+01 4.312158e+00 -7.477180e+00 -9.492135e+00 4.733912e+00 -4.530596e+00 -1.510272e+00 -6.505144e-01 3.947309e+00 7.307490e-01 1.689023e+01 -8.773109e-02 2.012471e-02 7.328406e-03 -3.366543e-03 1.311294e-01 1.461464e-02 5.437874e-03 3.964018e-02 -3.682728e-02 2.214299e-03 2.910639e-02 -1.947030e-02 -1.085872e-02
<VARIANCE> 26
 2.210602e+00 2.809554e+00 1.012586e+01 8.152280e+00 1.335801e+01 1.016346e+01 1.001449e+01 1.350420e+01 1.191102e+01 1.156561e+01 1.158127e+01 1.035606e+01 9.992905e+12 3.840443e-01 3.827544e-01 6.802073e-01 7.826194e-01 1.344726e+00 1.008713e+00 1.228289e+00 1.195274e+00 1.404521e+00 1.204572e+00 1.148154e+00 1.023896e+00 2.198397e+12
<GCONST> 1.307352e+02
<STATE> 4
<MEAN> 26
 -7.169459e+00 3.681121e+00 1.091253e+01 7.071407e-01 -1.091317e+01 -6.332570e+00 6.134697e-01 -2.163046e+00 5.353944e+00 -1.660451e+00 1.445651e-01 -9.828384e-01 1.737693e+01 1.705054e+00 -1.481754e+00 -1.883005e+00 -7.876229e-01 -8.846873e-01 7.589137e-01 -1.030332e+00 2.719820e-01 1.298430e+00 -1.470272e-01 -9.871054e-01 -8.239709e-01 2.339982e-01
<VARIANCE> 26
 2.999188e+01 2.343150e+01 5.830950e+01 2.255383e+01 2.698639e+01 2.689764e+01 2.885892e+01 1.179139e+01 2.146255e+01 1.919440e+01 2.064654e+01 2.668423e+01 9.992905e+12 1.467173e+00 1.639776e+00 2.544892e+00 1.380397e+00 2.001601e+00 2.228297e+00 2.082611e+00 1.231564e+00 1.753468e+00 1.599197e+00 2.197550e+00 2.056410e+00 2.198397e+12
<GCONST> 1.517337e+02
<TRANSP> 5
 0.000000e+00 1.000000e+00 0.000000e+00 0.000000e+00 0.000000e+00
 0.000000e+00 8.685185e-01 1.314815e-01 0.000000e+00 0.000000e+00
 0.000000e+00 0.000000e+00 9.097840e-01 9.021601e-02 0.000000e+00
 0.000000e+00 0.000000e+00 0.000000e+00 6.899563e-01 3.100437e-01
 0.000000e+00 0.000000e+00 0.000000e+00 0.000000e+00 0.000000e+00
<ENDHMM>
