~o
<STREAMINFO> 1 26
<VECSIZE> 26<NULLD><MFCC_E_D><DIAGC>
~h "_"
<BEGINHMM>
<NUMSTATES> 5
<STATE> 2
<MEAN> 26
 -2.870043e+00 3.967567e+00 4.244034e+00 -8.968692e-01 -7.877950e+00 -1.286836e+00 -4.402921e-01 -2.219073e+00 1.851626e+00 -1.601186e+00 -3.191293e+00 -4.618322e+00 1.721637e+01 -4.602253e-01 1.485303e+00 6.619973e-01 1.982888e+00 2.651106e+00 1.315783e+00 4.088341e-01 1.090223e+00 -2.913542e-01 9.991201e-01 1.677211e+00 8.964317e-01 -4.604608e-01
<VARIANCE> 26
 3.189973e+01 2.126899e+01 3.463137e+01 5.497017e+01 4.909880e+01 3.112642e+01 1.861638e+01 2.123675e+01 2.696013e+01 2.333968e+01 1.742011e+01 3.501414e+01 9.992905e+12 1.051342e+00 9.632167e-01 2.827191e+00 3.517851e+00 2.300403e+00 2.896579e+00 1.594137e+00 1.302067e+00 1.656400e+00 1.907946e+00 1.684404e+00 2.981212e+00 2.198397e+12
<GCONST> 1.540785e+02
<STATE> 3
<MEAN> 26
 -5.333772e+00 7.976460e+00 6.271356e+00 4.983962e+00 -9.364930e-01 8.282893e-01 1.000426e+00 -4.471242e-01 1.639493e+00 2.224350e-01 1.373891e+00 -9.566669e-01 1.609180e+01 -5.588708e-01 1.955806e-01 -3.465843e-01 6.796480e-01 1.532881e+00 1.400011e+00 8.170812e-01 5.850590e-01 2.612634e-01 6.536632e-01 6.428517e-01 4.401603e-01 -2.572162e-01
<VARIANCE> 26
 1.460362e+01 4.187687e+00 1.791639e+01 2.341333e+01 2.878884e+01 2.922481e+01 1.356597e+01 1.737432e+01 1.504818e+01 1.674503e+01 1.661959e+01 1.364947e+01 9.992905e+12 2.450222e+00 8.926754e-01 1.026758e+00 2.783999e+00 4.070437e+00 3.353422e+00 2.819708e+00 2.484321e+00 2.455949e+00 2.856590e+00 2.255812e+00 1.801351e+00 2.198397e+12
<GCONST> 1.491836e+02
<STATE> 4
<MEAN> 26
 -8.279844e+00 7.624846e+00 5.879817e+00 6.535226e+00 3.627257e+00 6.390086e+00 4.457541e+00 3.717585e+00 2.963716e+00 2.327149e+00 2.754551e+00 9.625819e-01 1.459963e+01 3.155922e-01 -1.640176e-02 -1.888960e-01 -2.759921e-01 -3.335902e-01 -1.380837e-01 4.608096e-02 -1.543065e-02 -1.921043e-01 -2.655742e-01 -2.089864e-01 8.823739e-02 -2.125907e-02
<VARIANCE> 26
 1.258001e+01 3.698265e+00 5.360201e+00 9.243424e+00 1.741504e+01 1.595727e+01 1.329098e+01 1.159262e+01 1.065678e+01 1.646960e+01 9.760483e+00 9.736992e+00 9.992905e+12 2.095140e+00 6.002036e-01 7.809794e-01 2.224624e+00 2.404345e+00 1.604977e+00 1.561476e+00 1.913988e+00 1.331208e+00 2.691312e+00 1.168763e+00 1.290082e+00 2.198397e+12
<GCONST> 1.391795e+02
<TRANSP> 5
 0.000000e+00 1.000000e+00 0.000000e+00 0.000000e+00 0.000000e+00
 0.000000e+00 4.127739e-01 5.872262e-01 0.000000e+00 0.000000e+00
 0.000000e+00 0.000000e+00 5.935964e-01 4.064036e-01 0.000000e+00
 0.000000e+00 0.000000e+00 0.000000e+00 7.574105e-01 2.425895e-01
 0.000000e+00 0.000000e+00 0.000000e+00 0.000000e+00 0.000000e+00
<ENDHMM>
