~o
<STREAMINFO> 1 26
<VECSIZE> 26<NULLD><MFCC_E_D><DIAGC>
~h "__"
<BEGINHMM>
<NUMSTATES> 5
<STATE> 2
<MEAN> 26
 -6.206089e+00 7.540686e+00 6.111308e+00 5.120380e+00 6.172820e-01 1.612031e+00 9.265955e-01 2.693215e-01 1.229198e+00 1.398598e-01 1.264862e+00 -1.060476e-02 -3.205912e+06 -3.708693e-01 6.681559e-01 6.018714e-01 1.338002e+00 1.832184e+00 1.804197e+00 1.297831e+00 1.349290e+00 4.931836e-01 6.136162e-01 2.992176e-01 6.642332e-01 2.564738e+06
<VARIANCE> 26
 1.445989e+01 1.150169e+01 1.252413e+01 2.116277e+01 2.640073e+01 2.327383e+01 1.991860e+01 2.078309e+01 2.032136e+01 2.011251e+01 1.525066e+01 1.478630e+01 3.204836e+16 1.272049e+00 1.350667e+00 1.552289e+00 2.235874e+00 2.644598e+00 2.483427e+00 2.205471e+00 2.447272e+00 2.649865e+00 2.268965e+00 1.802962e+00 1.775197e+00 7.046480e+15
<GCONST> 1.651646e+02
<STATE> 3
<MEAN> 26
 -8.265572e+00 8.463326e+00 5.897871e+00 7.386872e+00 5.293808e+00 8.438849e+00 5.519497e+00 5.556170e+00 4.404326e+00 2.857769e+00 2.609164e+00 2.031895e+00 1.401481e+01 -1.480166e-01 -5.890474e-02 -1.553426e-01 -3.081259e-03 1.764754e-01 3.855652e-01 2.374515e-01 3.199068e-01 2.628054e-01 2.200193e-01 1.146894e-01 1.383365e-01 -1.747231e-02
<VARIANCE> 26
 2.427449e+00 3.453116e+00 4.198068e+00 4.675346e+00 6.453223e+00 8.622880e+00 8.943270e+00 1.037541e+01 1.079032e+01 1.073554e+01 9.940384e+00 9.023367e+00 9.992905e+12 3.102801e-01 4.280820e-01 4.951870e-01 6.251562e-01 8.822485e-01 1.251731e+00 1.241389e+00 1.412064e+00 1.398783e+00 1.363670e+00 1.243253e+00 1.113307e+00 2.198397e+12
<GCONST> 1.274775e+02
<STATE> 4
<MEAN> 26
 -7.334054e+00 9.024374e+00 6.079792e+00 6.128306e+00 3.766234e+00 6.637693e+00 4.605981e+00 4.863173e+00 4.201064e+00 2.624439e+00 2.819252e+00 1.971565e+00 1.405312e+01 3.082959e-01 6.673262e-02 1.518911e-01 -2.385981e-01 -4.988025e-01 -5.890734e-01 -2.837031e-01 -3.890662e-01 -1.830727e-01 -2.200632e-01 -1.186600e-01 -2.150504e-01 1.403867e-01
<VARIANCE> 26
 9.050724e+00 4.475200e+00 4.316032e+00 6.657279e+00 9.045436e+00 1.135202e+01 1.038495e+01 1.180846e+01 1.052180e+01 1.071765e+01 9.704114e+00 9.472528e+00 9.992905e+12 6.627446e-01 5.042635e-01 6.362727e-01 1.052054e+00 1.383034e+00 1.333454e+00 1.328207e+00 1.378882e+00 1.300623e+00 1.357240e+00 1.164633e+00 1.238402e+00 2.198397e+12
<GCONST> 1.325373e+02
<TRANSP> 5
 0.000000e+00 1.000000e+00 0.000000e+00 0.000000e+00 0.000000e+00
 0.000000e+00 4.671441e-01 5.328559e-01 0.000000e+00 0.000000e+00
 0.000000e+00 0.000000e+00 8.997020e-01 1.002980e-01 0.000000e+00
 0.000000e+00 0.000000e+00 0.000000e+00 7.029681e-01 2.970320e-01
 0.000000e+00 0.000000e+00 0.000000e+00 0.000000e+00 0.000000e+00
<ENDHMM>
