~o
<STREAMINFO> 1 26
<VECSIZE> 26<NULLD><MFCC_E_D><DIAGC>
~h "a"
<BEGINHMM>
<NUMSTATES> 5
<STATE> 2
<MEAN> 26
 -4.433508e-01 -3.448646e-01 1.135451e+00 -3.456828e+00 -1.060395e+01 -1.042739e+00 -3.227764e+00 -1.811806e+00 6.986521e+00 -2.602465e-01 -2.051552e+00 -5.932155e+00 1.812481e+01 1.557636e+00 -2.262233e+00 -1.875203e+00 -2.026387e+00 -1.925302e+00 3.659872e-01 -4.824618e-01 -4.650689e-01 1.085591e+00 1.187085e-01 -1.070376e+00 -1.731439e+00 5.989559e-01
<VARIANCE> 26
 2.811018e+01 3.617693e+01 3.291452e+01 3.830535e+01 4.542171e+01 2.642861e+01 2.679418e+01 1.736009e+01 2.542585e+01 2.639892e+01 2.278705e+01 2.712783e+01 9.992905e+12 2.844833e+00 1.562199e+00 1.655769e+00 2.728553e+00 3.586983e+00 2.354625e+00 3.821130e+00 2.358474e+00 1.779624e+00 1.958580e+00 1.777221e+00 1.824231e+00 2.198397e+12
<GCONST> 1.561258e+02
<STATE> 3
<MEAN> 26
 2.003149e+00 -6.574014e+00 -9.014956e+00 -9.816615e+00 -1.020445e+01 4.557245e+00 6.147141e+00 -5.902802e+00 8.494302e+00 -1.436069e+00 -9.744627e+00 -1.123917e+01 1.950634e+01 -7.751581e-03 -7.672939e-03 -7.844131e-02 -8.129234e-02 5.120255e-02 1.033749e-01 2.006938e-01 -4.598986e-02 -1.157614e-01 -7.570982e-02 -6.771454e-02 -2.985069e-02 -4.579307e-03
<VARIANCE> 26
 1.218163e+00 4.921736e+00 9.231023e+00 1.018848e+01 1.114675e+01 1.173404e+01 3.305977e+01 1.565766e+01 1.195969e+01 9.291095e+00 1.504596e+01 9.987693e+00 9.992905e+12 1.175181e-01 3.213190e-01 5.696691e-01 4.783194e-01 8.771577e-01 7.283856e-01 1.597329e+00 8.702955e-01 6.854082e-01 7.464933e-01 1.255664e+00 7.523950e-01 2.198397e+12
<GCONST> 1.278951e+02
<STATE> 4
<MEAN> 26
 1.870528e+00 -3.055447e+00 -2.154787e+00 -6.784420e+00 -1.283919e+01 1.041483e+00 -1.730052e+00 -1.912634e+00 7.593729e+00 4.672247e-01 -2.858147e+00 -9.318199e+00 1.880134e+01 -6.552522e-01 2.006932e+00 1.620287e+00 1.528062e+00 1.160761e+00 -5.700850e-01 -4.011685e-01 3.678381e-01 -6.143779e-01 5.009415e-01 1.190089e+00 1.186062e+00 -3.869120e-01
<VARIANCE> 26
 8.255269e+00 3.161842e+01 2.342346e+01 2.926578e+01 2.689926e+01 1.552591e+01 2.387452e+01 1.429412e+01 2.407430e+01 2.531023e+01 2.764874e+01 2.281173e+01 9.992905e+12 1.459973e+00 2.383111e+00 1.583643e+00 2.370660e+00 3.652500e+00 1.551408e+00 2.960007e+00 1.647117e+00 1.565282e+00 2.048656e+00 1.866835e+00 2.347306e+00 2.198397e+12
<GCONST> 1.514890e+02
<TRANSP> 5
 0.000000e+00 1.000000e+00 0.000000e+00 0.000000e+00 0.000000e+00
 0.000000e+00 7.677644e-01 2.322356e-01 0.000000e+00 0.000000e+00
 0.000000e+00 0.000000e+00 9.078047e-01 9.219533e-02 0.000000e+00
 0.000000e+00 0.000000e+00 0.000000e+00 6.949179e-01 3.050821e-01
 0.000000e+00 0.000000e+00 0.000000e+00 0.000000e+00 0.000000e+00
<ENDHMM>
