~o
<STREAMINFO> 1 26
<VECSIZE> 26<NULLD><MFCC_E_D><DIAGC>
~h "a~"
<BEGINHMM>
<NUMSTATES> 5
<STATE> 2
<MEAN> 26
 1.712990e+00 -6.334956e-02 -2.515515e+00 -9.137727e+00 -1.115272e+01 2.488148e+00 -1.409562e+00 -2.454324e+00 5.726492e+00 3.765235e-01 -1.022959e+00 -7.648474e+00 1.852621e+01 9.455360e-01 -6.386899e-01 -1.085956e+00 -2.368227e+00 -1.015486e+00 9.102038e-01 2.582482e-01 -2.403527e-01 -3.836214e-02 -6.243950e-01 -4.268906e-01 -5.264360e-01 3.280502e-01
<VARIANCE> 26
 1.461189e+01 2.995941e+01 2.280995e+01 4.319164e+01 3.064879e+01 1.786187e+01 2.857518e+01 2.162019e+01 1.541531e+01 2.604019e+01 1.520299e+01 2.715294e+01 9.992905e+12 2.110273e+00 1.941753e+00 1.657993e+00 2.291343e+00 2.978250e+00 1.345298e+00 2.593355e+00 1.584494e+00 1.447131e+00 2.578770e+00 1.451857e+00 2.421300e+00 2.198397e+12
<GCONST> 1.519808e+02
<STATE> 3
<MEAN> 26
 4.021274e+00 5.872278e+00 -5.745313e-01 -1.694687e+01 -1.140950e+01 4.363019e+00 -1.300236e+00 3.083631e+00 2.467876e+00 -1.114276e+01 -1.733008e+00 -4.465091e+00 1.832054e+01 9.006985e-02 5.253735e-01 3.479809e-01 1.117855e-01 3.534350e-02 -1.839536e-01 -2.925244e-01 4.018302e-01 -1.897331e-01 -5.426309e-01 1.005328e-01 2.461429e-01 -5.649927e-02
<VARIANCE> 26
 2.368417e+00 1.677569e+01 1.033608e+01 6.585023e+00 7.358211e+00 1.241076e+01 2.518297e+01 2.017708e+01 9.538963e+00 2.147567e+01 1.069543e+01 9.030056e+00 9.992905e+12 1.048554e-01 5.876385e-01 4.871217e-01 7.265425e-01 6.294128e-01 8.266241e-01 9.976982e-01 1.140568e+00 8.232718e-01 1.519957e+00 7.694347e-01 7.272402e-01 2.198397e+12
<GCONST> 1.299708e+02
<STATE> 4
<MEAN> 26
 2.705065e+00 8.973755e+00 3.343776e+00 -6.157358e+00 -7.362850e+00 1.686032e+00 -1.843134e+00 2.013923e+00 7.688555e-01 -7.029218e+00 5.719831e-01 -1.696163e+00 1.726078e+01 -1.144947e+00 -1.599634e-02 6.547918e-01 2.895606e+00 1.822025e+00 -3.331601e-02 8.599756e-01 -5.844828e-01 8.044537e-03 1.928094e+00 4.043601e-01 3.100494e-01 -3.056788e-01
<VARIANCE> 26
 9.029154e+00 6.809060e+00 1.178566e+01 6.188192e+01 3.213724e+01 1.173922e+01 1.539218e+01 1.369091e+01 9.445493e+00 3.504217e+01 1.099444e+01 1.365396e+01 9.992905e+12 8.950270e-01 5.768445e-01 8.247087e-01 2.331037e+00 2.241110e+00 1.529389e+00 1.212077e+00 1.746019e+00 1.331021e+00 1.734343e+00 1.050277e+00 1.363988e+00 2.198397e+12
<GCONST> 1.421144e+02
<TRANSP> 5
 0.000000e+00 1.000000e+00 0.000000e+00 0.000000e+00 0.000000e+00
 0.000000e+00 8.349100e-01 1.650900e-01 0.000000e+00 0.000000e+00
 0.000000e+00 0.000000e+00 9.310369e-01 6.896307e-02 0.000000e+00
 0.000000e+00 0.000000e+00 0.000000e+00 7.237316e-01 2.762684e-01
 0.000000e+00 0.000000e+00 0.000000e+00 0.000000e+00 0.000000e+00
<ENDHMM>
