~o
<STREAMINFO> 1 26
<VECSIZE> 26<NULLD><MFCC_E_D><DIAGC>
~h "b"
<BEGINHMM>
<NUMSTATES> 5
<STATE> 2
<MEAN> 26
 -1.810845e-01 7.448901e+00 4.690046e+00 2.330357e+00 -4.938941e+00 -3.212617e+00 6.787089e-01 -1.610679e+00 -7.587196e-03 -2.285603e+00 2.258414e+00 -4.271588e+00 1.667532e+01 -3.364063e-01 1.183961e+00 8.015804e-01 1.422889e+00 1.400910e+00 -2.293704e-01 6.064453e-01 -5.190931e-02 -8.964516e-01 6.400361e-02 5.798770e-01 6.403273e-01 -2.505209e-01
<VARIANCE> 26
 9.547186e+00 1.608069e+01 2.448188e+01 4.175542e+01 2.569685e+01 3.222815e+01 2.547862e+01 1.717575e+01 2.412674e+01 2.070079e+01 1.580456e+01 2.071031e+01 9.992905e+12 6.966214e-01 1.476719e+00 1.511711e+00 2.254446e+00 1.832437e+00 1.768424e+00 1.795800e+00 1.202003e+00 1.929505e+00 1.668017e+00 1.529854e+00 1.705449e+00 2.198397e+12
<GCONST> 1.482326e+02
<STATE> 3
<MEAN> 26
 -3.401359e+00 1.107738e+01 7.901879e+00 8.252273e+00 3.119905e+00 -7.800843e-02 4.228631e+00 8.256603e-01 1.867213e-02 -1.673004e+00 2.894787e+00 -3.163037e-01 1.541261e+01 4.955176e-02 -6.528548e-02 -2.260618e-02 4.877501e-02 -1.252718e-02 -5.194812e-02 -5.879099e-02 -6.127702e-02 5.325399e-03 -1.385781e-01 -1.249936e-01 6.783009e-03 2.950598e-02
<VARIANCE> 26
 3.402762e+00 4.224253e+00 4.306449e+00 4.934268e+00 9.934882e+00 2.271100e+01 1.223838e+01 1.685806e+01 1.465723e+01 1.563503e+01 1.043078e+01 1.078190e+01 9.992905e+12 2.920404e-01 3.796696e-01 4.108972e-01 6.286108e-01 1.221943e+00 1.745882e+00 1.324004e+00 1.682330e+00 1.447821e+00 1.549090e+00 1.144287e+00 1.086684e+00 2.198397e+12
<GCONST> 1.317948e+02
<STATE> 4
<MEAN> 26
 -1.223601e+00 6.648150e+00 4.923564e+00 3.586641e+00 -4.425734e+00 -2.944632e+00 1.855056e-01 -2.097123e+00 1.662978e+00 -1.715289e+00 1.904580e+00 -2.613829e+00 1.657181e+01 5.784210e-01 -1.414131e+00 -1.094667e+00 -1.866282e+00 -2.221381e+00 -3.525037e-01 -7.717975e-01 -6.141356e-01 7.477637e-01 3.038457e-01 -1.822508e-01 -8.984868e-01 3.935345e-01
<VARIANCE> 26
 6.461577e+00 1.516948e+01 2.671546e+01 3.381710e+01 2.916145e+01 2.275852e+01 1.609083e+01 1.308650e+01 1.697685e+01 1.916880e+01 1.178944e+01 1.370432e+01 9.992905e+12 8.782566e-01 1.252076e+00 2.314875e+00 3.078321e+00 2.220202e+00 2.601587e+00 1.946270e+00 1.631661e+00 1.663570e+00 2.248564e+00 1.443929e+00 1.939692e+00 2.198397e+12
<GCONST> 1.475626e+02
<TRANSP> 5
 0.000000e+00 1.000000e+00 0.000000e+00 0.000000e+00 0.000000e+00
 0.000000e+00 7.600675e-01 2.399325e-01 0.000000e+00 0.000000e+00
 0.000000e+00 0.000000e+00 9.056464e-01 9.435358e-02 0.000000e+00
 0.000000e+00 0.000000e+00 0.000000e+00 6.836241e-01 3.163758e-01
 0.000000e+00 0.000000e+00 0.000000e+00 0.000000e+00 0.000000e+00
<ENDHMM>
