~o
<STREAMINFO> 1 26
<VECSIZE> 26<NULLD><MFCC_E_D><DIAGC>
~h "d"
<BEGINHMM>
<NUMSTATES> 5
<STATE> 2
<MEAN> 26
 -2.067091e+00 6.290676e+00 6.806358e+00 1.542193e+00 -7.456156e+00 -4.103689e+00 -1.975178e+00 -1.753262e+00 1.548347e+00 -4.292055e+00 7.035263e-01 -2.428757e+00 1.695250e+01 -4.283465e-01 6.724622e-01 8.666266e-01 1.563915e+00 8.790056e-01 -6.840604e-01 6.801855e-01 -1.680105e-01 -4.694317e-01 1.269603e-01 3.788911e-01 4.725569e-01 -1.624402e-01
<VARIANCE> 26
 2.692916e+01 1.073145e+01 3.605046e+01 5.982719e+01 3.886421e+01 5.092871e+01 3.358654e+01 2.313008e+01 2.101521e+01 4.361483e+01 1.541913e+01 2.297727e+01 9.992905e+12 8.980250e-01 1.265327e+00 1.446548e+00 2.064868e+00 1.645285e+00 1.393516e+00 1.646645e+00 1.474009e+00 1.743382e+00 2.347916e+00 1.256266e+00 1.486154e+00 2.198397e+12
<GCONST> 1.513879e+02
<STATE> 3
<MEAN> 26
 -3.393359e+00 1.077984e+01 9.069998e+00 8.249493e+00 6.612217e-01 -2.030540e+00 2.928755e+00 -8.747750e-01 -6.051982e-01 -2.736011e+00 2.699691e+00 -4.205130e-01 1.576256e+01 8.362798e-02 -1.798542e-02 9.888008e-02 2.863828e-02 -1.941912e-01 -1.902467e-01 -1.247227e-01 -1.633734e-01 -5.338584e-02 -1.168264e-01 -1.206916e-01 -7.462794e-02 4.721453e-02
<VARIANCE> 26
 5.841437e+00 4.440955e+00 5.361284e+00 4.886739e+00 2.014924e+01 3.234156e+01 1.272933e+01 1.781116e+01 1.548829e+01 1.733961e+01 1.068685e+01 1.074805e+01 9.992905e+12 5.374125e-01 5.140606e-01 5.568440e-01 6.344159e-01 1.741282e+00 2.332111e+00 1.288841e+00 1.592406e+00 1.625910e+00 1.693741e+00 1.083615e+00 1.080736e+00 2.198397e+12
<GCONST> 1.358625e+02
<STATE> 4
<MEAN> 26
 -4.742595e+00 5.738942e+00 8.524704e+00 4.456402e+00 -6.753479e+00 -4.646954e+00 -3.662653e-01 -2.226947e+00 3.097555e+00 -9.966171e-01 7.409204e-01 -1.835971e+00 1.660059e+01 -1.670600e-01 -1.008131e+00 -5.415403e-01 -1.302997e+00 -1.282842e+00 -1.924821e-02 -4.436780e-01 -2.897976e-01 8.594050e-01 4.451011e-01 -2.337857e-01 -4.818234e-01 2.424081e-01
<VARIANCE> 26
 1.300682e+01 8.733321e+00 2.705606e+01 2.543173e+01 2.074640e+01 2.850395e+01 1.327331e+01 1.534122e+01 1.809895e+01 2.392804e+01 1.268793e+01 1.538113e+01 9.992905e+12 2.051190e+00 1.011473e+00 2.405696e+00 2.380461e+00 2.290662e+00 2.429138e+00 2.081616e+00 1.798992e+00 1.804920e+00 1.646680e+00 1.493547e+00 1.808881e+00 2.198397e+12
<GCONST> 1.480412e+02
<TRANSP> 5
 0.000000e+00 1.000000e+00 0.000000e+00 0.000000e+00 0.000000e+00
 0.000000e+00 6.994812e-01 3.005188e-01 0.000000e+00 0.000000e+00
 0.000000e+00 0.000000e+00 8.984619e-01 1.015381e-01 0.000000e+00
 0.000000e+00 0.000000e+00 0.000000e+00 6.863454e-01 3.136547e-01
 0.000000e+00 0.000000e+00 0.000000e+00 0.000000e+00 0.000000e+00
<ENDHMM>
