~o
<STREAMINFO> 1 26
<VECSIZE> 26<NULLD><MFCC_E_D><DIAGC>
~h "e"
<BEGINHMM>
<NUMSTATES> 5
<STATE> 2
<MEAN> 26
 -6.466706e+00 4.822156e+00 1.215852e+01 4.213331e+00 -1.003389e+01 -6.106543e+00 -1.607013e-01 -2.642096e+00 3.700531e+00 -3.162869e+00 2.497915e-01 -3.428916e-01 1.697420e+01 6.526665e-01 -7.693208e-01 9.738563e-01 -1.683718e-01 -2.224422e+00 -1.624802e+00 -6.618478e-01 -7.595739e-01 8.130860e-02 -9.329388e-01 -9.828004e-02 2.357187e-02 3.356656e-01
<VARIANCE> 26
 2.132021e+01 2.266215e+01 2.562419e+01 1.799072e+01 4.697230e+01 3.747883e+01 2.771832e+01 1.728138e+01 2.044188e+01 1.959690e+01 1.741011e+01 1.524935e+01 9.992905e+12 1.613775e+00 1.347126e+00 1.402202e+00 1.198095e+00 2.286957e+00 2.096802e+00 1.739768e+00 1.583205e+00 1.596148e+00 1.505221e+00 1.479630e+00 1.400501e+00 2.198397e+12
<GCONST> 1.491511e+02
<STATE> 3
<MEAN> 26
 -5.024031e+00 1.831795e+00 1.501237e+01 2.793807e+00 -1.898056e+01 -1.061144e+01 -7.397597e-01 -3.851149e+00 5.125023e+00 -7.332652e+00 2.642382e+00 2.864576e+00 1.790784e+01 4.130950e-02 8.156127e-03 -1.354252e-02 -3.822923e-02 -1.038203e-01 -3.243060e-02 -4.553950e-03 4.816610e-02 5.808546e-02 -6.105632e-02 7.859613e-02 5.683715e-02 8.737121e-03
<VARIANCE> 26
 1.349571e+01 7.701663e+00 9.519528e+00 5.140773e+00 1.203206e+01 7.703918e+00 2.028340e+01 9.058781e+00 1.328062e+01 9.180014e+00 1.002827e+01 8.247477e+00 9.992905e+12 3.615583e-01 3.921874e-01 4.975037e-01 5.396029e-01 7.823413e-01 7.584597e-01 9.821991e-01 7.426723e-01 7.725399e-01 9.288213e-01 7.719424e-01 7.238738e-01 2.198397e+12
<GCONST> 1.286126e+02
<STATE> 4
<MEAN> 26
 -4.828382e+00 5.506505e+00 1.347097e+01 5.260900e+00 -1.241200e+01 -9.803868e+00 -9.973899e-01 -3.466386e+00 3.224452e+00 -4.686958e+00 2.036061e+00 1.289038e-01 1.736574e+01 5.172057e-02 6.915208e-01 -6.900827e-01 5.149694e-01 1.806785e+00 8.768179e-01 3.371330e-01 3.518169e-01 -4.188462e-01 6.949237e-01 -1.506782e-01 -3.253320e-01 -1.913852e-01
<VARIANCE> 26
 1.142907e+01 8.622149e+00 1.408401e+01 9.569119e+00 2.696469e+01 1.586956e+01 2.331110e+01 1.156322e+01 1.450983e+01 1.437150e+01 1.613200e+01 1.192675e+01 9.992905e+12 1.115703e+00 5.541087e-01 1.138759e+00 8.672163e-01 2.028459e+00 2.132064e+00 1.919820e+00 1.296823e+00 1.401567e+00 1.591770e+00 1.144121e+00 1.165821e+00 2.198397e+12
<GCONST> 1.408595e+02
<TRANSP> 5
 0.000000e+00 1.000000e+00 0.000000e+00 0.000000e+00 0.000000e+00
 0.000000e+00 7.465174e-01 2.534827e-01 0.000000e+00 0.000000e+00
 0.000000e+00 0.000000e+00 9.115614e-01 8.843865e-02 0.000000e+00
 0.000000e+00 0.000000e+00 0.000000e+00 7.233698e-01 2.766302e-01
 0.000000e+00 0.000000e+00 0.000000e+00 0.000000e+00 0.000000e+00
<ENDHMM>
