~o
<STREAMINFO> 1 26
<VECSIZE> 26<NULLD><MFCC_E_D><DIAGC>
~h "e^"
<BEGINHMM>
<NUMSTATES> 5
<STATE> 2
<MEAN> 26
 -3.401355e+00 7.358505e-01 7.762665e+00 7.662014e-01 -1.201830e+01 -4.896872e+00 -2.748197e+00 -1.455639e+00 6.996301e+00 -2.930528e+00 -2.183447e+00 -1.865304e+00 1.778427e+01 1.658654e+00 -2.160528e+00 -6.410814e-01 -9.544324e-01 -2.486514e+00 -5.302438e-01 -9.810191e-01 1.430610e-01 1.093974e+00 -7.401693e-01 -9.660903e-01 -4.744583e-01 4.910873e-01
<VARIANCE> 26
 2.899706e+01 3.581343e+01 2.942061e+01 2.448126e+01 5.341747e+01 3.173676e+01 2.953128e+01 1.595224e+01 2.050086e+01 2.628540e+01 1.920728e+01 2.099761e+01 9.992905e+12 1.892750e+00 1.761104e+00 1.788969e+00 1.339793e+00 2.201637e+00 2.551346e+00 2.470742e+00 1.875306e+00 1.518764e+00 1.774794e+00 1.569263e+00 1.560486e+00 2.198397e+12
<GCONST> 1.527659e+02
<STATE> 3
<MEAN> 26
 3.188380e+00 -7.887999e+00 3.645636e+00 -1.597958e+00 -2.169572e+01 -5.776860e+00 -3.816831e+00 2.522743e+00 1.227119e+01 -5.555177e+00 -5.445991e+00 -3.145470e+00 1.944185e+01 1.621743e-02 4.827101e-03 3.216428e-02 3.901807e-02 -7.606189e-02 -6.284706e-02 5.527613e-02 3.566738e-02 3.887122e-02 -3.973694e-02 1.561672e-02 1.374664e-02 -6.618358e-04
<VARIANCE> 26
 1.239552e+00 5.948802e+00 9.212993e+00 7.928507e+00 7.249363e+00 1.376256e+01 9.509523e+00 7.758312e+00 7.069035e+00 6.604442e+00 1.500692e+01 1.054915e+01 9.992905e+12 1.109127e-01 3.037473e-01 4.718294e-01 5.026924e-01 7.048911e-01 7.835984e-01 7.213845e-01 6.670085e-01 6.066464e-01 6.187766e-01 7.156610e-01 6.372982e-01 2.198397e+12
<GCONST> 1.223179e+02
<STATE> 4
<MEAN> 26
 -6.632611e-01 -1.621737e+00 7.060259e+00 2.075753e-01 -1.597297e+01 -6.896388e+00 -3.719087e+00 -8.693209e-01 9.134432e+00 -4.099477e+00 -3.161287e+00 -2.436405e+00 1.846357e+01 -1.177170e+00 2.051026e+00 6.201645e-01 6.928688e-01 2.208490e+00 1.157884e-01 3.493870e-01 -5.424799e-01 -1.078918e+00 7.463632e-01 7.963122e-01 2.136643e-01 -3.336715e-01
<VARIANCE> 26
 1.497104e+01 3.191054e+01 2.570254e+01 2.203537e+01 3.949958e+01 2.448213e+01 1.857195e+01 1.243323e+01 2.072117e+01 1.889214e+01 2.359240e+01 2.446692e+01 9.992905e+12 1.604845e+00 1.926612e+00 1.647073e+00 1.677611e+00 2.583167e+00 2.138428e+00 2.583166e+00 1.463791e+00 1.433467e+00 1.807794e+00 1.778374e+00 1.447457e+00 2.198397e+12
<GCONST> 1.503712e+02
<TRANSP> 5
 0.000000e+00 1.000000e+00 0.000000e+00 0.000000e+00 0.000000e+00
 0.000000e+00 7.982031e-01 2.017969e-01 0.000000e+00 0.000000e+00
 0.000000e+00 0.000000e+00 9.351628e-01 6.483719e-02 0.000000e+00
 0.000000e+00 0.000000e+00 0.000000e+00 7.302438e-01 2.697563e-01
 0.000000e+00 0.000000e+00 0.000000e+00 0.000000e+00 0.000000e+00
<ENDHMM>
