~o
<STREAMINFO> 1 26
<VECSIZE> 26<NULLD><MFCC_E_D><DIAGC>
~h "e~"
<BEGINHMM>
<NUMSTATES> 5
<STATE> 2
<MEAN> 26
 -2.503344e+00 -1.828278e-01 2.958249e+00 -2.538759e+00 -9.043735e+00 -9.974613e-01 -3.540468e+00 -9.154357e-01 7.987707e+00 -8.176907e-01 -3.786754e+00 -5.490153e+00 1.774722e+01 1.028488e+00 -2.158021e+00 -1.167182e+00 -1.717499e+00 -1.317601e+00 5.393844e-01 -6.384243e-01 -6.361991e-02 1.134379e+00 -7.741749e-01 -1.499879e+00 -1.151402e+00 4.903664e-01
<VARIANCE> 26
 2.190728e+01 3.465562e+01 2.139363e+01 3.609079e+01 3.592303e+01 2.480930e+01 2.299042e+01 1.280922e+01 1.737933e+01 2.614636e+01 2.352134e+01 2.034007e+01 9.992905e+12 2.061539e+00 1.624922e+00 9.778812e-01 1.677780e+00 2.383343e+00 2.605495e+00 1.931716e+00 1.526630e+00 1.195107e+00 2.109972e+00 1.533587e+00 1.154632e+00 2.198397e+12
<GCONST> 1.502931e+02
<STATE> 3
<MEAN> 26
 2.405393e-01 -4.972250e+00 9.807514e-01 -5.683232e+00 -1.028382e+01 1.613162e+00 -4.296481e+00 4.475954e-01 1.254814e+01 -7.607661e+00 -1.107609e+01 -9.541705e+00 1.902119e+01 4.162531e-02 2.561793e-01 1.373126e-01 2.328734e-01 1.996735e-01 -1.353487e-01 -8.520931e-02 -2.226086e-02 -8.804277e-03 -7.689042e-02 -6.623818e-03 3.083397e-02 -3.987824e-02
<VARIANCE> 26
 3.395309e+00 1.480149e+01 1.196318e+01 1.030082e+01 1.010412e+01 1.353538e+01 9.431006e+00 5.942810e+00 6.778811e+00 9.507997e+00 9.876888e+00 8.096585e+00 9.992905e+12 2.432682e-01 8.153642e-01 5.466686e-01 7.065886e-01 6.457893e-01 8.409173e-01 8.212759e-01 5.872707e-01 7.068748e-01 8.423528e-01 1.034575e+00 6.580889e-01 2.198397e+12
<GCONST> 1.275481e+02
<STATE> 4
<MEAN> 26
 -8.112235e-01 4.588094e+00 5.924902e+00 3.788079e+00 -5.134550e+00 -4.428201e+00 -3.295352e+00 -1.649465e+00 4.822857e+00 -3.612855e+00 -1.317431e+00 -3.984036e+00 1.722593e+01 -5.462510e-01 1.096344e+00 6.188906e-01 1.031713e+00 8.011436e-01 6.983097e-02 8.770739e-01 1.406308e-01 -9.372701e-01 4.570904e-01 1.121561e+00 6.836272e-01 -2.642331e-01
<VARIANCE> 26
 9.600034e+00 2.531394e+01 2.404938e+01 2.634757e+01 2.850242e+01 2.970133e+01 3.758718e+01 1.272605e+01 2.974207e+01 1.350400e+01 2.722999e+01 1.657778e+01 9.992905e+12 6.445771e-01 1.824457e+00 1.425677e+00 1.937477e+00 2.094280e+00 3.554881e+00 2.119103e+00 1.553379e+00 2.042813e+00 1.531880e+00 1.984331e+00 1.297118e+00 2.198397e+12
<GCONST> 1.495638e+02
<TRANSP> 5
 0.000000e+00 1.000000e+00 0.000000e+00 0.000000e+00 0.000000e+00
 0.000000e+00 8.169277e-01 1.830724e-01 0.000000e+00 0.000000e+00
 0.000000e+00 0.000000e+00 9.457576e-01 5.424240e-02 0.000000e+00
 0.000000e+00 0.000000e+00 0.000000e+00 8.676769e-01 1.323232e-01
 0.000000e+00 0.000000e+00 0.000000e+00 0.000000e+00 0.000000e+00
<ENDHMM>
