~o
<STREAMINFO> 1 26
<VECSIZE> 26<NULLD><MFCC_E_D><DIAGC>
~h "f"
<BEGINHMM>
<NUMSTATES> 5
<STATE> 2
<MEAN> 26
 -8.956098e+00 6.217333e+00 5.791484e+00 7.736580e-01 -3.374085e+00 1.024764e+00 1.517916e+00 5.839837e-01 4.870522e+00 2.029266e+00 9.646854e-01 -1.882766e+00 1.631017e+01 -2.923008e+00 6.296631e-01 1.961197e-01 5.833957e-01 1.903857e+00 7.535325e-01 6.583381e-01 1.009008e+00 1.039001e-01 8.086822e-01 2.815841e-01 7.291420e-01 -3.669538e-01
<VARIANCE> 26
 4.529079e+01 7.917744e+00 3.055877e+01 2.757941e+01 4.328445e+01 3.303975e+01 1.657469e+01 1.993132e+01 2.119566e+01 2.244694e+01 1.488266e+01 2.038320e+01 9.992905e+12 3.788248e+00 1.300910e+00 2.068277e+00 2.314323e+00 3.647021e+00 1.953375e+00 2.193527e+00 1.965906e+00 2.408203e+00 2.538804e+00 1.776545e+00 1.696336e+00 2.198397e+12
<GCONST> 1.532004e+02
<STATE> 3
<MEAN> 26
 -1.972586e+01 7.958775e+00 3.770830e+00 1.452543e+00 1.795667e+00 1.915182e+00 4.640544e+00 4.211998e+00 6.002409e+00 3.569866e+00 2.086722e+00 8.913662e-01 1.529844e+01 -1.354298e-01 1.611829e-02 -4.564076e-02 -8.111442e-02 -3.890654e-02 -8.255475e-02 7.818672e-02 2.990204e-02 1.828562e-02 3.601816e-02 2.106499e-02 1.925238e-02 6.900704e-03
<VARIANCE> 26
 8.510830e+00 2.168049e+00 1.096420e+01 5.344542e+00 8.195426e+00 1.067375e+01 1.009215e+01 1.004537e+01 1.051865e+01 1.243130e+01 1.099331e+01 1.101373e+01 9.992905e+12 8.947269e-01 1.967615e-01 5.274990e-01 6.687648e-01 8.935086e-01 1.041729e+00 1.042683e+00 1.063802e+00 1.297388e+00 1.251428e+00 1.268880e+00 1.152872e+00 2.198397e+12
<GCONST> 1.300004e+02
<STATE> 4
<MEAN> 26
 -1.512259e+01 7.439894e+00 6.204229e+00 4.128757e-01 -1.652583e+00 6.272841e-01 3.442052e+00 1.983045e+00 4.462189e+00 3.212130e+00 1.619640e+00 -1.673008e-02 1.574775e+01 3.530987e+00 -5.566972e-01 3.135920e-01 -6.308087e-01 -2.354573e+00 -1.140543e+00 -1.615898e+00 -1.584441e+00 -3.121314e-01 -7.327645e-01 -5.441613e-01 -9.757165e-01 4.587610e-01
<VARIANCE> 26
 2.070025e+01 3.126289e+00 1.726095e+01 9.109698e+00 1.499465e+01 1.448584e+01 1.271261e+01 1.289842e+01 1.483127e+01 1.535700e+01 1.040662e+01 1.303605e+01 9.992905e+12 4.069502e+00 6.866910e-01 1.725093e+00 1.997543e+00 2.037408e+00 1.459304e+00 1.236093e+00 1.237260e+00 1.719347e+00 1.833117e+00 1.446044e+00 1.890690e+00 2.198397e+12
<GCONST> 1.421163e+02
<TRANSP> 5
 0.000000e+00 1.000000e+00 0.000000e+00 0.000000e+00 0.000000e+00
 0.000000e+00 7.579897e-01 2.420103e-01 0.000000e+00 0.000000e+00
 0.000000e+00 0.000000e+00 9.394185e-01 6.058150e-02 0.000000e+00
 0.000000e+00 0.000000e+00 0.000000e+00 6.263148e-01 3.736852e-01
 0.000000e+00 0.000000e+00 0.000000e+00 0.000000e+00 0.000000e+00
<ENDHMM>
