~o
<STREAMINFO> 1 26
<VECSIZE> 26<NULLD><MFCC_E_D><DIAGC>
~h "g"
<BEGINHMM>
<NUMSTATES> 5
<STATE> 2
<MEAN> 26
 -2.607998e+00 7.399010e+00 5.272737e+00 2.457376e+00 -3.054089e+00 1.309721e-01 1.550575e+00 1.373453e+00 1.720320e+00 -3.013567e+00 1.373517e+00 -2.364594e+00 1.616570e+01 1.665604e-01 7.029204e-01 6.827163e-01 1.043221e+00 5.375639e-01 -1.032236e+00 -1.465852e-02 -7.290207e-01 -8.319036e-01 -3.179699e-01 1.674352e-01 -6.523940e-02 1.137037e-02
<VARIANCE> 26
 2.228943e+01 1.528097e+01 2.175697e+01 6.810303e+01 5.743517e+01 4.114630e+01 3.060312e+01 2.514366e+01 2.053174e+01 4.634444e+01 1.453490e+01 2.205432e+01 9.992905e+12 1.144124e+00 1.153180e+00 1.045767e+00 1.965201e+00 1.806799e+00 1.692919e+00 1.578082e+00 1.504531e+00 1.552860e+00 2.456723e+00 1.030494e+00 1.319139e+00 2.198397e+12
<GCONST> 1.509359e+02
<STATE> 3
<MEAN> 26
 -1.869050e+00 1.220296e+01 9.913870e+00 8.529433e+00 -4.105726e-01 -5.203501e+00 2.294031e+00 -2.993681e+00 -2.709858e+00 -4.135857e+00 3.108186e+00 -2.408092e+00 1.608802e+01 -5.138681e-02 -5.071196e-02 4.123992e-02 9.038884e-03 -8.843751e-02 5.676218e-02 7.510655e-02 3.496768e-02 1.221392e-01 3.813296e-02 -5.399597e-02 7.904202e-02 -4.502830e-03
<VARIANCE> 26
 1.709814e+00 4.997475e+00 4.414290e+00 5.331103e+00 1.401607e+01 1.439857e+01 9.200728e+00 9.926572e+00 1.082006e+01 1.072332e+01 8.977665e+00 9.959496e+00 9.992905e+12 2.657218e-01 6.193776e-01 4.723681e-01 5.390031e-01 1.692303e+00 1.644095e+00 1.115730e+00 1.300006e+00 1.282198e+00 1.255889e+00 9.256096e-01 1.036540e+00 2.198397e+12
<GCONST> 1.291669e+02
<STATE> 4
<MEAN> 26
 -3.735616e+00 6.192063e+00 7.946061e+00 4.504626e+00 -4.964588e+00 -2.754513e+00 2.192721e+00 -7.198969e-01 2.163784e+00 -1.583055e+00 1.310531e+00 -1.092959e+00 1.643280e+01 3.407228e-02 -8.071907e-01 -2.183574e-01 -8.074095e-01 -1.081191e+00 -3.789856e-02 -2.188534e-01 4.279289e-02 5.826710e-01 1.012145e-01 -3.013741e-01 -2.043900e-01 1.646438e-01
<VARIANCE> 26
 1.640309e+01 2.202523e+01 3.023221e+01 2.477902e+01 5.252264e+01 3.306903e+01 2.010215e+01 1.795100e+01 1.852862e+01 1.606934e+01 1.734774e+01 1.708014e+01 9.992905e+12 1.367028e+00 1.367756e+00 1.820201e+00 1.470063e+00 1.836159e+00 2.017498e+00 1.883519e+00 1.595258e+00 1.714821e+00 1.694700e+00 1.312890e+00 1.661253e+00 2.198397e+12
<GCONST> 1.492473e+02
<TRANSP> 5
 0.000000e+00 1.000000e+00 0.000000e+00 0.000000e+00 0.000000e+00
 0.000000e+00 7.820985e-01 2.179015e-01 0.000000e+00 0.000000e+00
 0.000000e+00 0.000000e+00 8.993936e-01 1.006064e-01 0.000000e+00
 0.000000e+00 0.000000e+00 0.000000e+00 8.419198e-01 1.580801e-01
 0.000000e+00 0.000000e+00 0.000000e+00 0.000000e+00 0.000000e+00
<ENDHMM>
