~o
<STREAMINFO> 1 26
<VECSIZE> 26<NULLD><MFCC_E_D><DIAGC>
~h "h"
<BEGINHMM>
<NUMSTATES> 5
<STATE> 2
<MEAN> 26
 1.982103e-02 1.266395e+00 5.199100e+00 1.869658e+00 -1.126181e+01 -6.702214e+00 -6.312376e+00 -2.110473e+00 7.459264e+00 -4.576817e+00 -4.387679e-01 -2.456231e+00 1.799007e+01 2.294769e-01 4.064906e-01 8.074340e-01 1.134070e+00 1.747230e-01 -1.101006e+00 -1.011460e+00 -4.110062e-01 -6.921355e-02 -5.643574e-01 -1.713062e-01 4.174812e-01 2.103580e-02
<VARIANCE> 26
 4.389394e+01 2.409464e+01 2.489445e+01 2.764058e+01 4.831793e+01 3.485365e+01 4.318549e+01 1.577667e+01 3.097789e+01 2.180276e+01 1.895456e+01 2.029607e+01 9.992905e+12 8.820871e-01 1.397148e+00 1.047924e+00 1.383511e+00 2.860017e+00 1.449544e+00 2.458926e+00 1.274998e+00 1.599400e+00 1.917692e+00 1.458225e+00 1.475081e+00 2.198397e+12
<GCONST> 1.510867e+02
<STATE> 3
<MEAN> 26
 4.621544e-01 6.206520e+00 1.113707e+01 8.644660e+00 -7.256301e+00 -1.250939e+01 -1.140368e+01 -5.107155e+00 4.753372e+00 -1.096126e+01 -8.427306e-01 -1.662407e+00 1.807329e+01 5.506877e-02 2.228978e-02 -4.264617e-02 9.011140e-02 1.863335e-01 -1.092427e-01 -2.609204e-01 -1.432845e-01 7.062882e-03 -7.185087e-02 2.077091e-03 -3.304746e-02 1.495428e-02
<VARIANCE> 26
 1.357827e+01 4.223474e+00 1.432776e+01 6.839515e+00 1.632267e+01 8.425372e+00 8.080868e+01 7.182904e+00 2.477505e+01 1.670334e+01 1.733105e+01 9.146713e+00 9.992905e+12 2.269080e-01 2.971484e-01 8.045639e-01 5.681660e-01 8.985737e-01 8.405285e-01 1.381539e+00 6.847583e-01 8.377520e-01 1.136995e+00 7.146547e-01 6.456313e-01 2.198397e+12
<GCONST> 1.325116e+02
<STATE> 4
<MEAN> 26
 2.884247e+00 1.998612e+00 3.831983e+00 3.971897e+00 -7.843740e+00 -9.005000e+00 -1.167626e+01 -5.062474e+00 5.768163e+00 -5.109117e+00 -1.547191e+00 -4.242450e+00 1.824180e+01 -3.371504e-04 -9.983512e-01 -8.978652e-01 -1.630547e+00 -1.255195e+00 1.276457e+00 1.694976e+00 4.054525e-01 -1.990767e-01 1.319779e+00 1.020297e-01 -6.622553e-01 -2.165517e-03
<VARIANCE> 26
 9.954432e+00 1.148487e+01 3.412212e+01 2.733295e+01 2.131560e+01 2.792164e+01 6.193048e+01 1.300859e+01 1.742239e+01 2.872229e+01 1.378279e+01 2.022295e+01 9.992905e+12 2.418412e-01 1.014347e+00 1.082182e+00 1.191614e+00 1.466220e+00 1.672926e+00 2.492895e+00 1.087970e+00 1.053153e+00 1.687104e+00 1.119562e+00 1.510238e+00 2.198397e+12
<GCONST> 1.444838e+02
<TRANSP> 5
 0.000000e+00 1.000000e+00 0.000000e+00 0.000000e+00 0.000000e+00
 0.000000e+00 8.494654e-01 1.505347e-01 0.000000e+00 0.000000e+00
 0.000000e+00 0.000000e+00 9.235079e-01 7.649213e-02 0.000000e+00
 0.000000e+00 0.000000e+00 0.000000e+00 7.194941e-01 2.805059e-01
 0.000000e+00 0.000000e+00 0.000000e+00 0.000000e+00 0.000000e+00
<ENDHMM>
