~o
<STREAMINFO> 1 26
<VECSIZE> 26<NULLD><MFCC_E_D><DIAGC>
~h "i"
<BEGINHMM>
<NUMSTATES> 5
<STATE> 2
<MEAN> 26
 -8.073476e+00 8.400629e+00 1.073331e+01 7.094478e+00 -3.487511e+00 -2.810806e+00 2.963408e+00 -1.447663e+00 1.429778e+00 -2.093260e+00 2.452346e+00 -3.594340e-03 1.585264e+01 7.714544e-01 -1.083259e-02 1.216120e+00 2.714770e-01 -1.341850e+00 -1.929589e+00 -3.064434e-01 -1.267930e+00 -7.058625e-01 -8.434802e-01 -7.436194e-02 -3.317020e-01 2.969881e-01
<VARIANCE> 26
 2.109228e+01 5.777915e+00 1.826467e+01 8.906574e+00 3.542852e+01 4.930017e+01 1.910833e+01 2.478097e+01 1.719347e+01 2.082230e+01 1.101835e+01 1.265387e+01 9.992905e+12 1.931857e+00 5.312911e-01 9.775016e-01 7.278138e-01 1.537156e+00 2.155329e+00 1.611476e+00 1.586709e+00 1.574618e+00 1.662582e+00 1.254901e+00 1.475806e+00 2.198397e+12
<GCONST> 1.438758e+02
<STATE> 3
<MEAN> 26
 -9.727105e+00 7.002403e+00 1.761922e+01 5.606495e+00 -9.887479e+00 -1.094328e+01 3.193697e+00 -6.055496e+00 -6.193739e-01 -3.956724e+00 4.317659e+00 -6.777484e-01 1.702179e+01 8.913205e-03 -1.735375e-02 6.657265e-02 -6.835071e-05 -1.080419e-01 -1.130696e-01 -5.014197e-03 -1.718947e-02 -3.933614e-02 -4.076623e-02 1.118885e-01 -3.555883e-03 1.440628e-02
<VARIANCE> 26
 7.904031e+00 2.805882e+00 5.133054e+00 1.102940e+01 8.329519e+00 8.597376e+00 1.676180e+01 9.759275e+00 1.024153e+01 1.179005e+01 1.162620e+01 1.056067e+01 9.992905e+12 4.238200e-01 2.805802e-01 4.955363e-01 6.844828e-01 7.588300e-01 8.877391e-01 1.279934e+00 9.699509e-01 9.658419e-01 9.479311e-01 8.839013e-01 9.162234e-01 2.198397e+12
<GCONST> 1.285561e+02
<STATE> 4
<MEAN> 26
 -4.786923e+00 9.143562e+00 1.301727e+01 8.613414e+00 -6.474001e+00 -8.822070e+00 2.927732e+00 -5.976782e+00 -2.660448e+00 -4.364380e+00 4.363755e+00 -2.311874e+00 1.654086e+01 4.086079e-02 5.212889e-02 -3.152677e-01 2.790960e-02 5.433854e-01 5.774400e-01 7.054950e-02 3.337854e-01 1.578693e-01 1.815664e-01 -9.765140e-02 8.731741e-02 -5.344110e-02
<VARIANCE> 26
 6.009548e+00 6.286987e+00 8.497876e+00 7.175836e+00 1.983342e+01 1.619420e+01 1.095453e+01 1.446023e+01 1.478880e+01 1.082298e+01 1.166602e+01 1.099953e+01 9.992905e+12 5.428583e-01 3.836738e-01 7.009685e-01 5.309702e-01 1.482213e+00 1.839973e+00 1.037049e+00 1.404296e+00 1.188091e+00 1.286063e+00 9.579520e-01 9.359965e-01 2.198397e+12
<GCONST> 1.337829e+02
<TRANSP> 5
 0.000000e+00 1.000000e+00 0.000000e+00 0.000000e+00 0.000000e+00
 0.000000e+00 7.277178e-01 2.722822e-01 0.000000e+00 0.000000e+00
 0.000000e+00 0.000000e+00 9.020274e-01 9.797267e-02 0.000000e+00
 0.000000e+00 0.000000e+00 0.000000e+00 8.531649e-01 1.468351e-01
 0.000000e+00 0.000000e+00 0.000000e+00 0.000000e+00 0.000000e+00
<ENDHMM>
