~o
<STREAMINFO> 1 26
<VECSIZE> 26<NULLD><MFCC_E_D><DIAGC>
~h "j"
<BEGINHMM>
<NUMSTATES> 5
<STATE> 2
<MEAN> 26
 -3.295666e+00 2.870565e+00 8.993950e+00 4.095905e+00 -9.851038e+00 -5.819849e+00 -2.728677e+00 -1.535661e+00 5.827357e+00 -4.350205e+00 1.049552e-01 -8.684049e-01 1.733230e+01 -3.255288e-01 5.349104e-01 1.128109e+00 5.006427e-01 -1.898817e-01 -8.894976e-01 -1.509792e-01 -5.450975e-01 -3.742495e-01 -3.892831e-01 3.471297e-01 3.819198e-01 1.367375e-02
<VARIANCE> 26
 4.255071e+01 3.266556e+01 2.644757e+01 2.055997e+01 8.107320e+01 4.598379e+01 4.056537e+01 1.512825e+01 2.924638e+01 2.403784e+01 1.715069e+01 1.628003e+01 9.992905e+12 1.220162e+00 1.371174e+00 1.156503e+00 1.201015e+00 1.823878e+00 1.560999e+00 1.954590e+00 1.113277e+00 1.717154e+00 1.243550e+00 1.328371e+00 1.317808e+00 2.198397e+12
<GCONST> 1.504880e+02
<STATE> 3
<MEAN> 26
 -6.760649e+00 7.717956e+00 1.654946e+01 6.903656e+00 -1.000229e+01 -1.056653e+01 6.433337e-01 -5.669446e+00 1.431570e-02 -6.231864e+00 3.813573e+00 2.595866e-01 1.708601e+01 -5.785199e-02 -4.926891e-02 1.544001e-01 -5.452455e-02 -1.210596e-01 -8.202004e-02 -1.079249e-01 -1.216348e-02 1.175404e-02 -1.105521e-01 5.180068e-02 7.282395e-02 2.135683e-02
<VARIANCE> 26
 9.321426e+00 5.212691e+00 1.058238e+01 1.151791e+01 1.616971e+01 1.193104e+01 2.043589e+01 9.104334e+00 1.350694e+01 1.552257e+01 9.943737e+00 1.019266e+01 9.992905e+12 4.812064e-01 3.998806e-01 6.023110e-01 7.938210e-01 1.093347e+00 9.749444e-01 1.392063e+00 9.646466e-01 9.820334e-01 1.041682e+00 9.659910e-01 8.483636e-01 2.198397e+12
<GCONST> 1.330718e+02
<STATE> 4
<MEAN> 26
 -2.049470e+00 1.905188e+00 9.241982e+00 2.999823e+00 -1.210662e+01 -8.180713e+00 -5.865346e+00 -3.025569e+00 6.511241e+00 -5.683881e+00 -3.253477e-01 -5.779538e-01 1.791293e+01 1.192339e+00 -1.082657e+00 -1.624233e+00 -9.764736e-01 -6.165913e-01 5.515174e-01 -3.698543e-01 2.236931e-01 6.579929e-01 5.427261e-01 -6.644412e-01 -8.710647e-01 1.731512e-01
<VARIANCE> 26
 2.756666e+01 2.249305e+01 3.822371e+01 2.547037e+01 4.567561e+01 2.793282e+01 3.546698e+01 1.525451e+01 2.315234e+01 3.363896e+01 1.679817e+01 1.724457e+01 9.992905e+12 1.803231e+00 1.237616e+00 1.500914e+00 1.755572e+00 2.686164e+00 1.737337e+00 3.124444e+00 1.609832e+00 1.670677e+00 2.146267e+00 1.618151e+00 1.217511e+00 2.198397e+12
<GCONST> 1.521012e+02
<TRANSP> 5
 0.000000e+00 1.000000e+00 0.000000e+00 0.000000e+00 0.000000e+00
 0.000000e+00 7.919095e-01 2.080906e-01 0.000000e+00 0.000000e+00
 0.000000e+00 0.000000e+00 8.974760e-01 1.025241e-01 0.000000e+00
 0.000000e+00 0.000000e+00 0.000000e+00 7.773567e-01 2.226432e-01
 0.000000e+00 0.000000e+00 0.000000e+00 0.000000e+00 0.000000e+00
<ENDHMM>
