~o
<STREAMINFO> 1 26
<VECSIZE> 26<NULLD><MFCC_E_D><DIAGC>
~h "k"
<BEGINHMM>
<NUMSTATES> 5
<STATE> 2
<MEAN> 26
 -3.554595e+00 8.487233e+00 7.669549e+00 4.557848e+00 -2.399659e+00 -2.478976e-01 1.239611e+00 5.038062e-01 1.770625e+00 -1.034957e+00 1.284976e+00 -8.847383e-01 1.609924e+01 -9.534853e-01 4.987827e-01 8.432350e-02 1.004491e+00 2.176925e+00 1.719732e+00 9.861463e-01 1.060812e+00 1.114983e-01 7.124955e-01 2.492632e-01 8.128386e-01 -3.615844e-01
<VARIANCE> 26
 1.483632e+01 7.026692e+00 1.021408e+01 2.904922e+01 3.575352e+01 3.030687e+01 1.740141e+01 1.673276e+01 1.516604e+01 1.736698e+01 9.854520e+00 1.495794e+01 9.992905e+12 1.125226e+00 1.085815e+00 1.531883e+00 2.206172e+00 2.005988e+00 2.539672e+00 1.470293e+00 1.794720e+00 1.887399e+00 2.035081e+00 1.187835e+00 1.497190e+00 2.198397e+12
<GCONST> 1.456427e+02
<STATE> 3
<MEAN> 26
 -7.922646e+00 8.468964e+00 5.933182e+00 6.909317e+00 4.717064e+00 7.925505e+00 5.111582e+00 5.100454e+00 4.323689e+00 2.315619e+00 2.525888e+00 2.068977e+00 1.426861e+01 -2.726410e-01 -7.527170e-02 -5.413322e-02 -1.400614e-01 -1.172607e-01 2.093557e-02 -1.104406e-01 -8.964652e-02 7.030538e-02 5.320952e-02 -4.862966e-02 1.679973e-02 -2.657679e-02
<VARIANCE> 26
 5.240467e+00 3.150569e+00 3.962854e+00 4.698634e+00 7.419199e+00 9.803524e+00 9.627286e+00 1.163335e+01 9.894467e+00 1.051271e+01 9.305456e+00 8.118566e+00 9.992905e+12 5.860810e-01 3.318086e-01 4.690650e-01 6.115642e-01 1.031604e+00 1.402190e+00 1.086668e+00 1.392599e+00 1.215508e+00 1.321519e+00 1.171525e+00 1.050747e+00 2.198397e+12
<GCONST> 1.284182e+02
<STATE> 4
<MEAN> 26
 -8.785455e+00 7.200243e+00 5.933354e+00 1.918068e+00 -2.068696e+00 2.260879e+00 1.698990e+00 1.028082e+00 3.394018e+00 1.029498e+00 9.118816e-01 -4.622258e-01 1.552860e+01 7.515588e-01 -5.263706e-01 -2.779866e-01 -1.041956e+00 -1.513967e+00 -9.778088e-01 -4.939853e-01 -5.460240e-01 1.673508e-01 -6.286251e-02 -2.637697e-01 -6.930882e-01 3.244042e-01
<VARIANCE> 26
 4.927042e+01 7.156769e+00 1.024654e+01 1.706603e+01 2.165758e+01 1.473863e+01 1.565355e+01 1.406152e+01 1.337729e+01 1.588831e+01 1.292190e+01 1.367301e+01 9.992905e+12 2.029564e+00 7.655395e-01 1.539449e+00 2.085153e+00 2.257429e+00 1.628621e+00 1.830969e+00 1.681605e+00 1.610967e+00 1.509208e+00 1.517810e+00 1.372451e+00 2.198397e+12
<GCONST> 1.445151e+02
<TRANSP> 5
 0.000000e+00 1.000000e+00 0.000000e+00 0.000000e+00 0.000000e+00
 0.000000e+00 7.165464e-01 2.834536e-01 0.000000e+00 0.000000e+00
 0.000000e+00 0.000000e+00 8.772008e-01 1.227992e-01 0.000000e+00
 0.000000e+00 0.000000e+00 0.000000e+00 8.141886e-01 1.858114e-01
 0.000000e+00 0.000000e+00 0.000000e+00 0.000000e+00 0.000000e+00
<ENDHMM>
