~o
<STREAMINFO> 1 26
<VECSIZE> 26<NULLD><MFCC_E_D><DIAGC>
~h "l"
<BEGINHMM>
<NUMSTATES> 5
<STATE> 2
<MEAN> 26
 -6.657068e-01 3.587469e+00 5.094832e+00 2.656200e+00 -6.921244e+00 -3.951081e+00 -3.336498e+00 -1.583591e+00 4.501196e+00 -3.022258e+00 -9.094583e-01 -2.994381e+00 1.729292e+01 3.639183e-01 4.183500e-01 5.070222e-01 1.063116e+00 2.374938e-01 -1.494327e+00 -1.470473e+00 -6.737716e-01 1.315176e-02 -6.983443e-01 -1.900763e-01 9.724392e-02 1.031519e-01
<VARIANCE> 26
 1.906697e+01 2.480784e+01 3.497248e+01 4.021730e+01 4.653755e+01 4.161124e+01 4.610448e+01 1.613510e+01 2.521321e+01 2.322218e+01 1.972726e+01 2.283545e+01 9.992905e+12 1.076416e+00 2.143756e+00 1.091978e+00 2.187397e+00 3.407916e+00 2.005921e+00 2.647964e+00 1.309166e+00 1.862587e+00 2.024738e+00 1.418107e+00 1.527229e+00 2.198397e+12
<GCONST> 1.531802e+02
<STATE> 3
<MEAN> 26
 1.624805e+00 5.566480e+00 8.770366e+00 8.852156e+00 -5.822599e+00 -1.204123e+01 -1.404985e+01 -4.912699e+00 7.467962e+00 -9.936343e+00 -2.379960e+00 -2.213343e+00 1.821404e+01 5.832411e-02 -2.576777e-02 -1.108720e-02 5.117177e-02 1.917035e-02 -6.614454e-02 -1.310528e-01 -6.063643e-02 4.726463e-02 -7.095620e-02 -5.334281e-03 5.750649e-03 9.972758e-03
<VARIANCE> 26
 7.596868e+00 4.056470e+00 1.993021e+01 8.911786e+00 1.813728e+01 1.067773e+01 3.077522e+01 9.580400e+00 1.265067e+01 1.594740e+01 1.001921e+01 1.246561e+01 9.992905e+12 2.695428e-01 4.026242e-01 6.004663e-01 7.224147e-01 9.672876e-01 9.598870e-01 1.655618e+00 9.321388e-01 1.019746e+00 1.277493e+00 1.025464e+00 7.378601e-01 2.198397e+12
<GCONST> 1.331205e+02
<STATE> 4
<MEAN> 26
 -9.748031e-01 3.442325e+00 6.174615e+00 3.950994e+00 -7.209519e+00 -6.440040e+00 -4.767947e+00 -2.975976e+00 4.658018e+00 -3.576257e+00 -2.837941e-01 -2.669033e+00 1.746067e+01 -1.600855e-01 -4.892209e-01 -5.727754e-01 -1.036885e+00 -2.412800e-01 1.082381e+00 9.923578e-01 3.714725e-01 3.804043e-02 6.714073e-01 5.880561e-02 -2.280699e-01 -1.445393e-02
<VARIANCE> 26
 2.022115e+01 1.856898e+01 4.202300e+01 2.594943e+01 2.966087e+01 3.385501e+01 5.044713e+01 1.473171e+01 2.446962e+01 2.515420e+01 1.752218e+01 1.936902e+01 9.992905e+12 8.941935e-01 1.667529e+00 1.513380e+00 2.112804e+00 2.231635e+00 2.295965e+00 3.148693e+00 1.211731e+00 1.888799e+00 1.856570e+00 1.560428e+00 1.400620e+00 2.198397e+12
<GCONST> 1.514028e+02
<TRANSP> 5
 0.000000e+00 1.000000e+00 0.000000e+00 0.000000e+00 0.000000e+00
 0.000000e+00 7.472059e-01 2.527941e-01 0.000000e+00 0.000000e+00
 0.000000e+00 0.000000e+00 8.469360e-01 1.530640e-01 0.000000e+00
 0.000000e+00 0.000000e+00 0.000000e+00 6.894186e-01 3.105815e-01
 0.000000e+00 0.000000e+00 0.000000e+00 0.000000e+00 0.000000e+00
<ENDHMM>
