~o
<STREAMINFO> 1 26
<VECSIZE> 26<NULLD><MFCC_E_D><DIAGC>
~h "m"
<BEGINHMM>
<NUMSTATES> 5
<STATE> 2
<MEAN> 26
 -1.278402e+00 6.028840e+00 5.136714e+00 3.166602e+00 -4.705253e+00 -3.428176e+00 -6.347889e-01 -4.093654e-01 2.607286e+00 -3.584111e+00 3.428983e-01 -3.239904e+00 1.679603e+01 1.170227e-01 8.417120e-01 5.292147e-01 9.704211e-01 6.439873e-01 -7.763827e-01 2.950450e-01 -4.320907e-01 -9.911674e-01 -3.366326e-01 3.937420e-01 1.423768e-01 -6.354309e-02
<VARIANCE> 26
 1.737328e+01 1.563160e+01 2.743071e+01 4.817296e+01 3.546555e+01 4.613550e+01 4.762974e+01 2.305516e+01 2.149765e+01 2.825485e+01 1.825821e+01 2.003377e+01 9.992905e+12 1.133720e+00 1.287963e+00 1.395949e+00 1.829437e+00 2.025810e+00 2.085306e+00 2.523067e+00 1.744617e+00 1.934624e+00 1.794339e+00 1.438663e+00 1.620150e+00 2.198397e+12
<GCONST> 1.519697e+02
<STATE> 3
<MEAN> 26
 -8.881957e-01 1.078507e+01 9.450507e+00 7.831708e+00 -2.771960e+00 -7.492755e+00 1.067110e+00 -4.212004e+00 -3.382846e+00 -4.765939e+00 3.062371e+00 -3.424660e+00 1.650875e+01 2.994144e-02 -6.842826e-02 -4.392809e-03 -3.052456e-02 -1.233744e-01 -1.253781e-01 -3.492283e-02 -1.072269e-01 -7.289767e-02 -2.901000e-02 5.879873e-02 -5.170077e-02 3.009995e-03
<VARIANCE> 26
 1.842833e+00 8.344208e+00 7.385252e+00 6.643268e+00 1.136624e+01 1.259688e+01 1.105288e+01 1.003654e+01 1.215735e+01 1.032565e+01 1.027716e+01 9.792233e+00 9.992905e+12 1.704640e-01 4.968028e-01 4.728565e-01 6.025404e-01 1.007221e+00 1.109870e+00 1.102679e+00 9.003575e-01 1.221275e+00 1.069670e+00 1.003034e+00 9.383796e-01 2.198397e+12
<GCONST> 1.284660e+02
<STATE> 4
<MEAN> 26
 4.182719e-01 5.984232e+00 4.087066e+00 2.532623e+00 -6.180188e+00 -5.128365e+00 -2.686695e-01 -2.078120e+00 -3.053583e-03 -3.320564e+00 2.178930e+00 -4.234002e+00 1.688936e+01 2.908280e-01 -9.251551e-01 -9.008555e-01 -1.165125e+00 -8.204500e-01 5.108546e-01 -4.841594e-01 1.948999e-01 8.863375e-01 1.642570e-02 -2.615025e-01 -8.553439e-02 1.465531e-01
<VARIANCE> 26
 6.060180e+00 1.255009e+01 2.275027e+01 3.056232e+01 1.381326e+01 2.090397e+01 2.417329e+01 1.304367e+01 2.290326e+01 1.835535e+01 1.540745e+01 1.509360e+01 9.992905e+12 5.891538e-01 1.462158e+00 1.722268e+00 2.173653e+00 1.622279e+00 1.562742e+00 1.622853e+00 1.129952e+00 2.012346e+00 1.519706e+00 1.184018e+00 1.281164e+00 2.198397e+12
<GCONST> 1.441637e+02
<TRANSP> 5
 0.000000e+00 1.000000e+00 0.000000e+00 0.000000e+00 0.000000e+00
 0.000000e+00 8.082232e-01 1.917768e-01 0.000000e+00 0.000000e+00
 0.000000e+00 0.000000e+00 8.517014e-01 1.482986e-01 0.000000e+00
 0.000000e+00 0.000000e+00 0.000000e+00 6.877456e-01 3.122545e-01
 0.000000e+00 0.000000e+00 0.000000e+00 0.000000e+00 0.000000e+00
<ENDHMM>
