~o
<STREAMINFO> 1 26
<VECSIZE> 26<NULLD><MFCC_E_D><DIAGC>
~h "n"
<BEGINHMM>
<NUMSTATES> 5
<STATE> 2
<MEAN> 26
 -2.131379e+00 5.483860e+00 6.302309e+00 3.442824e+00 -6.456917e+00 -4.033385e+00 -1.642832e+00 -1.011792e+00 3.533356e+00 -3.659453e+00 1.590747e-01 -2.834494e+00 1.687848e+01 -3.072146e-01 8.755404e-01 1.336604e+00 1.466415e+00 2.641117e-01 -1.525456e+00 3.160053e-02 -4.800083e-01 -9.397268e-01 -8.458671e-01 2.718734e-01 4.449098e-01 -4.443803e-02
<VARIANCE> 26
 1.705230e+01 1.828071e+01 2.629116e+01 4.170290e+01 4.488635e+01 4.297862e+01 4.262197e+01 1.889641e+01 2.199877e+01 3.527460e+01 1.587971e+01 2.004292e+01 9.992905e+12 1.581641e+00 1.499793e+00 1.361618e+00 2.280474e+00 2.682945e+00 2.065809e+00 2.113624e+00 1.813954e+00 1.883538e+00 1.993006e+00 1.363963e+00 1.692463e+00 2.198397e+12
<GCONST> 1.527642e+02
<STATE> 3
<MEAN> 26
 -3.183749e+00 7.891199e+00 1.340846e+01 8.451799e+00 -7.591971e+00 -1.020570e+01 -1.466152e+00 -5.436799e+00 -1.984796e-01 -7.415173e+00 2.230734e+00 -1.051099e+00 1.710349e+01 -7.040520e-04 -7.589827e-02 1.102186e-01 2.797894e-02 -8.065126e-02 -9.336760e-02 -1.484127e-01 -7.001729e-02 1.165402e-01 -1.345231e-01 5.078041e-03 9.388582e-02 2.140082e-02
<VARIANCE> 26
 3.293584e+00 6.683782e+00 9.078915e+00 5.476734e+00 1.097971e+01 9.025846e+00 2.989075e+01 9.164687e+00 1.746300e+01 1.591825e+01 1.244735e+01 1.113524e+01 9.992905e+12 1.958091e-01 3.438916e-01 5.946622e-01 5.562901e-01 8.625441e-01 8.664460e-01 1.329785e+00 9.597486e-01 1.118432e+00 1.030228e+00 1.012576e+00 8.239417e-01 2.198397e+12
<GCONST> 1.300118e+02
<STATE> 4
<MEAN> 26
 -1.920355e+00 4.488931e+00 9.044575e+00 5.409655e+00 -7.972261e+00 -8.451388e+00 -5.031078e+00 -2.554546e+00 5.356541e+00 -5.615097e+00 -2.228606e-02 -1.901124e+00 1.741376e+01 2.917764e-01 -5.307457e-01 -1.027414e+00 -8.540791e-01 9.187943e-02 9.081420e-01 -1.611989e-01 2.297400e-01 4.350909e-01 6.828085e-01 -2.626711e-01 -2.139543e-01 2.183425e-02
<VARIANCE> 26
 8.928537e+00 1.151320e+01 2.561470e+01 1.929803e+01 2.188954e+01 2.582219e+01 4.029986e+01 1.408946e+01 1.955969e+01 3.178832e+01 1.322883e+01 1.471853e+01 9.992905e+12 1.062575e+00 1.668022e+00 1.578091e+00 2.371190e+00 2.249428e+00 2.215640e+00 3.264022e+00 1.406584e+00 1.985732e+00 1.664728e+00 1.586994e+00 1.312179e+00 2.198397e+12
<GCONST> 1.483069e+02
<TRANSP> 5
 0.000000e+00 1.000000e+00 0.000000e+00 0.000000e+00 0.000000e+00
 0.000000e+00 7.682071e-01 2.317929e-01 0.000000e+00 0.000000e+00
 0.000000e+00 0.000000e+00 9.155155e-01 8.448447e-02 0.000000e+00
 0.000000e+00 0.000000e+00 0.000000e+00 7.191707e-01 2.808292e-01
 0.000000e+00 0.000000e+00 0.000000e+00 0.000000e+00 0.000000e+00
<ENDHMM>
