~o
<STREAMINFO> 1 26
<VECSIZE> 26<NULLD><MFCC_E_D><DIAGC>
~h "o"
<BEGINHMM>
<NUMSTATES> 5
<STATE> 2
<MEAN> 26
 4.234239e-01 5.330860e+00 9.464758e-01 -3.783986e+00 -6.344459e+00 9.818743e-01 1.025692e+00 3.700294e-01 2.155931e+00 -1.279842e+00 9.526346e-01 -4.242714e+00 1.688952e+01 1.269729e+00 -1.126219e+00 -1.487836e+00 -2.227508e+00 -1.806785e+00 1.874644e-01 -3.963326e-01 -6.089740e-01 -7.167540e-02 -1.513456e-01 -2.286256e-01 -1.360103e+00 4.502605e-01
<VARIANCE> 26
 1.309026e+01 1.778947e+01 1.770596e+01 4.704115e+01 3.514025e+01 1.890207e+01 3.153923e+01 1.997954e+01 1.841752e+01 2.282274e+01 1.392682e+01 1.993427e+01 9.992905e+12 1.415024e+00 8.747560e-01 1.002132e+00 2.360659e+00 2.250922e+00 2.549312e+00 2.058855e+00 1.589230e+00 1.553025e+00 2.279660e+00 1.456059e+00 1.221561e+00 2.198397e+12
<GCONST> 1.487708e+02
<STATE> 3
<MEAN> 26
 4.881016e+00 -5.136477e-01 -4.694436e+00 -1.165806e+01 -1.292086e+01 4.161338e+00 -1.957662e+00 -2.350747e+00 3.265881e+00 -3.585272e-03 7.507090e-01 -1.051963e+01 1.888036e+01 6.766697e-03 5.234301e-02 2.584482e-02 2.818283e-02 1.894607e-02 1.535091e-02 9.579249e-02 3.959032e-02 -6.844664e-02 -3.402536e-02 -7.964773e-03 -9.219188e-02 -1.713957e-02
<VARIANCE> 26
 1.217471e+00 4.875056e+00 3.111547e+00 9.396490e+00 6.793821e+00 6.773198e+00 1.465880e+01 1.097387e+01 1.379308e+01 1.542894e+01 6.957999e+00 9.203973e+00 9.992905e+12 1.116665e-01 4.470666e-01 3.263455e-01 5.775898e-01 5.985544e-01 5.801569e-01 1.014007e+00 6.760800e-01 7.984129e-01 1.037307e+00 7.068125e-01 6.883116e-01 2.198397e+12
<GCONST> 1.227121e+02
<STATE> 4
<MEAN> 26
 2.042291e+00 5.900957e+00 2.048178e-02 -5.441713e+00 -7.555639e+00 4.416351e-01 4.034108e+00 9.299647e-01 -3.416883e-01 -2.890071e+00 1.409442e+00 -6.833190e+00 1.703765e+01 -5.841207e-01 5.669452e-01 7.787654e-01 1.212629e+00 9.250383e-01 -1.915664e-01 6.290238e-02 1.373030e-01 5.497528e-02 1.086222e-01 1.017963e-01 8.045064e-01 -1.725385e-01
<VARIANCE> 26
 6.252609e+00 1.020783e+01 1.311265e+01 4.155885e+01 2.038020e+01 1.265084e+01 1.727398e+01 1.431230e+01 1.797246e+01 1.639800e+01 1.451701e+01 1.900748e+01 9.992905e+12 7.444862e-01 7.683337e-01 1.126435e+00 2.856855e+00 1.836545e+00 1.405913e+00 1.232555e+00 1.217995e+00 1.185828e+00 1.406869e+00 1.057881e+00 1.672078e+00 2.198397e+12
<GCONST> 1.420093e+02
<TRANSP> 5
 0.000000e+00 1.000000e+00 0.000000e+00 0.000000e+00 0.000000e+00
 0.000000e+00 7.829282e-01 2.170718e-01 0.000000e+00 0.000000e+00
 0.000000e+00 0.000000e+00 9.268408e-01 7.315915e-02 0.000000e+00
 0.000000e+00 0.000000e+00 0.000000e+00 8.385082e-01 1.614918e-01
 0.000000e+00 0.000000e+00 0.000000e+00 0.000000e+00 0.000000e+00
<ENDHMM>
