~o
<STREAMINFO> 1 26
<VECSIZE> 26<NULLD><MFCC_E_D><DIAGC>
~h "o^"
<BEGINHMM>
<NUMSTATES> 5
<STATE> 2
<MEAN> 26
 5.103300e-01 4.824605e+00 2.297310e-01 -4.430685e+00 -6.858645e+00 8.670470e-01 3.423119e-01 -1.054000e+00 2.974179e+00 -8.225595e-01 3.553065e-01 -4.547868e+00 1.720976e+01 1.499613e+00 -1.240336e+00 -1.480811e+00 -2.184736e+00 -1.917536e+00 2.314184e-01 -2.761414e-01 -7.702349e-01 -8.846854e-02 -3.930197e-01 -2.322661e-01 -1.435247e+00 4.949202e-01
<VARIANCE> 26
 2.172723e+01 1.613850e+01 1.946546e+01 4.313942e+01 3.498249e+01 1.645265e+01 3.360817e+01 2.958823e+01 1.626862e+01 2.774626e+01 1.400689e+01 2.275402e+01 9.992905e+12 2.448315e+00 1.101323e+00 1.249362e+00 2.638426e+00 2.210898e+00 1.397842e+00 2.384419e+00 1.881471e+00 1.446996e+00 2.149606e+00 1.374166e+00 1.608697e+00 2.198397e+12
<GCONST> 1.506055e+02
<STATE> 3
<MEAN> 26
 4.071326e+00 2.900788e-01 -4.803997e+00 -1.192013e+01 -1.215257e+01 3.369396e+00 2.095739e+00 -1.825637e+00 2.389627e+00 -2.005456e+00 -5.375352e-02 -1.081382e+01 1.864532e+01 1.121176e-02 7.905561e-02 5.982586e-02 -1.208827e-02 1.099097e-02 1.389532e-02 7.877246e-02 1.026956e-01 -8.108155e-02 -6.099486e-02 -1.250258e-02 -6.729881e-03 -1.834351e-02
<VARIANCE> 26
 1.406520e+00 1.112877e+01 5.147198e+00 1.085213e+01 9.580950e+00 7.504488e+00 3.727693e+01 1.708436e+01 2.343547e+01 3.174770e+01 9.470579e+00 1.110752e+01 9.992905e+12 9.819148e-02 4.887071e-01 4.210760e-01 8.053586e-01 5.763021e-01 6.711645e-01 1.025140e+00 7.324768e-01 8.030530e-01 1.095109e+00 7.266934e-01 8.109317e-01 2.198397e+12
<GCONST> 1.288977e+02
<STATE> 4
<MEAN> 26
 1.533286e+00 5.088190e+00 5.403342e-01 -4.029241e+00 -7.166477e+00 1.334229e+00 1.810372e+00 -1.547405e-01 1.599910e+00 -1.183111e+00 7.269772e-01 -5.254009e+00 1.719047e+01 -9.953398e-01 7.815241e-01 1.276848e+00 2.453880e+00 1.756443e+00 -3.300871e-01 -2.355425e-01 1.045896e-01 2.604728e-01 3.453623e-01 1.886754e-01 1.355949e+00 -3.224699e-01
<VARIANCE> 26
 8.146696e+00 1.583234e+01 1.470915e+01 5.018809e+01 3.810650e+01 1.245655e+01 2.843771e+01 1.634695e+01 2.163665e+01 2.684960e+01 1.123855e+01 2.234574e+01 9.992905e+12 6.949769e-01 8.318676e-01 8.900703e-01 2.156164e+00 2.004058e+00 1.728444e+00 1.888226e+00 1.533599e+00 1.424662e+00 2.257281e+00 1.236139e+00 1.737966e+00 2.198397e+12
<GCONST> 1.461378e+02
<TRANSP> 5
 0.000000e+00 1.000000e+00 0.000000e+00 0.000000e+00 0.000000e+00
 0.000000e+00 7.690932e-01 2.309069e-01 0.000000e+00 0.000000e+00
 0.000000e+00 0.000000e+00 9.411740e-01 5.882597e-02 0.000000e+00
 0.000000e+00 0.000000e+00 0.000000e+00 6.890750e-01 3.109250e-01
 0.000000e+00 0.000000e+00 0.000000e+00 0.000000e+00 0.000000e+00
<ENDHMM>
