~o
<STREAMINFO> 1 26
<VECSIZE> 26<NULLD><MFCC_E_D><DIAGC>
~h "o~"
<BEGINHMM>
<NUMSTATES> 5
<STATE> 2
<MEAN> 26
 1.755805e+00 3.142968e+00 -1.093903e+00 -8.549687e+00 -9.712276e+00 2.352744e+00 -1.706164e+00 -1.220102e+00 4.111357e+00 -6.661275e-01 2.276430e-01 -5.469534e+00 1.796425e+01 1.166683e+00 -4.915681e-01 -9.234896e-01 -2.322473e+00 -1.364321e+00 5.770555e-01 -2.326619e-01 -9.025518e-02 -1.437758e-01 -8.732914e-01 -3.134185e-01 -6.387486e-01 3.422630e-01
<VARIANCE> 26
 1.840984e+01 2.688351e+01 2.060379e+01 4.639658e+01 3.332170e+01 1.615602e+01 2.140065e+01 2.505708e+01 1.683788e+01 2.991100e+01 1.208654e+01 2.195441e+01 9.992905e+12 2.570947e+00 1.605593e+00 1.489344e+00 2.727690e+00 2.518032e+00 1.789507e+00 2.065477e+00 1.977961e+00 1.606737e+00 3.046083e+00 1.411975e+00 1.819704e+00 2.198397e+12
<GCONST> 1.518437e+02
<STATE> 3
<MEAN> 26
 4.691988e+00 7.301358e+00 1.402873e-01 -1.649630e+01 -1.197816e+01 3.633869e+00 -2.577838e+00 4.652994e+00 2.149835e+00 -1.206497e+01 -1.081823e+00 -4.358472e+00 1.829284e+01 6.834237e-02 2.896049e-01 2.354238e-01 7.413866e-02 1.406270e-02 -8.903653e-02 -1.520089e-01 2.439170e-01 -1.573309e-01 -4.101658e-01 5.722589e-03 1.864759e-01 -2.621911e-02
<VARIANCE> 26
 1.947711e+00 1.227850e+01 1.011962e+01 6.077653e+00 6.558755e+00 9.387671e+00 1.711644e+01 1.504367e+01 8.802120e+00 2.497130e+01 1.015285e+01 1.025382e+01 9.992905e+12 8.912846e-02 5.231134e-01 4.806430e-01 7.680562e-01 5.825775e-01 7.573100e-01 9.114450e-01 1.017617e+00 7.956988e-01 1.620489e+00 8.467109e-01 7.327358e-01 2.198397e+12
<GCONST> 1.279605e+02
<STATE> 4
<MEAN> 26
 2.551520e+00 9.310541e+00 4.183624e+00 -4.934971e+00 -6.694595e+00 1.365016e+00 -2.038562e+00 2.273238e+00 1.662677e-02 -6.645414e+00 8.974333e-01 -1.198583e+00 1.718422e+01 -1.238316e+00 1.035133e-01 7.272899e-01 2.903296e+00 1.957471e+00 2.686805e-02 9.007788e-01 -6.244012e-01 2.798208e-01 1.980103e+00 3.382990e-01 3.147680e-01 -3.384124e-01
<VARIANCE> 26
 9.942882e+00 5.610414e+00 1.021954e+01 6.429339e+01 3.626110e+01 1.160516e+01 1.874675e+01 1.698438e+01 1.162129e+01 3.829180e+01 1.035853e+01 1.267780e+01 9.992905e+12 7.010526e-01 6.657656e-01 8.641893e-01 2.438161e+00 2.315323e+00 1.826985e+00 1.421428e+00 1.915230e+00 1.337120e+00 2.771643e+00 1.187801e+00 1.336730e+00 2.198397e+12
<GCONST> 1.436262e+02
<TRANSP> 5
 0.000000e+00 1.000000e+00 0.000000e+00 0.000000e+00 0.000000e+00
 0.000000e+00 8.335027e-01 1.664973e-01 0.000000e+00 0.000000e+00
 0.000000e+00 0.000000e+00 9.460989e-01 5.390118e-02 0.000000e+00
 0.000000e+00 0.000000e+00 0.000000e+00 7.361812e-01 2.638188e-01
 0.000000e+00 0.000000e+00 0.000000e+00 0.000000e+00 0.000000e+00
<ENDHMM>
