~o
<STREAMINFO> 1 26
<VECSIZE> 26<NULLD><MFCC_E_D><DIAGC>
~h "p"
<BEGINHMM>
<NUMSTATES> 5
<STATE> 2
<MEAN> 26
 -2.079571e+00 7.840314e+00 6.376241e+00 4.349612e+00 -2.230065e+00 1.962928e-01 5.017521e-01 -1.063970e+00 1.315703e+00 -6.980221e-01 1.261172e+00 -2.036888e+00 1.632600e+01 -1.101272e+00 1.162000e+00 7.418175e-01 1.865746e+00 2.920367e+00 1.823851e+00 1.329592e+00 1.169539e+00 -2.476574e-01 4.205614e-01 3.932858e-01 1.213580e+00 -5.203320e-01
<VARIANCE> 26
 1.166682e+01 1.325404e+01 1.816514e+01 3.796122e+01 4.290874e+01 3.096281e+01 1.697964e+01 1.840246e+01 1.515843e+01 1.717709e+01 1.102079e+01 1.723763e+01 9.992905e+12 1.306085e+00 1.983358e+00 2.230020e+00 3.446600e+00 2.480099e+00 3.220966e+00 1.718760e+00 2.036350e+00 2.082317e+00 1.989847e+00 1.376562e+00 1.581250e+00 2.198397e+12
<GCONST> 1.499803e+02
<STATE> 3
<MEAN> 26
 -7.933628e+00 8.449709e+00 6.169993e+00 7.300312e+00 4.922718e+00 7.982008e+00 5.451927e+00 5.279773e+00 4.142767e+00 2.365874e+00 2.737934e+00 1.840189e+00 1.418629e+01 -2.765598e-01 -1.233283e-01 -2.986331e-02 -1.691253e-01 -1.953419e-01 -2.052886e-02 -1.282613e-01 -3.401901e-02 1.283791e-01 8.648265e-02 -2.630995e-02 4.861459e-02 -2.051685e-02
<VARIANCE> 26
 3.137360e+00 3.008509e+00 3.670607e+00 4.748744e+00 6.159838e+00 8.507448e+00 8.551734e+00 1.058407e+01 1.073245e+01 1.073887e+01 1.005771e+01 8.892822e+00 9.992905e+12 8.123419e-01 3.482377e-01 4.797284e-01 6.407244e-01 1.009086e+00 1.767451e+00 1.345885e+00 1.570692e+00 1.361972e+00 1.423409e+00 1.288082e+00 1.065152e+00 2.198397e+12
<GCONST> 1.288078e+02
<STATE> 4
<MEAN> 26
 -4.723502e+00 6.401947e+00 6.056249e+00 2.829017e+00 -2.871770e+00 1.724093e+00 1.205676e-01 -4.244548e-01 3.281201e+00 6.531751e-01 6.495470e-01 -1.427526e+00 1.601067e+01 1.543506e+00 -9.781334e-01 -8.262939e-01 -1.994099e+00 -2.715029e+00 -1.424133e+00 -1.396718e+00 -1.362586e+00 5.993374e-02 -3.416303e-01 -4.081567e-01 -1.343397e+00 6.012142e-01
<VARIANCE> 26
 2.363786e+01 1.621913e+01 1.840368e+01 2.634291e+01 3.257562e+01 1.609716e+01 1.484017e+01 1.623151e+01 1.755988e+01 1.610596e+01 1.242649e+01 2.084162e+01 9.992905e+12 2.018507e+00 1.263115e+00 2.459096e+00 2.744478e+00 2.265917e+00 2.116998e+00 1.891563e+00 1.863475e+00 1.872131e+00 1.889210e+00 1.149068e+00 1.644409e+00 2.198397e+12
<GCONST> 1.487901e+02
<TRANSP> 5
 0.000000e+00 1.000000e+00 0.000000e+00 0.000000e+00 0.000000e+00
 0.000000e+00 7.011663e-01 2.988337e-01 0.000000e+00 0.000000e+00
 0.000000e+00 0.000000e+00 8.673461e-01 1.326538e-01 0.000000e+00
 0.000000e+00 0.000000e+00 0.000000e+00 6.733218e-01 3.266782e-01
 0.000000e+00 0.000000e+00 0.000000e+00 0.000000e+00 0.000000e+00
<ENDHMM>
