~o
<STREAMINFO> 1 26
<VECSIZE> 26<NULLD><MFCC_E_D><DIAGC>
~h "q"
<BEGINHMM>
<NUMSTATES> 5
<STATE> 2
<MEAN> 26
 -4.936424e+00 3.565772e+00 4.149786e+00 5.793031e-02 -6.492237e+00 -1.704302e+00 -1.203044e+00 -5.824801e-01 6.017652e+00 1.373181e+00 8.824309e-02 -3.741227e+00 1.684282e+01 5.367012e-01 -5.071505e-01 -6.899461e-01 -7.234977e-01 -6.079355e-01 4.692664e-01 1.608441e-02 1.157121e-02 4.634714e-01 6.298305e-01 -4.046718e-03 -6.661947e-01 1.010397e-01
<VARIANCE> 26
 3.491463e+01 1.377205e+01 2.268868e+01 2.335659e+01 2.718217e+01 2.995658e+01 2.026201e+01 1.681301e+01 1.589308e+01 2.547577e+01 1.591595e+01 1.512662e+01 9.992905e+12 1.626913e+00 1.056916e+00 1.037068e+00 1.356805e+00 1.911209e+00 2.028752e+00 2.555332e+00 1.342885e+00 1.642068e+00 1.771629e+00 1.717623e+00 1.170956e+00 2.198397e+12
<GCONST> 1.478437e+02
<STATE> 3
<MEAN> 26
 -3.849238e+00 4.158799e+00 3.347903e+00 -5.430973e-01 -6.192834e+00 -1.578558e-01 -1.219952e+00 -9.923220e-01 6.332343e+00 4.095496e+00 1.465681e+00 -4.692982e+00 1.671398e+01 -5.181707e-01 1.129197e+00 1.061107e+00 1.351137e+00 1.499290e+00 3.001782e-01 3.446402e-01 2.245560e-01 -9.287171e-01 9.605531e-02 5.543162e-01 9.670495e-01 -2.847259e-01
<VARIANCE> 26
 2.420274e+01 8.463470e+00 1.331594e+01 1.680961e+01 1.956265e+01 1.403150e+01 1.324966e+01 1.470544e+01 1.803009e+01 1.907837e+01 1.832316e+01 1.409556e+01 9.992905e+12 1.240402e+00 9.971485e-01 1.127374e+00 1.488696e+00 2.083173e+00 1.808849e+00 1.449747e+00 1.482404e+00 1.671721e+00 2.106911e+00 1.586487e+00 1.480674e+00 2.198397e+12
<GCONST> 1.440864e+02
<STATE> 4
<MEAN> 26
 -7.793582e+00 7.786363e+00 6.915424e+00 5.650723e+00 2.268886e+00 4.828859e+00 2.366037e+00 2.014976e+00 3.023437e+00 2.060807e+00 1.976924e+00 8.480976e-01 1.520519e+01 -4.405244e-01 4.079921e-01 1.753667e-01 1.001249e+00 1.475215e+00 1.376156e+00 8.645271e-01 7.762786e-01 -1.725462e-01 -1.609354e-01 3.196910e-02 7.626730e-01 -2.653968e-01
<VARIANCE> 26
 1.783621e+01 2.910795e+00 4.302473e+00 1.142033e+01 1.629666e+01 1.912338e+01 1.415282e+01 1.427280e+01 1.235905e+01 1.128521e+01 1.100610e+01 1.158826e+01 9.992905e+12 1.330541e+00 4.724091e-01 6.953980e-01 1.087204e+00 1.920352e+00 1.425390e+00 1.453766e+00 1.502160e+00 1.698676e+00 1.443694e+00 1.359371e+00 1.491619e+00 2.198397e+12
<GCONST> 1.374651e+02
<TRANSP> 5
 0.000000e+00 1.000000e+00 0.000000e+00 0.000000e+00 0.000000e+00
 0.000000e+00 6.998667e-01 3.001333e-01 0.000000e+00 0.000000e+00
 0.000000e+00 0.000000e+00 6.703902e-01 3.296098e-01 0.000000e+00
 0.000000e+00 0.000000e+00 0.000000e+00 6.864386e-01 3.135614e-01
 0.000000e+00 0.000000e+00 0.000000e+00 0.000000e+00 0.000000e+00
<ENDHMM>
