~o
<STREAMINFO> 1 26
<VECSIZE> 26<NULLD><MFCC_E_D><DIAGC>
~h "r"
<BEGINHMM>
<NUMSTATES> 5
<STATE> 2
<MEAN> 26
 3.039645e-01 1.710314e+00 1.108160e+00 -6.295168e+00 -1.119767e+01 1.064801e+00 -2.004177e+00 -2.290048e+00 5.484253e+00 -1.134167e-01 -1.032247e+00 -6.090314e+00 1.802943e+01 -7.438188e-01 7.689879e-01 5.132939e-01 5.280399e-01 8.015912e-01 1.063456e-01 1.993167e-01 3.580368e-01 -2.935483e-02 5.987808e-01 2.977677e-01 2.331326e-01 -2.269153e-01
<VARIANCE> 26
 2.152358e+01 2.914970e+01 3.686513e+01 4.702087e+01 3.266310e+01 2.701196e+01 1.903124e+01 1.974899e+01 2.162240e+01 3.546116e+01 2.190109e+01 2.861572e+01 9.992905e+12 2.528763e+00 2.186701e+00 2.488267e+00 3.540983e+00 3.265688e+00 1.747835e+00 1.861514e+00 1.946998e+00 1.678824e+00 2.334802e+00 1.820742e+00 2.258466e+00 2.198397e+12
<GCONST> 1.555259e+02
<STATE> 3
<MEAN> 26
 -1.117537e+01 5.422625e+00 5.487751e+00 7.961996e-02 -1.464956e+00 3.473567e+00 1.118006e+00 2.158713e+00 5.861103e+00 3.614885e+00 9.079375e-01 -1.549590e+00 1.557681e+01 -2.717195e-01 1.244932e-01 1.470715e-01 2.237033e-01 3.064908e-01 3.474830e-02 1.033674e-01 9.516291e-02 -1.307242e-01 -1.109389e-01 3.896452e-02 1.895645e-01 -7.112975e-02
<VARIANCE> 26
 3.352080e+01 5.148472e+00 8.703362e+00 1.586708e+01 1.864599e+01 1.167598e+01 1.281376e+01 1.391697e+01 1.343425e+01 1.650213e+01 1.143430e+01 1.643029e+01 9.992905e+12 2.670981e+00 4.646324e-01 6.101609e-01 1.149711e+00 1.972972e+00 1.242968e+00 1.353345e+00 1.682616e+00 1.398000e+00 1.555027e+00 1.231439e+00 1.602985e+00 2.198397e+12
<GCONST> 1.404571e+02
<STATE> 4
<MEAN> 26
 -1.084140e+00 5.285768e+00 2.253086e+00 -5.559042e+00 -7.378844e+00 1.470882e+00 2.157555e+00 3.912682e-01 3.042325e+00 -1.703258e+00 2.140640e-01 -4.148830e+00 1.699346e+01 5.241633e-01 -2.844339e-01 -3.008679e-01 -2.583416e-01 -5.064323e-01 -5.295370e-02 -1.737693e-01 -2.188567e-01 2.421870e-02 -2.076134e-01 -6.453177e-02 -1.951290e-01 1.301069e-01
<VARIANCE> 26
 2.773380e+01 1.302451e+01 3.561930e+01 5.151913e+01 2.956307e+01 2.432200e+01 3.257635e+01 2.497025e+01 1.577382e+01 3.021692e+01 1.368827e+01 2.081875e+01 9.992905e+12 1.941753e+00 1.184998e+00 1.417560e+00 2.590370e+00 3.105429e+00 1.326907e+00 1.872049e+00 1.781974e+00 1.280766e+00 1.658672e+00 1.288290e+00 1.809935e+00 2.198397e+12
<GCONST> 1.509940e+02
<TRANSP> 5
 0.000000e+00 1.000000e+00 0.000000e+00 0.000000e+00 0.000000e+00
 0.000000e+00 7.254989e-01 2.745011e-01 0.000000e+00 0.000000e+00
 0.000000e+00 0.000000e+00 8.366221e-01 1.633779e-01 0.000000e+00
 0.000000e+00 0.000000e+00 0.000000e+00 7.443175e-01 2.556826e-01
 0.000000e+00 0.000000e+00 0.000000e+00 0.000000e+00 0.000000e+00
<ENDHMM>
