~o
<STREAMINFO> 1 26
<VECSIZE> 26<NULLD><MFCC_E_D><DIAGC>
~h "s"
<BEGINHMM>
<NUMSTATES> 5
<STATE> 2
<MEAN> 26
 -1.263293e+01 7.969780e+00 6.541200e+00 1.917968e+00 -1.331148e+00 1.352027e+00 2.142297e+00 2.048049e+00 4.399937e+00 1.769388e+00 1.570520e+00 -1.993897e-01 1.573035e+01 -3.070189e+00 4.105818e-01 -5.472495e-01 2.896419e-01 1.626404e+00 8.567374e-01 5.854984e-01 9.329060e-01 4.700812e-01 8.741110e-01 2.089697e-01 4.441865e-01 -3.046896e-01
<VARIANCE> 26
 4.632629e+01 4.930906e+00 1.905538e+01 2.126947e+01 2.774372e+01 3.087680e+01 1.915031e+01 1.589350e+01 1.629558e+01 2.665735e+01 1.405352e+01 1.509746e+01 9.992905e+12 3.091950e+00 1.050473e+00 1.755992e+00 2.561599e+00 3.235716e+00 2.195970e+00 2.036488e+00 1.830248e+00 1.993221e+00 2.641045e+00 1.554501e+00 1.860637e+00 2.198397e+12
<GCONST> 1.501562e+02
<STATE> 3
<MEAN> 26
 -2.553723e+01 8.888750e+00 1.756983e+00 2.968648e+00 3.953331e+00 2.903026e+00 4.334280e+00 6.046925e+00 7.750510e+00 4.105978e+00 2.745470e+00 9.864722e-01 1.562321e+01 -2.011020e-01 -3.360413e-02 -8.553419e-02 -1.124648e-02 1.456835e-02 -1.876171e-02 7.550666e-02 9.422123e-02 8.876263e-02 3.948221e-02 5.006529e-02 4.539541e-02 1.372939e-02
<VARIANCE> 26
 6.266849e+00 2.883930e+00 6.553627e+00 5.186431e+00 7.509157e+00 1.018712e+01 1.225910e+01 1.054446e+01 1.046101e+01 1.009027e+01 9.833914e+00 9.509276e+00 9.992905e+12 7.412702e-01 2.087718e-01 4.950454e-01 5.413626e-01 7.281609e-01 8.425772e-01 1.045853e+00 1.159725e+00 1.163147e+00 1.154352e+00 1.162240e+00 1.028432e+00 2.198397e+12
<GCONST> 1.279483e+02
<STATE> 4
<MEAN> 26
 -1.969607e+01 7.557017e+00 4.878998e+00 1.265321e+00 7.655768e-01 2.791269e+00 3.519303e+00 4.180421e+00 6.007897e+00 3.620146e+00 2.128201e+00 6.439506e-01 1.518608e+01 2.550143e+00 -2.293854e-01 5.833374e-01 -3.269299e-01 -1.146172e+00 -6.723634e-01 -5.962773e-01 -9.838247e-01 -6.913629e-01 -4.392222e-01 -4.368157e-01 -5.402882e-01 1.373603e-01
<VARIANCE> 26
 1.810938e+01 2.806700e+00 7.771325e+00 7.088807e+00 9.100059e+00 1.298525e+01 1.171811e+01 1.224529e+01 1.241042e+01 1.508556e+01 1.161978e+01 9.988632e+00 9.992905e+12 3.077436e+00 4.227432e-01 9.523611e-01 1.234946e+00 1.783349e+00 1.535732e+00 1.820274e+00 1.902809e+00 1.287179e+00 1.697181e+00 1.256812e+00 1.666132e+00 2.198397e+12
<GCONST> 1.379943e+02
<TRANSP> 5
 0.000000e+00 1.000000e+00 0.000000e+00 0.000000e+00 0.000000e+00
 0.000000e+00 7.919191e-01 2.080809e-01 0.000000e+00 0.000000e+00
 0.000000e+00 0.000000e+00 9.219974e-01 7.800259e-02 0.000000e+00
 0.000000e+00 0.000000e+00 0.000000e+00 7.128055e-01 2.871945e-01
 0.000000e+00 0.000000e+00 0.000000e+00 0.000000e+00 0.000000e+00
<ENDHMM>
