~o
<STREAMINFO> 1 26
<VECSIZE> 26<NULLD><MFCC_E_D><DIAGC>
~h "s^"
<BEGINHMM>
<NUMSTATES> 5
<STATE> 2
<MEAN> 26
 -9.901577e+00 6.552674e+00 8.605392e+00 2.156262e+00 -4.616008e+00 -2.610049e+00 2.383338e+00 1.373217e-01 4.527408e+00 8.128794e-01 8.583487e-01 -9.242017e-01 1.652827e+01 -2.557253e+00 9.023880e-01 -1.508943e-01 3.421521e-01 1.941260e+00 9.160095e-01 1.002047e+00 1.137890e+00 -1.202380e-01 7.300433e-01 4.023691e-01 7.295323e-01 -3.671876e-01
<VARIANCE> 26
 3.595176e+01 1.239149e+01 3.422686e+01 2.006368e+01 3.317635e+01 2.657988e+01 1.962762e+01 1.896303e+01 2.088249e+01 1.899234e+01 1.856711e+01 1.807767e+01 9.992905e+12 2.695876e+00 2.303854e+00 2.587204e+00 1.610888e+00 2.267889e+00 1.610581e+00 1.647422e+00 1.454054e+00 2.770399e+00 1.823684e+00 1.959694e+00 1.610040e+00 2.198397e+12
<GCONST> 1.514596e+02
<STATE> 3
<MEAN> 26
 -2.064050e+01 8.225717e+00 4.750611e+00 2.243494e+00 1.719319e+00 2.081749e+00 5.227859e+00 4.368416e+00 5.483611e+00 3.054247e+00 2.828014e+00 1.341056e+00 1.528231e+01 -1.385893e-01 -3.251976e-02 -4.259067e-02 -9.831840e-02 -1.990566e-02 1.923923e-02 9.745909e-03 7.431372e-03 1.825886e-02 3.065317e-02 3.055787e-02 1.342906e-02 -4.298271e-03
<VARIANCE> 26
 1.064660e+01 2.103236e+00 9.977109e+00 5.400373e+00 8.913257e+00 9.254426e+00 9.570581e+00 1.107586e+01 1.225973e+01 1.264675e+01 1.118920e+01 9.702501e+00 9.992905e+12 8.639087e-01 1.981912e-01 5.714800e-01 6.232136e-01 8.365642e-01 9.782135e-01 1.010789e+00 1.225156e+00 1.327377e+00 1.274209e+00 1.224992e+00 1.024757e+00 2.198397e+12
<GCONST> 1.300081e+02
<STATE> 4
<MEAN> 26
 -1.556624e+01 7.139180e+00 7.138220e+00 1.163724e+00 -1.299038e+00 4.742310e-01 4.192513e+00 2.729447e+00 4.617746e+00 2.494152e+00 1.736709e+00 8.314960e-01 1.556696e+01 2.624509e+00 -5.433698e-01 5.846100e-01 -1.379584e-01 -1.537228e+00 -8.747868e-01 -1.102750e+00 -1.074521e+00 -2.416738e-01 -6.175095e-01 -6.617602e-01 -4.508054e-01 2.599506e-01
<VARIANCE> 26
 1.594922e+01 2.333871e+00 1.073603e+01 8.382518e+00 1.163256e+01 1.073907e+01 1.164706e+01 1.429471e+01 1.285371e+01 1.610837e+01 1.110754e+01 1.025333e+01 9.992905e+12 2.475417e+00 7.250333e-01 1.258615e+00 1.349985e+00 1.904750e+00 1.364970e+00 1.759537e+00 1.712268e+00 1.587314e+00 1.379211e+00 1.222519e+00 1.351060e+00 2.198397e+12
<GCONST> 1.387227e+02
<TRANSP> 5
 0.000000e+00 1.000000e+00 0.000000e+00 0.000000e+00 0.000000e+00
 0.000000e+00 7.739810e-01 2.260190e-01 0.000000e+00 0.000000e+00
 0.000000e+00 0.000000e+00 9.409643e-01 5.903568e-02 0.000000e+00
 0.000000e+00 0.000000e+00 0.000000e+00 6.399712e-01 3.600288e-01
 0.000000e+00 0.000000e+00 0.000000e+00 0.000000e+00 0.000000e+00
<ENDHMM>
