~o
<STREAMINFO> 1 26
<VECSIZE> 26<NULLD><MFCC_E_D><DIAGC>
~h "t"
<BEGINHMM>
<NUMSTATES> 5
<STATE> 2
<MEAN> 26
 -4.432407e+00 7.838986e+00 7.075281e+00 4.504700e+00 -2.054370e+00 1.158460e+00 6.268038e-01 -2.516927e-01 2.543011e+00 -1.753260e-02 1.026624e+00 -1.069885e+00 1.607326e+01 -1.509419e+00 7.841827e-01 4.319674e-01 1.569908e+00 2.777561e+00 1.855063e+00 1.386371e+00 1.208551e+00 -7.404470e-02 7.137558e-01 2.513731e-01 9.867135e-01 -5.287181e-01
<VARIANCE> 26
 2.626935e+01 9.571141e+00 1.349273e+01 2.963818e+01 4.191815e+01 2.807823e+01 1.792643e+01 1.829082e+01 1.696343e+01 1.919034e+01 1.095576e+01 1.806867e+01 9.992905e+12 1.909161e+00 1.620530e+00 2.279995e+00 2.907643e+00 2.285751e+00 3.023245e+00 1.635298e+00 1.951569e+00 1.980412e+00 2.100358e+00 1.407369e+00 1.888807e+00 2.198397e+12
<GCONST> 1.501092e+02
<STATE> 3
<MEAN> 26
 -8.443657e+00 8.375299e+00 5.934300e+00 7.056294e+00 4.923665e+00 8.059969e+00 5.096539e+00 5.329078e+00 4.444636e+00 2.896737e+00 2.614962e+00 1.858888e+00 1.405703e+01 -3.431972e-01 -7.740608e-02 -7.873650e-02 -1.479557e-01 -7.423962e-02 6.441572e-02 -9.003957e-02 -1.615176e-02 6.056034e-02 4.910053e-02 1.053945e-02 6.798102e-02 -4.383840e-02
<VARIANCE> 26
 5.098290e+00 3.287713e+00 4.178051e+00 5.477608e+00 7.016893e+00 8.857437e+00 9.089234e+00 1.129511e+01 1.022977e+01 1.047369e+01 1.081968e+01 9.420757e+00 9.992905e+12 6.843491e-01 4.018439e-01 5.474427e-01 7.505260e-01 9.127609e-01 1.266595e+00 1.307004e+00 1.553468e+00 1.327707e+00 1.312744e+00 1.345817e+00 1.185833e+00 2.198397e+12
<GCONST> 1.298414e+02
<STATE> 4
<MEAN> 26
 -1.291201e+01 6.912953e+00 6.372137e+00 2.433367e+00 -3.285299e-01 3.520952e+00 1.895503e+00 2.249592e+00 4.663053e+00 2.013616e+00 1.160865e+00 4.000024e-01 1.509540e+01 2.943889e-01 -4.091645e-01 -8.280498e-02 -7.499647e-01 -1.022466e+00 -8.294736e-01 -3.972137e-01 -3.336049e-01 1.796385e-01 -6.424959e-03 -2.248002e-01 -5.261762e-01 2.379105e-01
<VARIANCE> 26
 2.136410e+01 6.955470e+00 6.212332e+00 1.168864e+01 1.754397e+01 1.578703e+01 1.295806e+01 1.407759e+01 1.454384e+01 1.316514e+01 1.358436e+01 1.455858e+01 9.992905e+12 2.433828e+00 6.504243e-01 9.672233e-01 1.696994e+00 1.970940e+00 1.937294e+00 1.669739e+00 1.737310e+00 1.634105e+00 1.424384e+00 1.416957e+00 1.718968e+00 2.198397e+12
<GCONST> 1.418896e+02
<TRANSP> 5
 0.000000e+00 1.000000e+00 0.000000e+00 0.000000e+00 0.000000e+00
 0.000000e+00 6.623123e-01 3.376878e-01 0.000000e+00 0.000000e+00
 0.000000e+00 0.000000e+00 8.958150e-01 1.041850e-01 0.000000e+00
 0.000000e+00 0.000000e+00 0.000000e+00 8.229930e-01 1.770069e-01
 0.000000e+00 0.000000e+00 0.000000e+00 0.000000e+00 0.000000e+00
<ENDHMM>
