~o
<STREAMINFO> 1 26
<VECSIZE> 26<NULLD><MFCC_E_D><DIAGC>
~h "u"
<BEGINHMM>
<NUMSTATES> 5
<STATE> 2
<MEAN> 26
 -1.761799e+00 7.225754e+00 4.765400e+00 3.118979e+00 -2.836572e+00 -1.511945e+00 1.288206e+00 -3.313933e-01 1.171963e+00 -1.519516e+00 1.790115e+00 -2.119102e+00 1.616464e+01 1.060102e+00 -3.459282e-01 -7.414193e-01 -9.408616e-01 -9.919776e-01 -3.388855e-01 -1.426929e-01 -4.313596e-01 -5.534574e-01 -3.865621e-01 2.906604e-02 -6.901383e-01 2.122063e-01
<VARIANCE> 26
 1.439269e+01 7.624603e+00 1.641455e+01 2.565638e+01 2.788520e+01 2.891060e+01 2.652411e+01 1.927143e+01 1.867816e+01 2.245852e+01 1.411413e+01 1.576801e+01 9.992905e+12 2.261825e+00 5.498273e-01 9.308453e-01 1.979764e+00 2.059792e+00 1.695444e+00 1.796034e+00 1.722006e+00 1.885322e+00 1.970098e+00 1.408425e+00 1.491394e+00 2.198397e+12
<GCONST> 1.465140e+02
<STATE> 3
<MEAN> 26
 2.303185e+00 6.122996e+00 -1.448287e-01 -5.336979e+00 -7.391450e+00 -2.937141e-01 4.389459e+00 1.152888e+00 -1.009315e+00 -3.884900e+00 1.908346e+00 -6.024765e+00 1.683706e+01 -2.533422e-02 -1.657681e-02 3.845357e-02 1.412690e-01 5.038616e-02 -1.061318e-01 3.889163e-02 1.024591e-02 -1.736970e-02 1.493066e-02 7.338626e-02 -1.190614e-02 -2.433511e-03
<VARIANCE> 26
 2.420438e+00 5.150234e+00 5.166001e+00 2.136123e+01 8.750638e+00 1.261852e+01 1.239512e+01 1.438565e+01 1.595778e+01 1.246059e+01 1.640299e+01 1.443401e+01 9.992905e+12 1.891937e-01 2.730162e-01 4.872088e-01 1.174034e+00 7.969222e-01 7.273041e-01 1.060094e+00 8.895367e-01 1.065893e+00 1.221248e+00 1.054656e+00 1.049672e+00 2.198397e+12
<GCONST> 1.302499e+02
<STATE> 4
<MEAN> 26
 -1.370276e+00 8.608278e+00 6.583664e+00 5.937018e+00 -1.772630e+00 -4.690624e+00 1.988766e+00 -1.944112e+00 -1.156044e+00 -2.572169e+00 2.976859e+00 -2.543678e+00 1.631246e+01 -4.601322e-01 1.705157e-01 3.786965e-01 4.990371e-01 5.704234e-01 3.587464e-01 1.100113e-01 1.694895e-01 2.504925e-01 1.738094e-01 -1.017600e-01 3.364504e-01 -9.129231e-02
<VARIANCE> 26
 4.142824e+00 8.171796e+00 1.059983e+01 1.252295e+01 1.543905e+01 2.172580e+01 1.262499e+01 1.244274e+01 1.330002e+01 1.364972e+01 9.608690e+00 1.238383e+01 9.992905e+12 5.189087e-01 5.088716e-01 6.533903e-01 1.040501e+00 1.385772e+00 2.077280e+00 1.332309e+00 1.413304e+00 1.429748e+00 1.458984e+00 1.049964e+00 1.133188e+00 2.198397e+12
<GCONST> 1.362814e+02
<TRANSP> 5
 0.000000e+00 1.000000e+00 0.000000e+00 0.000000e+00 0.000000e+00
 0.000000e+00 7.880638e-01 2.119362e-01 0.000000e+00 0.000000e+00
 0.000000e+00 0.000000e+00 9.148396e-01 8.516046e-02 0.000000e+00
 0.000000e+00 0.000000e+00 0.000000e+00 8.828900e-01 1.171100e-01
 0.000000e+00 0.000000e+00 0.000000e+00 0.000000e+00 0.000000e+00
<ENDHMM>
