~o
<STREAMINFO> 1 26
<VECSIZE> 26<NULLD><MFCC_E_D><DIAGC>
~h "v"
<BEGINHMM>
<NUMSTATES> 5
<STATE> 2
<MEAN> 26
 6.140403e-01 3.285412e+00 1.494667e-01 -3.798279e+00 -1.045160e+01 -1.528690e+00 -7.090653e-01 -3.057391e+00 4.519276e+00 -7.311934e-01 1.208393e+00 -7.279332e+00 1.785218e+01 -5.450892e-01 7.767695e-01 7.069284e-01 8.820143e-01 6.148581e-01 -3.376216e-01 1.878592e-01 2.168263e-02 -2.562610e-01 3.499568e-01 2.636607e-01 4.152651e-01 -1.756753e-01
<VARIANCE> 26
 1.276868e+01 2.444346e+01 3.459137e+01 3.428441e+01 3.075487e+01 2.034817e+01 2.871330e+01 2.755639e+01 3.975341e+01 3.374877e+01 1.933107e+01 2.855421e+01 9.992905e+12 8.718296e-01 1.199821e+00 1.351554e+00 1.596415e+00 1.504665e+00 9.856750e-01 1.485760e+00 1.534288e+00 1.392849e+00 1.453606e+00 1.201261e+00 1.521938e+00 2.198397e+12
<GCONST> 1.489268e+02
<STATE> 3
<MEAN> 26
 -5.856492e+00 7.467313e+00 8.519728e+00 4.997540e+00 -4.074940e+00 -3.249312e+00 1.550365e+00 -9.086542e-01 2.479416e+00 -3.740906e-01 2.234607e+00 -1.358945e+00 1.619192e+01 -8.886695e-02 -2.591702e-02 5.853772e-02 3.131321e-02 -5.167391e-02 -1.647242e-01 -4.673047e-02 -1.121685e-01 -8.991342e-02 -5.307074e-02 -3.864185e-02 -5.849412e-02 7.001963e-03
<VARIANCE> 26
 2.231636e+01 5.567548e+00 2.807153e+01 1.115437e+01 3.487512e+01 3.557517e+01 1.787535e+01 1.669342e+01 1.659737e+01 1.638894e+01 1.237658e+01 1.315930e+01 9.992905e+12 1.292552e+00 4.881044e-01 7.711915e-01 9.523537e-01 1.637424e+00 1.633824e+00 1.763423e+00 1.869966e+00 1.407385e+00 1.490353e+00 1.156568e+00 1.388542e+00 2.198397e+12
<GCONST> 1.428484e+02
<STATE> 4
<MEAN> 26
 -5.681760e-01 4.255343e+00 9.824728e-01 -1.694100e+00 -8.846684e+00 -2.650213e+00 -1.348542e+00 -3.680592e+00 4.086494e+00 4.094965e-01 1.803853e+00 -6.258714e+00 1.747500e+01 7.183464e-01 -9.347932e-01 -9.107991e-01 -1.188821e+00 -1.088635e+00 3.144640e-01 -2.593921e-01 -2.203106e-01 4.874316e-01 1.164870e-01 -1.216186e-01 -5.517285e-01 2.566625e-01
<VARIANCE> 26
 1.711170e+01 1.643409e+01 3.640750e+01 2.898418e+01 2.564877e+01 2.139703e+01 3.116289e+01 2.086415e+01 2.830458e+01 2.651778e+01 1.411123e+01 1.668456e+01 9.992905e+12 1.056791e+00 8.907399e-01 1.278050e+00 1.530202e+00 1.496822e+00 1.341674e+00 1.566521e+00 1.485255e+00 1.264864e+00 1.668613e+00 1.268308e+00 1.199069e+00 2.198397e+12
<GCONST> 1.469226e+02
<TRANSP> 5
 0.000000e+00 1.000000e+00 0.000000e+00 0.000000e+00 0.000000e+00
 0.000000e+00 8.157163e-01 1.842837e-01 0.000000e+00 0.000000e+00
 0.000000e+00 0.000000e+00 8.969833e-01 1.030168e-01 0.000000e+00
 0.000000e+00 0.000000e+00 0.000000e+00 7.645940e-01 2.354060e-01
 0.000000e+00 0.000000e+00 0.000000e+00 0.000000e+00 0.000000e+00
<ENDHMM>
