~o
<STREAMINFO> 1 26
<VECSIZE> 26<NULLD><MFCC_E_D><DIAGC>
~h "w"
<BEGINHMM>
<NUMSTATES> 5
<STATE> 2
<MEAN> 26
 -1.197803e-01 5.772453e+00 3.055044e+00 1.048946e+00 -4.265248e+00 -8.022150e-01 8.610322e-01 -7.327278e-01 1.748149e+00 -8.961470e-01 1.769058e+00 -3.378279e+00 1.662524e+01 4.999419e-01 -3.934161e-02 -3.876974e-01 -6.853502e-01 -5.360821e-01 -1.103455e-01 1.294855e-01 -5.967102e-02 -4.721447e-01 -1.796058e-01 5.162824e-02 -3.708817e-01 8.394177e-02
<VARIANCE> 26
 1.117223e+01 2.029493e+01 1.824027e+01 3.523567e+01 3.787132e+01 2.793415e+01 2.716576e+01 1.718526e+01 2.583340e+01 1.349833e+01 1.727435e+01 2.462281e+01 9.992905e+12 9.945357e-01 8.121032e-01 1.350424e+00 2.151374e+00 1.953479e+00 1.588767e+00 2.062936e+00 1.365860e+00 1.596822e+00 1.390231e+00 1.504310e+00 1.375411e+00 2.198397e+12
<GCONST> 1.475891e+02
<STATE> 3
<MEAN> 26
 3.490851e+00 5.114180e+00 -1.739118e+00 -1.004717e+01 -1.017720e+01 2.097820e+00 4.341714e+00 1.866533e+00 -5.895543e-01 -5.408816e+00 2.481500e-01 -7.251314e+00 1.743374e+01 8.379942e-02 -7.678027e-02 -1.349320e-01 -2.598876e-01 -1.614332e-01 9.350706e-02 4.547476e-02 1.408110e-03 -4.373261e-02 -1.388006e-01 -2.800340e-02 -6.395645e-02 3.160812e-02
<VARIANCE> 26
 1.743311e+00 6.539526e+00 6.084955e+00 1.280728e+01 8.190686e+00 7.140877e+00 1.808033e+01 1.041633e+01 1.188240e+01 1.581535e+01 1.134517e+01 1.547157e+01 9.992905e+12 1.286534e-01 4.873366e-01 5.087559e-01 8.836673e-01 7.010527e-01 6.247777e-01 1.128091e+00 8.633456e-01 9.848312e-01 1.276035e+00 8.452644e-01 9.401141e-01 2.198397e+12
<GCONST> 1.282146e+02
<STATE> 4
<MEAN> 26
 3.838920e+00 5.366184e-01 -3.468569e+00 -8.132640e+00 -1.225380e+01 1.253567e+00 -1.075694e+00 -1.799779e+00 2.512168e+00 -1.792086e-01 4.097314e-01 -9.531471e+00 1.827640e+01 -1.088263e-03 -1.184942e+00 -1.276478e-01 7.088571e-01 -4.570727e-01 -4.602046e-01 -1.212090e+00 -4.764614e-01 9.357560e-01 9.853789e-01 -1.525125e-01 -6.830559e-01 2.226232e-01
<VARIANCE> 26
 2.407637e+00 1.380968e+01 1.142942e+01 2.993492e+01 1.026566e+01 1.568304e+01 2.643715e+01 7.615016e+00 1.332094e+01 1.602770e+01 1.360600e+01 1.427312e+01 9.992905e+12 3.131030e-01 9.273812e-01 9.837358e-01 1.241199e+00 1.091509e+00 9.384418e-01 1.926519e+00 1.199420e+00 1.088412e+00 2.354644e+00 1.507020e+00 1.605655e+00 2.198397e+12
<GCONST> 1.381439e+02
<TRANSP> 5
 0.000000e+00 1.000000e+00 0.000000e+00 0.000000e+00 0.000000e+00
 0.000000e+00 8.743879e-01 1.256121e-01 0.000000e+00 0.000000e+00
 0.000000e+00 0.000000e+00 8.980044e-01 1.019957e-01 0.000000e+00
 0.000000e+00 0.000000e+00 0.000000e+00 6.660763e-01 3.339237e-01
 0.000000e+00 0.000000e+00 0.000000e+00 0.000000e+00 0.000000e+00
<ENDHMM>
