~o
<STREAMINFO> 1 26
<VECSIZE> 26<NULLD><MFCC_E_D><DIAGC>
~h "x"
<BEGINHMM>
<NUMSTATES> 5
<STATE> 2
<MEAN> 26
 -2.874269e+00 2.675541e+00 2.062915e+00 -1.217492e+00 -7.986750e+00 -1.755995e+00 -3.703368e+00 -2.707868e+00 6.090065e+00 1.042217e+00 -6.070204e-01 -4.631774e+00 1.755463e+01 1.428534e+00 -1.215853e+00 -1.531905e+00 -1.489088e+00 -1.828885e+00 -2.615875e-01 -8.130605e-01 -1.077859e+00 7.444618e-01 4.371953e-01 -1.522554e-01 -1.394627e+00 5.236422e-01
<VARIANCE> 26
 4.565419e+01 1.714404e+01 2.777794e+01 3.546630e+01 4.025483e+01 3.221539e+01 3.704063e+01 2.251781e+01 1.757202e+01 2.971319e+01 1.260878e+01 2.288612e+01 9.992905e+12 3.634067e+00 9.259707e-01 1.635883e+00 2.131007e+00 3.340558e+00 2.556164e+00 2.924233e+00 2.351621e+00 1.666575e+00 1.905693e+00 1.409953e+00 1.816451e+00 2.198397e+12
<GCONST> 1.541399e+02
<STATE> 3
<MEAN> 26
 1.868430e+00 -1.336990e+00 -6.426555e+00 -6.813313e+00 -1.470510e+01 -1.142368e+00 -4.396252e+00 -8.999103e+00 1.103995e+01 5.025727e+00 2.529795e+00 -1.137838e+01 1.970323e+01 2.733796e-02 -4.874840e-02 1.230676e-02 -5.422595e-02 -2.632455e-02 6.328585e-02 -3.657398e-02 -1.355273e-02 5.545073e-02 2.642695e-02 3.315469e-02 -5.389276e-03 5.289777e-03
<VARIANCE> 26
 1.546389e+00 5.725168e+00 4.987265e+00 6.543093e+00 6.478724e+00 7.630640e+00 6.503050e+00 8.362860e+00 7.118882e+00 8.985125e+00 1.067880e+01 5.730853e+00 9.992905e+12 1.315508e-01 3.176116e-01 4.487422e-01 4.825647e-01 5.637519e-01 6.512220e-01 6.949190e-01 6.417651e-01 6.912996e-01 7.314840e-01 7.232258e-01 5.285426e-01 2.198397e+12
<GCONST> 1.198134e+02
<STATE> 4
<MEAN> 26
 8.719329e-02 3.112496e+00 2.231013e+00 -6.986264e-01 -7.770363e+00 -7.838376e-01 -3.765355e+00 -3.740574e+00 5.949238e+00 1.572757e+00 7.118384e-01 -5.465623e+00 1.770829e+01 -9.541255e-01 1.449883e+00 1.564469e+00 1.923787e+00 2.047975e+00 5.246497e-02 9.441249e-01 1.021650e+00 -9.904423e-01 -4.846382e-01 8.983643e-02 1.084314e+00 -4.815452e-01
<VARIANCE> 26
 1.187779e+01 2.755684e+01 2.546816e+01 4.453981e+01 5.210945e+01 2.185520e+01 3.263728e+01 1.829317e+01 2.639699e+01 2.991754e+01 1.807361e+01 1.969472e+01 9.992905e+12 8.203666e-01 1.837141e+00 1.567407e+00 2.622016e+00 2.817641e+00 2.791511e+00 2.625150e+00 1.443614e+00 2.191885e+00 2.235453e+00 1.548186e+00 1.334067e+00 2.198397e+12
<GCONST> 1.524703e+02
<TRANSP> 5
 0.000000e+00 1.000000e+00 0.000000e+00 0.000000e+00 0.000000e+00
 0.000000e+00 7.936307e-01 2.063693e-01 0.000000e+00 0.000000e+00
 0.000000e+00 0.000000e+00 9.336291e-01 6.637090e-02 0.000000e+00
 0.000000e+00 0.000000e+00 0.000000e+00 7.243171e-01 2.756829e-01
 0.000000e+00 0.000000e+00 0.000000e+00 0.000000e+00 0.000000e+00
<ENDHMM>
