~o
<STREAMINFO> 1 26
<VECSIZE> 26<NULLD><MFCC_E_D><DIAGC>
~h "x^"
<BEGINHMM>
<NUMSTATES> 5
<STATE> 2
<MEAN> 26
 -2.212989e+00 1.898064e+00 2.768767e+00 -1.474056e+00 -8.902700e+00 -6.921650e-01 -4.159725e+00 -2.792750e+00 6.714125e+00 1.540127e+00 -6.410456e-01 -4.833549e+00 1.772794e+01 1.678678e+00 -1.758000e+00 -1.860241e+00 -1.891620e+00 -2.152099e+00 3.376498e-02 -1.077817e+00 -1.008782e+00 1.051028e+00 4.850357e-01 -3.855811e-01 -1.762341e+00 6.239259e-01
<VARIANCE> 26
 3.101106e+01 2.480459e+01 3.711217e+01 4.172438e+01 4.269907e+01 3.242516e+01 3.188225e+01 2.014271e+01 1.819829e+01 2.973259e+01 1.375242e+01 2.402247e+01 9.992905e+12 2.169321e+00 1.113382e+00 1.876283e+00 2.508483e+00 3.225241e+00 2.592422e+00 3.294731e+00 2.262992e+00 1.525675e+00 1.764189e+00 1.469374e+00 1.419682e+00 2.198397e+12
<GCONST> 1.542074e+02
<STATE> 3
<MEAN> 26
 2.219833e+00 -5.749030e+00 -5.646193e+00 -8.183731e+00 -1.566317e+01 1.281681e+00 -4.235966e+00 -5.545938e+00 1.274720e+01 1.920237e+00 -2.515572e+00 -1.174620e+01 1.995560e+01 -3.096538e-03 -5.674631e-02 3.495205e-02 -2.333913e-02 -2.892534e-03 2.587218e-02 4.113040e-02 4.491616e-02 5.325829e-03 -8.747368e-02 -3.517484e-02 2.335704e-02 -9.052730e-03
<VARIANCE> 26
 1.130307e+00 3.873542e+00 5.474950e+00 5.789584e+00 4.495386e+00 5.757206e+00 6.201857e+00 7.676143e+00 6.921766e+00 8.946994e+00 9.853856e+00 5.667594e+00 9.992905e+12 1.113925e-01 3.182609e-01 4.074523e-01 4.268129e-01 4.575138e-01 5.377780e-01 6.205283e-01 6.038366e-01 6.739992e-01 6.369609e-01 7.380070e-01 5.343812e-01 2.198397e+12
<GCONST> 1.170857e+02
<STATE> 4
<MEAN> 26
 3.335066e-01 2.040583e+00 1.737355e+00 -1.485850e+00 -8.702269e+00 -7.116434e-01 -3.198385e+00 -3.259809e+00 6.162309e+00 9.572935e-01 3.521785e-01 -5.634839e+00 1.786274e+01 -8.691846e-01 2.125406e+00 1.551452e+00 2.116249e+00 2.245938e+00 -2.111078e-01 1.016472e+00 6.431338e-01 -1.249365e+00 -1.686357e-01 4.417360e-01 1.410705e+00 -5.165689e-01
<VARIANCE> 26
 9.140489e+00 4.158289e+01 2.679859e+01 4.806977e+01 5.011773e+01 1.979931e+01 1.663349e+01 1.358507e+01 2.889769e+01 2.002048e+01 1.945431e+01 2.296399e+01 9.992905e+12 8.431300e-01 2.613893e+00 1.598589e+00 3.068550e+00 3.097547e+00 2.679589e+00 2.024609e+00 1.709552e+00 1.823911e+00 1.907634e+00 1.801676e+00 1.724851e+00 2.198397e+12
<GCONST> 1.521399e+02
<TRANSP> 5
 0.000000e+00 1.000000e+00 0.000000e+00 0.000000e+00 0.000000e+00
 0.000000e+00 7.548453e-01 2.451548e-01 0.000000e+00 0.000000e+00
 0.000000e+00 0.000000e+00 9.413162e-01 5.868383e-02 0.000000e+00
 0.000000e+00 0.000000e+00 0.000000e+00 6.911989e-01 3.088010e-01
 0.000000e+00 0.000000e+00 0.000000e+00 0.000000e+00 0.000000e+00
<ENDHMM>
