~o
<STREAMINFO> 1 26
<VECSIZE> 26<NULLD><MFCC_E_D><DIAGC>
~h "x~"
<BEGINHMM>
<NUMSTATES> 5
<STATE> 2
<MEAN> 26
 -1.409616e+00 1.318786e+00 1.772728e+00 -2.483295e+00 -7.744728e+00 8.811726e-01 -2.927494e+00 -2.105390e+00 6.429184e+00 1.408912e+00 -1.195129e+00 -5.501049e+00 1.748466e+01 1.470367e+00 -2.359632e+00 -1.737790e+00 -2.128868e+00 -2.289479e+00 -1.173733e-01 -9.150391e-01 -4.411714e-01 1.116570e+00 6.011757e-02 -8.572673e-01 -1.852349e+00 6.799096e-01
<VARIANCE> 26
 1.867970e+01 3.554884e+01 2.404577e+01 4.250317e+01 4.597285e+01 1.593117e+01 1.853978e+01 1.514426e+01 2.080243e+01 1.886647e+01 1.755163e+01 2.312498e+01 9.992905e+12 1.469492e+00 1.759860e+00 1.403083e+00 2.353383e+00 2.240812e+00 2.678941e+00 2.232670e+00 2.108062e+00 1.684981e+00 1.711482e+00 1.479239e+00 1.134953e+00 2.198397e+12
<GCONST> 1.508399e+02
<STATE> 3
<MEAN> 26
 1.963061e+00 -7.029726e+00 -3.915204e+00 -7.169537e+00 -1.163132e+01 3.367982e+00 -4.038111e+00 -1.752667e+00 1.057195e+01 -2.616779e+00 -6.949915e+00 -1.055178e+01 1.925063e+01 4.515897e-02 1.455462e-01 6.858767e-02 1.469109e-01 2.370836e-01 5.393863e-03 -1.400667e-02 -3.540779e-02 -8.202724e-02 -2.874413e-01 -3.527602e-02 1.353674e-01 -4.178682e-02
<VARIANCE> 26
 3.576480e+00 9.804976e+00 6.804439e+00 8.159609e+00 1.286544e+01 1.525595e+01 1.090324e+01 7.662893e+00 8.994856e+00 2.155483e+01 2.200308e+01 1.044350e+01 9.992905e+12 1.722802e-01 6.598060e-01 4.685863e-01 6.192362e-01 6.311380e-01 9.985108e-01 8.299888e-01 6.273676e-01 5.717140e-01 7.975100e-01 1.081882e+00 5.905506e-01 2.198397e+12
<GCONST> 1.283605e+02
<STATE> 4
<MEAN> 26
 -6.042331e-01 5.590353e+00 4.888188e+00 3.811759e+00 -3.403733e+00 -2.162995e+00 -1.462857e+00 -2.136347e+00 2.946600e+00 -3.352406e+00 2.230516e-01 -3.225014e+00 1.689781e+01 -7.233517e-01 1.262476e+00 9.830684e-01 1.307712e+00 1.097486e+00 -5.321877e-02 7.221426e-01 4.502811e-01 -6.536047e-01 6.080844e-01 6.585769e-01 7.176619e-01 -3.105976e-01
<VARIANCE> 26
 9.204967e+00 2.999043e+01 2.428561e+01 2.961025e+01 3.198942e+01 2.833020e+01 3.173924e+01 1.471585e+01 2.669459e+01 1.622974e+01 1.845302e+01 1.670931e+01 9.992905e+12 5.743532e-01 1.870985e+00 1.402218e+00 1.736961e+00 1.670735e+00 3.739383e+00 1.792086e+00 1.521146e+00 2.017685e+00 1.479740e+00 1.517459e+00 1.131054e+00 2.198397e+12
<GCONST> 1.485246e+02
<TRANSP> 5
 0.000000e+00 1.000000e+00 0.000000e+00 0.000000e+00 0.000000e+00
 0.000000e+00 7.739156e-01 2.260844e-01 0.000000e+00 0.000000e+00
 0.000000e+00 0.000000e+00 9.531088e-01 4.689113e-02 0.000000e+00
 0.000000e+00 0.000000e+00 0.000000e+00 8.578857e-01 1.421143e-01
 0.000000e+00 0.000000e+00 0.000000e+00 0.000000e+00 0.000000e+00
<ENDHMM>
