~o
<STREAMINFO> 1 26
<VECSIZE> 26<NULLD><MFCC_E_D><DIAGC>
~h "y"
<BEGINHMM>
<NUMSTATES> 5
<STATE> 2
<MEAN> 26
 -5.218033e+00 6.619040e+00 1.028106e+01 6.206163e+00 -6.851139e+00 -5.765296e+00 -5.178246e-01 -2.357334e+00 2.913999e+00 -3.094587e+00 5.960057e-01 -1.242266e+00 1.673231e+01 1.114804e+00 -3.417336e-01 6.196254e-01 3.049860e-01 -1.247636e+00 -1.552244e+00 -1.483726e+00 -8.032277e-01 1.307649e-01 -1.315740e+00 -3.346001e-01 -3.366812e-02 3.341815e-01
<VARIANCE> 26
 1.952904e+01 6.290702e+00 2.703082e+01 1.311715e+01 3.387061e+01 4.301902e+01 3.083363e+01 2.143671e+01 1.539781e+01 2.510032e+01 1.389524e+01 1.882192e+01 9.992905e+12 1.436695e+00 5.793434e-01 1.128785e+00 8.742617e-01 2.580580e+00 2.455160e+00 2.611648e+00 1.614588e+00 1.581957e+00 1.520489e+00 1.281684e+00 1.403454e+00 2.198397e+12
<GCONST> 1.466732e+02
<STATE> 3
<MEAN> 26
 -1.344746e+00 4.958802e+00 1.366249e+01 7.062113e+00 -1.124898e+01 -1.220786e+01 -1.030978e+01 -5.032544e+00 6.053619e+00 -1.144901e+01 -1.166806e+00 4.942606e-01 1.815556e+01 4.709061e-02 1.889677e-02 -2.676731e-02 1.318080e-02 2.753999e-02 -5.485029e-02 -1.480681e-02 2.958175e-03 7.948902e-03 -2.932012e-02 2.144751e-02 -3.902863e-02 1.252551e-03
<VARIANCE> 26
 4.923608e+00 4.178237e+00 7.760567e+00 7.254612e+00 1.385805e+01 8.317475e+00 2.344177e+01 8.724992e+00 1.451108e+01 1.104076e+01 1.056520e+01 1.071903e+01 9.992905e+12 2.265926e-01 2.639496e-01 5.090605e-01 5.247366e-01 7.910829e-01 7.871676e-01 1.830132e+00 8.196422e-01 1.039769e+00 1.101631e+00 8.870836e-01 7.544348e-01 2.198397e+12
<GCONST> 1.285945e+02
<STATE> 4
<MEAN> 26
 -2.694742e+00 6.845040e+00 9.571980e+00 6.391650e+00 -5.536132e+00 -5.829295e+00 -1.010993e+00 -2.573827e+00 2.000362e+00 -4.065909e+00 1.443788e+00 -1.372535e+00 1.678509e+01 -2.495211e-01 2.790800e-01 -5.606372e-01 -1.950182e-01 1.076021e+00 1.395527e+00 9.870000e-01 5.094357e-01 -2.294978e-01 8.545588e-01 1.595889e-01 -4.977063e-02 -1.811831e-01
<VARIANCE> 26
 1.405748e+01 1.820349e+01 2.960233e+01 2.115648e+01 4.327354e+01 5.542737e+01 4.102432e+01 2.163705e+01 2.347126e+01 2.488136e+01 1.387175e+01 1.455492e+01 9.992905e+12 9.324310e-01 1.331949e+00 1.315814e+00 1.556656e+00 2.796231e+00 3.236407e+00 2.414824e+00 1.484460e+00 1.690802e+00 1.906034e+00 1.199570e+00 1.268541e+00 2.198397e+12
<GCONST> 1.503730e+02
<TRANSP> 5
 0.000000e+00 1.000000e+00 0.000000e+00 0.000000e+00 0.000000e+00
 0.000000e+00 7.798921e-01 2.201079e-01 0.000000e+00 0.000000e+00
 0.000000e+00 0.000000e+00 9.308541e-01 6.914590e-02 0.000000e+00
 0.000000e+00 0.000000e+00 0.000000e+00 7.882143e-01 2.117857e-01
 0.000000e+00 0.000000e+00 0.000000e+00 0.000000e+00 0.000000e+00
<ENDHMM>
