~o
<STREAMINFO> 1 26
<VECSIZE> 26<NULLD><MFCC_E_D><DIAGC>
~h "z"
<BEGINHMM>
<NUMSTATES> 5
<STATE> 2
<MEAN> 26
 -5.940656e+00 6.085570e+00 8.668291e+00 3.980504e-01 -9.075192e+00 -4.886992e+00 -1.086797e-01 -3.110067e+00 3.263428e+00 -1.606389e-01 1.906808e+00 -3.503261e+00 1.728057e+01 -9.670071e-01 5.000252e-01 1.820709e-01 3.989659e-01 7.682601e-01 -5.068047e-03 4.046485e-01 1.990277e-01 -3.546518e-03 5.944082e-01 1.094298e-01 1.894979e-01 -1.532867e-01
<VARIANCE> 26
 3.683321e+01 1.898401e+01 7.006493e+01 3.960036e+01 2.809220e+01 3.815488e+01 2.704681e+01 1.924760e+01 3.001745e+01 3.419035e+01 1.965779e+01 2.580372e+01 9.992905e+12 2.135809e+00 1.571193e+00 1.199178e+00 1.443159e+00 2.728410e+00 1.632624e+00 2.018009e+00 1.863776e+00 1.461942e+00 1.819895e+00 1.347783e+00 1.185847e+00 2.198397e+12
<GCONST> 1.530348e+02
<STATE> 3
<MEAN> 26
 -1.345734e+01 8.810834e+00 4.596076e+00 1.973691e+00 -1.639972e-01 -9.822721e-01 3.577606e+00 1.967442e+00 4.396610e+00 3.216552e+00 1.421807e+00 -1.525391e+00 1.578461e+01 -9.773279e-02 -1.370372e-02 -1.009639e-01 -3.817512e-02 1.136978e-02 -4.776282e-02 -3.458823e-02 2.467500e-02 2.154850e-02 3.227207e-03 -6.683350e-02 -2.711572e-02 -1.109053e-02
<VARIANCE> 26
 1.373664e+01 4.082860e+00 1.153342e+01 7.457230e+00 1.129466e+01 1.413780e+01 1.087389e+01 1.401082e+01 1.144007e+01 1.297065e+01 1.107515e+01 1.109815e+01 9.992905e+12 1.190612e+00 3.212378e-01 6.789336e-01 7.142310e-01 1.272701e+00 1.064919e+00 1.296027e+00 1.600494e+00 1.275162e+00 1.214385e+00 1.320943e+00 1.238927e+00 2.198397e+12
<GCONST> 1.348071e+02
<STATE> 4
<MEAN> 26
 -5.930242e+00 5.184666e+00 2.186226e+00 -1.713501e+00 -7.708182e+00 -1.894045e+00 -2.441015e+00 -3.357716e+00 6.705967e+00 4.975771e+00 -2.552068e-01 -6.261179e+00 1.710885e+01 1.330591e+00 -8.678249e-01 -4.810546e-01 -6.822797e-01 -1.153585e+00 1.999703e-01 -7.481012e-01 -6.624237e-01 5.116593e-01 2.778285e-02 -2.689137e-01 -5.912794e-01 2.748621e-01
<VARIANCE> 26
 2.354622e+01 1.459762e+01 3.579310e+01 1.749953e+01 2.645058e+01 2.108260e+01 2.275298e+01 2.040466e+01 1.633589e+01 2.215879e+01 1.073169e+01 2.214268e+01 9.992905e+12 2.525770e+00 1.443643e+00 1.162854e+00 1.314082e+00 3.005046e+00 1.396298e+00 2.681220e+00 1.866936e+00 1.604245e+00 1.410298e+00 1.334327e+00 1.550196e+00 2.198397e+12
<GCONST> 1.485484e+02
<TRANSP> 5
 0.000000e+00 1.000000e+00 0.000000e+00 0.000000e+00 0.000000e+00
 0.000000e+00 8.641713e-01 1.358287e-01 0.000000e+00 0.000000e+00
 0.000000e+00 0.000000e+00 9.033088e-01 9.669120e-02 0.000000e+00
 0.000000e+00 0.000000e+00 0.000000e+00 7.830691e-01 2.169309e-01
 0.000000e+00 0.000000e+00 0.000000e+00 0.000000e+00 0.000000e+00
<ENDHMM>
