~o
<STREAMINFO> 1 26
<VECSIZE> 26<NULLD><MFCC_E_D><DIAGC>
~h "z^"
<BEGINHMM>
<NUMSTATES> 5
<STATE> 2
<MEAN> 26
 -5.440116e+00 5.500445e+00 9.055540e+00 3.612638e+00 -6.823141e+00 -3.788797e+00 1.343958e+00 -9.084507e-01 3.753593e+00 -1.171427e+00 4.971981e-01 -1.097283e+00 1.670372e+01 -9.890473e-01 4.463812e-01 1.366996e+00 1.072198e-01 -4.706547e-01 -1.073700e+00 4.100542e-01 -5.286238e-01 -5.824230e-01 -4.659417e-02 3.559680e-01 3.929899e-01 4.833333e-02
<VARIANCE> 26
 2.325924e+01 1.936796e+01 3.061996e+01 1.889108e+01 5.098613e+01 3.701434e+01 2.461450e+01 1.763648e+01 2.032619e+01 1.737176e+01 2.054359e+01 1.874045e+01 9.992905e+12 2.187103e+00 1.646608e+00 1.807488e+00 1.354997e+00 3.499196e+00 2.280363e+00 2.539338e+00 1.716209e+00 2.099546e+00 1.554021e+00 1.791886e+00 1.887806e+00 2.198397e+12
<GCONST> 1.521704e+02
<STATE> 3
<MEAN> 26
 -1.307388e+01 9.117301e+00 1.813274e+01 4.320022e+00 -7.456020e+00 -9.485229e+00 4.727843e+00 -4.531584e+00 -1.502885e+00 -6.450847e-01 3.943421e+00 7.267838e-01 1.688853e+01 -8.725023e-02 1.833507e-02 5.213692e-03 -3.279875e-03 1.304605e-01 1.316665e-02 3.433568e-03 4.240745e-02 -3.263773e-02 2.798458e-03 2.851547e-02 -1.539140e-02 -1.089089e-02
<VARIANCE> 26
 2.230836e+00 2.811928e+00 1.018291e+01 8.113907e+00 1.342900e+01 1.019467e+01 1.011175e+01 1.353680e+01 1.193831e+01 1.162453e+01 1.160666e+01 1.036224e+01 9.992905e+12 3.837740e-01 3.795524e-01 6.816909e-01 7.818058e-01 1.335033e+00 1.004268e+00 1.224748e+00 1.187264e+00 1.393819e+00 1.208445e+00 1.142786e+00 1.028128e+00 2.198397e+12
<GCONST> 1.307424e+02
<STATE> 4
<MEAN> 26
 -7.193593e+00 3.715146e+00 1.090887e+01 7.027377e-01 -1.086735e+01 -6.327344e+00 6.413383e-01 -2.132985e+00 5.304154e+00 -1.664248e+00 1.445979e-01 -9.413844e-01 1.737130e+01 1.693269e+00 -1.477348e+00 -1.869503e+00 -7.801453e-01 -8.878499e-01 7.551108e-01 -1.020865e+00 2.726315e-01 1.295642e+00 -1.452429e-01 -9.856943e-01 -8.292824e-01 2.331151e-01
<VARIANCE> 26
 2.991315e+01 2.344551e+01 5.793520e+01 2.238192e+01 2.717465e+01 2.679278e+01 2.877512e+01 1.176418e+01 2.165091e+01 1.903089e+01 2.059219e+01 2.670087e+01 9.992905e+12 1.478403e+00 1.635727e+00 2.553899e+00 1.389485e+00 1.987372e+00 2.239606e+00 2.087913e+00 1.243683e+00 1.756259e+00 1.585200e+00 2.195433e+00 2.036106e+00 2.198397e+12
<GCONST> 1.517210e+02
<TRANSP> 5
 0.000000e+00 1.000000e+00 0.000000e+00 0.000000e+00 0.000000e+00
 0.000000e+00 8.682809e-01 1.317190e-01 0.000000e+00 0.000000e+00
 0.000000e+00 0.000000e+00 9.097239e-01 9.027615e-02 0.000000e+00
 0.000000e+00 0.000000e+00 0.000000e+00 6.919805e-01 3.080195e-01
 0.000000e+00 0.000000e+00 0.000000e+00 0.000000e+00 0.000000e+00
<ENDHMM>
